
// Using demo at: https://cs.stanford.edu/people/karpathy/convnetjs/demo/rldemo.html
let num_inputs = 11;
let num_actions = 6;
let temporal_window = 10;
let network_size = num_inputs*temporal_window + num_actions*temporal_window + num_inputs;

var layer_defs = [];
layer_defs.push({type:'input', out_sx:1, out_sy:1, out_depth:network_size});
layer_defs.push({type:'fc', num_neurons: 50, activation:'relu'});
layer_defs.push({type:'fc', num_neurons: 50, activation:'relu'});
layer_defs.push({type:'regression', num_neurons:num_actions});

// options for the Temporal Difference learner that trains the above net
// by backpropping the temporal difference learning rule.
var tdtrainer_options = {learning_rate:0.001, momentum:0.0, batch_size:64, l2_decay:0.01};

var opt = {};
opt.temporal_window = temporal_window;
opt.experience_size = 30000;
opt.start_learn_threshold = 1000;
opt.gamma = 0.7;
opt.learning_steps_total = 200000;
opt.learning_steps_burnin = 3000;
opt.epsilon_min = 0.05;
opt.epsilon_test_time = 0.05;
opt.tdtrainer_options = tdtrainer_options;
// opt.hidden_layer_sizes = [20,20];
opt.layer_defs = layer_defs;

let agents = [
  {
    brain: new deepqlearn.Brain(num_inputs, num_actions, opt),
    body: bot,
    enemy: protagonist
  },
  {
    brain: new deepqlearn.Brain(num_inputs, num_actions, opt),
    body: protagonist,
    enemy: bot
  }
];

let trainingData = [];

function botBrainCycle() {
  agents.forEach((agent) => {

    const currentMoment = snapMoment(agent.body, protagonist);
    const output = agent.brain.forward(currentMoment);

    const action = {
      0: {
        walkingDirection: 1,
        jumping: false
      },
      1: {
        walkingDirection: 0,
        jumping: false
      },
      2: {
        walkingDirection: -1,
        jumping: false
      },
      3: {
        walkingDirection: 1,
        jumping: true
      },
      4: {
        walkingDirection: 0,
        jumping: true
      },
      5: {
        walkingDirection: -1,
        jumping: true
      },
    };

    if (action[output]['jumping']) {
      agent.body.kineticState.jumping = true;
      agent.body.kineticState.freefall = true;
    } else {
      agent.body.kineticState.jumping = false;
    }
    agent.body.walkingDirection = action[output]['walkingDirection'];

    // if (action[output]['walkingDirection'] < 0.33) { agent.body.walkingDirection = -1; }
    // if (action[output]['walkingDirection'] >= 0.33 && output['walkingDirection'] < 0.66) { agent.body.walkingDirection = 0; }
    // if (output['walkingDirection'] >= 0.66) { agent.body.walkingDirection = 1; }
  });
}

function agentResponsibleFor(obj) {
  return agents.find((agent) => {
    return agent['body']['display']['color'] == obj['display']['color'];
  });
}

function rewardAgentsFor(obj, reward) {
  const responsibleAgents = agentResponsibleFor(obj);
  if (!responsibleAgents) { return; }
  if (responsibleAgents.body.display.color == 'blue') { return; } // one of them doesn't learn
  responsibleAgents.brain.backward(reward);
}

function savenet() {
  const j = agents[0].brain.value_net.toJSON();
  const t = JSON.stringify(j);
  const textArea = document.querySelector('#net-json');
  textArea.value = t;
  textArea
}

function loadnet(t) {
  var j = JSON.parse(t);
  agents[0].brain.value_net.fromJSON(j);
}

const jsontext = `{"layers":[{"out_depth":181,"out_sx":1,"out_sy":1,"layer_type":"input"},{"out_depth":50,"out_sx":1,"out_sy":1,"layer_type":"fc","num_inputs":181,"l1_decay_mul":0,"l2_decay_mul":1,"filters":[{"sx":1,"sy":1,"depth":181,"w":{"0":-259292608.64328074,"1":-52741861.874059096,"2":0.0006247645075991098,"3":-16109663.559535326,"4":-203171856.55501488,"5":19529434.41902195,"6":-35830996.523252115,"7":-25167274.102312565,"8":-48221.86349708733,"9":56120752.187508784,"10":72271296.6194145,"11":-259422063.6347511,"12":-56441034.46913473,"13":-2157583.7597586606,"14":49235471.09309533,"15":-182615468.11099857,"16":-85079111.10879804,"17":-62672565.06832544,"18":-11700525.649889087,"19":75527.22920351254,"20":76806595.58160451,"21":-28638076.55581746,"22":631817.7682410383,"23":-117419.02108445816,"24":283120.1565192116,"25":-501735.3601425935,"26":-1924977.8472519421,"27":110545.54634084334,"28":-259864098.5840288,"29":-72999079.15717123,"30":-9524832.85095794,"31":-33281252.998539776,"32":-132926006.14680108,"33":-20639271.052376553,"34":-9835883.173799587,"35":-49156806.135678574,"36":-15432.239907455907,"37":126938092.45846246,"38":52359808.15232636,"39":-1855108.4257533737,"40":564587.8657971479,"41":-387232.50618431217,"42":28734.989903869995,"43":-380893.45991523424,"44":511262.7374335891,"45":-259292608.5882641,"46":-50862634.095465265,"47":-0.00009616716345112037,"48":-30010898.328565117,"49":-116260459.06132606,"50":-73924622.27717008,"51":-22727422.468078867,"52":-78420589.99985527,"53":-60944.47077731674,"54":143032149.54463565,"55":-23061988.344251335,"56":201301.4678963155,"57":-435956.535662879,"58":-4369.740213318481,"59":-735804.8459844728,"60":-603403.6324893178,"61":59584.31992393101,"62":-260088579.71839964,"63":-46802147.266989075,"64":-13266188.267328992,"65":-45133544.22199025,"66":-104644932.8959219,"67":29514651.360323966,"68":9146759.299483513,"69":5262319.7601149,"70":-94313.2976806292,"71":155443647.0125526,"72":76316798.8462474,"73":-304319.9646033787,"74":-1293846.0542301564,"75":-617280.9394029393,"76":-364813.1788897472,"77":627142.3947788486,"78":434468.8226374299,"79":-258716134.1182347,"80":-42071053.20005279,"81":-4803952.584201725,"82":51896895.17402688,"83":-121683494.74417979,"84":-83244661.3349812,"85":61193613.10398102,"86":-70775026.90373592,"87":37929.03122676766,"88":137032639.43958208,"89":-41173607.85541957,"90":158693.52865885283,"91":163898.78558641428,"92":279105.42647121096,"93":-929381.1043103656,"94":-818771.6921722543,"95":-372194.1583646063,"96":-256824201.03018984,"97":-70481512.81525654,"98":-118965.51381616277,"99":-16090672.79249653,"100":-160720829.85786027,"101":-2324129.6908075553,"102":4893806.361831834,"103":-19180833.228717923,"104":-7217.732640545272,"105":96103371.14096181,"106":68157383.13894641,"107":-249202.52536318448,"108":-1482163.865348285,"109":369442.7067609865,"110":948403.4591721456,"111":-416107.35500019765,"112":-689021.1465275876,"113":-259580845.47082043,"114":-54576413.62538317,"115":-4803952.521969554,"116":36251592.664284006,"117":-174599332.6042783,"118":-69766752.73340431,"119":-75372618.32795073,"120":-3787745.0441505667,"121":49577.2407155611,"122":84981513.01502295,"123":-15190339.230102519,"124":764017.9021474634,"125":-78588.05126429239,"126":106290.75910497573,"127":-1497484.9944806497,"128":-92911.96083368275,"129":-719972.3932784606,"130":-259292608.58134574,"131":-63327481.39156822,"132":-0.0923127339256852,"133":-41577787.64520078,"134":-119332090.6307872,"135":-50206615.06138457,"136":5237125.6162729645,"137":-85427367.0602128,"138":-51553.90977608323,"139":139960517.95444703,"140":13120866.177170727,"141":-1433142.536315786,"142":-40916.941770559,"143":-409268.5555160224,"144":-206304.8237956575,"145":100750.70594083074,"146":470232.8157215366,"147":-259292608.41723552,"148":-55786563.38476683,"149":0.03118072581261114,"150":1958089.527415371,"151":-135878949.775137,"152":-12604601.393455734,"153":73358290.95789078,"154":-14088694.202320617,"155":2599.819052705177,"156":123413658.83303285,"157":43181961.95481301,"158":-14213.776823522523,"159":-1272334.6144637947,"160":675592.5283206836,"161":-116873.00221151623,"162":-318843.6355553674,"163":-471976.7030025676,"164":-259292608.6051234,"165":-73996575.25651863,"166":-0.11644476650240526,"167":21201704.20307783,"168":-181451963.3024074,"169":-74121574.92097503,"170":47246981.077790126,"171":6163753.891261069,"172":59352.68666343911,"173":77840645.26239681,"174":-124999.60006695201,"175":522840.98253524833,"176":-262544.98280605534,"177":-620197.1390531058,"178":390368.96796628076,"179":-1232020.0139440908,"180":-317096.7657937965}},{"sx":1,"sy":1,"depth":181,"w":{"0":-407455858841.1739,"1":-136319218595.34166,"2":0.06826459871309143,"3":-57893413896.21045,"4":-371490546675.9611,"5":-52004167899.13129,"6":-49171576709.915184,"7":-61557848345.53539,"8":-109097822.68547922,"9":35965312165.277336,"10":84315050696.17021,"11":-407557115480.19714,"12":-134484325137.50851,"13":-1687610647.600909,"14":-17660978653.374954,"15":-334107376373.6647,"16":-149017261363.3364,"17":-70032374783.96576,"18":-75978485464.09811,"19":-48593544.41400126,"20":73449739106.39236,"21":-14532936225.782516,"22":84526713.92460777,"23":-872098534.303024,"24":86157597.30622692,"25":-705135546.4377606,"26":-2340371645.4627285,"27":55367147.068944514,"28":-407902864682.6262,"29":-142162947065.16208,"30":-7450097356.695008,"31":-69829019708.2412,"32":-283281628018.64777,"33":-92105841227.8229,"34":20390010890.93841,"35":-113387153387.71059,"36":-110471196.40838206,"37":124621236663.85796,"38":50057105837.09144,"39":-2270769595.3291173,"40":-63723190.019685864,"41":-155227441.17451984,"42":-777131959.7336992,"43":-507292638.40818655,"44":82590557.14292683,"45":-407455858841.3294,"46":-139733485988.1681,"47":0.19731025443985298,"48":-48661585199.0796,"49":-284968733209.1044,"50":-128927418159.43138,"51":-37746183244.71183,"52":-141584402428.5469,"53":-86936046.53563781,"54":122487125632.22328,"55":10806067828.648472,"56":-133148003.1369317,"57":-731432202.9319283,"58":-630910031.7012386,"59":-1006999363.7588022,"60":-658342262.7638224,"61":-530722403.0414685,"62":-408035734587.5793,"63":-134742220758.76003,"64":-9664595769.517603,"65":-47917332780.60074,"66":-257701174619.62747,"67":-50157473810.96564,"68":-24649341311.98339,"69":-70453320800.76624,"70":-99841591.70873024,"71":150334559968.00513,"72":84584746947.75116,"73":-963345482.7873212,"74":-1407342895.1533988,"75":-576051620.3978552,"76":-853104153.6230304,"77":58752608.05433376,"78":49537276.22851572,"79":-407385805535.4076,"80":-131100021428.0014,"81":-583777549.9168249,"82":-9872553531.886913,"83":-248926199048.16742,"84":-131061996873.19937,"85":24510856052.659855,"86":-107447604419.21239,"87":-55991196.00241635,"88":158459606487.17313,"89":38024554.81911671,"90":-181578222.2214651,"91":-296629244.34183353,"92":6972186.3972976245,"93":-1590780274.9827545,"94":-1286457530.6231182,"95":-343081181.71123105,"96":-407351038634.41907,"97":-143726980989.8804,"98":-3266811736.213247,"99":-22860594734.239075,"100":-260539777216.14478,"101":-88339071744.36783,"102":-25654157002.590878,"103":-89384525644.57602,"104":-54346795.66628228,"105":146811261418.1648,"106":55387909245.44773,"107":-425021615.9149616,"108":-1513797720.5991278,"109":-204844586.79285178,"110":36841994.65181882,"111":-942772717.6653568,"112":-641959621.0967577,"113":-407490885494.485,"114":-144112718207.16232,"115":-583777549.8177214,"116":-15978653191.903841,"117":-253897015682.43317,"118":-99823861735.29317,"119":-78200209144.23409,"120":-24605707421.615833,"121":-34181090.870515846,"122":153593869811.92844,"123":44288856471.939354,"124":-92342985.63786888,"125":-102512590.14777718,"126":-356545840.1656674,"127":-1635687522.0479991,"128":-549382081.2021619,"129":-955083248.0865695,"130":-407455858841.32465,"131":-138467344224.89157,"132":0.03587799272433033,"133":-46337480559.32269,"134":-201265768715.2297,"135":-140881062609.58615,"136":24289107760.699837,"137":-165123733043.5618,"138":-89811890.72348382,"139":206190090126.05707,"140":-2413718384.7612743,"141":-1669682762.5488546,"142":-396152831.11220914,"143":-260863540.2032692,"144":-665873677.3515148,"145":-438836523.92372274,"146":-260144932.25299716,"147":-407455858841.40393,"148":-142437391206.85037,"149":-0.017439007544967914,"150":-36977162752.79417,"151":-224949842335.68887,"152":-65665031904.00014,"153":58482610037.26789,"154":-59965412256.67233,"155":-61826695.01699332,"156":182506016505.80502,"157":76772359302.83383,"158":-467119454.77817494,"159":-1253306773.6028392,"160":-266252294.2186482,"161":-331204306.90711385,"162":-616953159.9441845,"163":-756718278.1874353,"164":-407455858841.3935,"165":-155349294734.51498,"166":-0.030081474381176615,"167":-10068493115.110529,"168":-263689301598.99054,"169":-140290058222.8215,"170":18062060640.758347,"171":-53727400145.837364,"172":-4782128.900176038,"173":143766557242.50342,"174":15059236511.616096,"175":-251840647.1215823,"176":-391281582.03414154,"177":-633330774.522998,"178":-150797513.30079275,"179":-1050722537.2342567,"180":-1213581213.489648}},{"sx":1,"sy":1,"depth":181,"w":{"0":-24271987458.04798,"1":-8132440476.4307575,"2":-0.05970314443909808,"3":-3455253631.5593123,"4":-22130389825.65141,"5":-3103646529.326272,"6":-2932773997.1750793,"7":-3668194094.4989414,"8":-6509633.342011293,"9":2141597632.4393988,"10":5028793947.174683,"11":-24277995529.430832,"12":-8021846492.292913,"13":-100134521.44193006,"14":-1062829132.177685,"15":-19902317166.00415,"16":-8894156234.566854,"17":-4171148760.178339,"18":-4530004725.592081,"19":-2911720.486328569,"20":4375678363.187835,"21":-872309742.1924835,"22":5055118.614594026,"23":-52133589.24008535,"24":5057251.324591397,"25":-41813566.83167544,"26":-139696026.84965554,"27":3301947.572836773,"28":-24298510587.83107,"29":-8480175925.9174595,"30":-442052161.8851351,"31":-4171290048.909424,"32":-16875577764.887976,"33":-5492403686.697146,"34":1235290430.5061464,"35":-6772552686.992729,"36":-6600700.941446952,"37":7422932822.716135,"38":2987772239.0706444,"39":-135548266.04046068,"40":-3787579.9286914063,"41":-9329866.407799214,"42":-46239495.97862618,"43":-30182829.037071113,"44":4859172.075713422,"45":-24271987457.965633,"46":-8335167091.672019,"47":0.04717778539325195,"48":-2904405596.792661,"49":-16990319855.666582,"50":-7686361979.9347725,"51":-2241469857.593404,"52":-8450588337.220725,"53":-5190159.214713896,"54":7281667602.359318,"55":648805111.6341127,"56":-7832358.269620501,"57":-43590036.23889626,"58":-37768904.91632157,"59":-59949375.51708214,"60":-39316847.62255702,"61":-31771342.689644683,"62":-24306603003.62713,"63":-8036678011.776987,"64":-576925760.5761604,"65":-2861259756.8964715,"66":-15370942821.77884,"67":-2991396284.866848,"68":-1466138569.1395397,"69":-4200662010.351621,"70":-5961978.288916683,"71":8935660181.853092,"72":5045281726.885307,"73":-57362319.65327881,"74":-83902762.82893315,"75":-34486968.17270625,"76":-50820508.777234815,"77":3416748.2911781156,"78":2926945.8069122587,"79":-24267860376.859722,"80":-7822954894.350511,"81":-34392343.60433778,"82":-593004690.5686414,"83":-14851719734.94548,"84":-7820627243.477909,"85":1460353013.376658,"86":-6410776884.372773,"87":-3343808.9471632633,"88":9416140641.826109,"89":2327650.8099929406,"90":-10772340.008505803,"91":-17592843.466790598,"92":371473.7915997376,"93":-94972884.02554084,"94":-76771812.42162845,"95":-20490458.694280587,"96":-24265909554.07189,"97":-8571960575.772022,"98":-194082700.07877037,"99":-1355623160.1864314,"100":-15542505586.26134,"101":-5270130954.328753,"102":-1532245467.583919,"103":-5339925630.951554,"104":-3235030.758004837,"105":8723403967.915405,"106":3301829621.607207,"107":-25303901.91031257,"108":-90340314.54789962,"109":-12210805.983765513,"110":2164409.5569003355,"111":-56355554.61056825,"112":-38182697.934114784,"113":-24274050998.670063,"114":-8600505949.75185,"115":-34392343.484441355,"116":-956647982.5046197,"117":-15146053632.88377,"118":-5949985875.566903,"119":-4663936042.924457,"120":-1462820403.889041,"121":-2038271.3393369277,"122":9127997365.795,"123":2650520074.243963,"124":-5432144.038272908,"125":-6171751.294236631,"126":-21100677.9619482,"127":-97664053.80776791,"128":-32759258.089152705,"129":-57100979.9910747,"130":-24271987457.99651,"131":-8260478214.686465,"132":0.06440428214826373,"133":-2753650112.9882455,"134":-12006372133.210842,"135":-8405821693.410729,"136":1446703141.9809592,"137":-9860037763.581797,"138":-5342756.485052994,"139":12265615324.794296,"140":-145343478.79857025,"141":-99534979.66090094,"142":-23566095.982009113,"143":-15595979.866683615,"144":-39781436.595763266,"145":-26200898.686031394,"146":-15549474.394604454,"147":-24271987458.037693,"148":-8499276647.732728,"149":0.09678351030006441,"150":-2202728968.461778,"151":-13418616344.687868,"152":-3915589466.423942,"153":3489692106.3603234,"154":-3571367714.157238,"155":-3678843.229846328,"156":10853371113.287668,"157":4583687181.026841,"158":-27800119.64303254,"159":-74809342.41623281,"160":-15864362.047335364,"161":-19768656.82148004,"162":-36908626.16329901,"163":-45077758.329325,"164":-24271987457.963615,"165":-9270751355.604214,"166":0.09798470649035816,"167":-593862066.3591312,"168":-15727479293.122665,"169":-8372062796.409323,"170":1070390931.854424,"171":-3202477758.4216247,"172":-269851.37878878263,"173":8544508164.821575,"174":898688559.3700492,"175":-15043092.98605712,"176":-23282035.0018405,"177":-37790730.76344616,"178":-9007366.739189725,"179":-62605984.0563888,"180":-72499655.67821157}},{"sx":1,"sy":1,"depth":181,"w":{"0":-0.9868039006277006,"1":-0.20710586745986617,"2":0.020482435139273957,"3":0.4859532386078297,"4":-1.1548480862012898,"5":-0.5724422017181221,"6":0.2147022044643793,"7":-0.21746700122904813,"8":0.082887977266847,"9":-0.17671050166469485,"10":-0.482477712275778,"11":-0.9773334056775037,"12":-0.16660686371231598,"13":0.0376402141713014,"14":0.04992208164848161,"15":-1.3331054453832372,"16":0.18784571071145775,"17":0.4179717568030646,"18":-0.027531283026539895,"19":0.04853480845367671,"20":-0.3601536402936231,"21":0.5502710240045295,"22":0.04187991121557045,"23":0.047703054841260376,"24":0.0449464619156696,"25":-0.08752258265451328,"26":-0.019590144798001623,"27":-0.03167447449902128,"28":-0.850570580114612,"29":-0.17059172507195802,"30":-0.0683364737725638,"31":0.015803776145371,"32":-1.6633234754179507,"33":-0.43083259843871735,"34":-0.16210039962438139,"35":-0.8773590274691755,"36":-0.05934079940291282,"37":-0.7172287807828757,"38":-0.2972145619141158,"39":0.06625034197764379,"40":0.07832539550962037,"41":0.03846364957513269,"42":0.029017907544579953,"43":-0.06409368281006164,"44":0.05151661829750698,"45":-1.0065948769802588,"46":-0.2568465130759976,"47":-0.1750465590895165,"48":0.09753501654916072,"49":-1.47208409567437,"50":0.13378340345663606,"51":-0.004285557376560842,"52":-0.8674317294232139,"53":0.06382312252773474,"54":-0.3581291107197216,"55":0.40079951233002326,"56":0.08635300200363649,"57":-0.012788668267711831,"58":0.10253156068689315,"59":-0.10237666772296043,"60":-0.06188130884898167,"61":-0.11738102512424874,"62":-1.11421611880304,"63":-0.10242249637402709,"64":-0.08064793094466519,"65":0.2423559802340865,"66":-1.2553964759123617,"67":-0.13078735229132618,"68":-0.09460228040068225,"69":-0.38137297766928097,"70":-0.14311925437644774,"71":-0.27269838434426247,"72":0.03168486669374091,"73":0.12419918641371214,"74":0.019020914260418614,"75":-0.10084631099796752,"76":-0.05152840416152951,"77":-0.0605911730967053,"78":-0.014187261304900212,"79":-1.0340130492607549,"80":-0.1284689224082144,"81":-0.10224898647357361,"82":0.14548933613786744,"83":-0.9897217264271894,"84":0.12792105705625179,"85":-0.043222111628261596,"86":0.21075865235878719,"87":-0.11682376993997742,"88":0.1806402455962412,"89":0.4161566579107781,"90":-0.04703085444086413,"91":0.045128933749288815,"92":0.003220140890819563,"93":-0.06865166597983345,"94":-0.02087767330930154,"95":0.029477924710332937,"96":-1.129340810115848,"97":-0.10484866170889673,"98":-0.04095913958031695,"99":0.17124035741216553,"100":-0.7261680148086387,"101":0.033358824824730314,"102":0.5376370503531788,"103":0.8731606940739625,"104":-0.06557539722821151,"105":0.28096040315964904,"106":0.29833516629354656,"107":-0.040056114140297173,"108":0.03193325130821196,"109":-0.20817277165780732,"110":0.04052970182026715,"111":0.011342526960108264,"112":0.060240308016381375,"113":-1.1193023675221874,"114":-0.06280746502009099,"115":-0.007153119142838732,"116":0.4355670713067279,"117":-1.0536572153097932,"118":-0.4379079643863005,"119":0.3684832556394663,"120":0.34962547073880024,"121":0.018806706952663163,"122":0.09976521465520087,"123":-0.33295490071641004,"124":-0.004160401075475468,"125":-0.0611926184632011,"126":0.02848611207763578,"127":0.003272427341317418,"128":-0.01475596639770365,"129":0.022105314024052726,"130":-0.8716006751234036,"131":-0.22525592835993943,"132":-0.057241035235743816,"133":0.08820741502865351,"134":-1.224645014888047,"135":-0.3005248053568685,"136":0.20350650486276006,"137":0.8465328015059367,"138":0.008154510526111705,"139":-0.2088460635037901,"140":-0.004861560524130114,"141":-0.0543243857595475,"142":0.011809527069258075,"143":-0.01610503634856384,"144":0.09573445731358952,"145":-0.03286589974998289,"146":0.13541105838525086,"147":-0.9258197921283632,"148":-0.20158034211776824,"149":0.012256441534347517,"150":0.01142363715302895,"151":-1.1529432061089535,"152":-0.14765623215177925,"153":-0.5585979291087235,"154":-0.20475795447090053,"155":0.0077084662018948825,"156":-0.028627574939551304,"157":-0.13929599510599572,"158":0.010644204208394686,"159":0.04343039411614804,"160":-0.09171277462611369,"161":-0.05434717897804876,"162":0.04972439210272154,"163":0.008064390024319936,"164":-0.9068549466668901,"165":-0.14059520534365003,"166":-0.03020009556391233,"167":-0.056242431976964165,"168":-0.47207151372052053,"169":-0.06207253292240782,"170":-0.43143332632932846,"171":0.13269232177249196,"172":0.03412887130430198,"173":0.12370216828689347,"174":0.20994083545854741,"175":-0.015598018617078166,"176":0.0213316662494099,"177":0.01939007099271526,"178":-0.05394196908957303,"179":-0.03518108220557997,"180":0.010291263235133758}},{"sx":1,"sy":1,"depth":181,"w":{"0":-2.688809737051358e+236,"1":-1.037869898015637e+236,"2":-0.0010440219383347907,"3":-4.2188440115828956e+235,"4":-2.58428625581906e+236,"5":-4.591789902186847e+235,"6":-3.4094423714203744e+235,"7":-9.217173922804324e+235,"8":-6.495259839992662e+232,"9":1.0452348123229872e+235,"10":5.786909077969527e+235,"11":-2.6889634568407275e+236,"12":-8.464603957810433e+235,"13":1.379664610553258e+232,"14":-5.016545140001328e+235,"15":-2.37151268112623e+236,"16":-9.43087673404572e+235,"17":-2.7977551648329617e+235,"18":-7.378314164601684e+235,"19":-1.0513967660713486e+233,"20":3.1745077571449596e+235,"21":-9.662727762352894e+234,"22":-6.995528835831502e+232,"23":-1.3129156928625347e+233,"24":-3.1063789429439753e+232,"25":-1.1169962555784295e+234,"26":-1.2052002973098263e+234,"27":-2.909254358579863e+232,"28":-2.6919101988284466e+236,"29":-1.003864894664431e+236,"30":-3.1893001742573734e+234,"31":-4.9070213273716866e+235,"32":-2.26352368217813e+236,"33":-7.398624204019636e+235,"34":2.278669608558113e+234,"35":-8.25818854083462e+235,"36":-8.572750038989702e+232,"37":4.283865166503183e+235,"38":2.640024742624672e+235,"39":-6.676810654747985e+233,"40":-7.646516694930544e+233,"41":-8.191338801242617e+232,"42":-5.042392253972496e+233,"43":-4.8694146877256975e+233,"44":-7.817292639796398e+232,"45":-2.690496368205144e+236,"46":-8.74920680650908e+235,"47":9.168375525312328e+232,"48":-2.6816109449329863e+235,"49":-2.3161341581484747e+236,"50":-7.454821260664591e+235,"51":-2.3125648177031163e+235,"52":-7.313664196480184e+235,"53":-7.454607321169478e+232,"54":3.743622100566709e+235,"55":1.294385545844492e+235,"56":-2.887209005131353e+233,"57":-8.371969558042292e+233,"58":-3.114235962824662e+233,"59":-5.4839176040358265e+233,"60":-3.675164008821461e+233,"61":-2.3035012966250347e+233,"62":-2.6924989314903665e+236,"63":-9.739731265907928e+235,"64":-3.196288611253847e+234,"65":-3.704057060414182e+235,"66":-2.1847979330398487e+236,"67":-6.501649543764713e+235,"68":-7.626187918796639e+234,"69":-6.274210584655658e+235,"70":-7.314756765806801e+232,"71":5.0770099845051744e+235,"72":3.2380817221432164e+235,"73":-1.0079524329564633e+234,"74":-2.1685452148036695e+233,"75":-1.0359535031087323e+233,"76":-7.459712972328319e+233,"77":-2.9519493350047862e+233,"78":-2.1403120806704827e+233,"79":-2.6907757914778262e+236,"80":-9.119160554721869e+235,"81":-0.07260754251041177,"82":-3.6305101603927563e+235,"83":-2.1556583853761455e+236,"84":-8.213596766244839e+235,"85":1.0054066692856374e+234,"86":-5.552491651516942e+235,"87":-8.795906185255352e+232,"88":5.351174061016807e+235,"89":9.055637884770347e+234,"90":-5.216189416603857e+233,"91":-4.273653706998562e+233,"92":-2.3003795579429419e+232,"93":-6.481129178975513e+233,"94":-4.137006663995435e+233,"95":-5.497980513112965e+233,"96":-2.6907757914778262e+236,"97":-9.427031136336585e+235,"98":-1.7710689927862094e+52,"99":-3.82205818782671e+235,"100":-2.1556985454778753e+236,"101":-7.297380802834086e+235,"102":-4.2158489912166547e+235,"103":-6.000907563183829e+235,"104":-7.545639971682839e+232,"105":5.350772459999501e+235,"106":2.1296503335024929e+235,"107":-4.324721162203383e+233,"108":-7.457448059949481e+233,"109":-2.6024175040804824e+233,"110":-5.349669038010494e+233,"111":-2.7794999829345825e+233,"112":-3.3222416883022744e+233,"113":-2.6907757914778262e+236,"114":-9.96328734697388e+235,"115":1.5808221778479335e+50,"116":-1.619020117739525e+235,"117":-1.8964476022027089e+236,"118":-8.179522987527391e+235,"119":-3.89652658256948e+235,"120":-6.370232534182028e+235,"121":-3.9944796132276813e+232,"122":7.943281892751162e+235,"123":1.7837643594464934e+235,"124":-8.656889855167196e+233,"125":-5.623263214843082e+233,"126":-1.1678488870451452e+233,"127":-4.764975996116221e+233,"128":-5.269572727417329e+233,"129":-3.534467548916456e+232,"130":-2.6907229819767194e+236,"131":-1.0631612245863253e+236,"132":8.801583517689976e+232,"133":-1.0966041428829977e+235,"134":-1.691836580481357e+236,"135":-7.167531142361056e+235,"136":9.617144058777008e+234,"137":-4.356217539328205e+235,"138":-1.7134439732546848e+232,"139":9.988864014953615e+235,"140":3.4640811035021927e+235,"141":-6.778864193234959e+233,"142":-4.2370511905448135e+233,"143":-2.554300169675474e+233,"144":-5.81307911448491e+233,"145":-3.633090297613491e+233,"146":-2.8196124699269704e+233,"147":-2.6906567727028643e+236,"148":-9.872323013957393e+235,"149":-7.16316701157941e+232,"150":-1.6857132161658616e+235,"151":-1.7588987929494685e+236,"152":-8.710865278805211e+235,"153":-2.6393870356457444e+234,"154":-6.916437640402527e+235,"155":-3.867532054591957e+232,"156":9.317579797533944e+235,"157":1.1614577351521791e+235,"158":-3.9517306709206794e+233,"159":-4.211972180066719e+233,"160":-5.535182060898497e+233,"161":-5.313596074482926e+233,"162":-3.93251002404284e+233,"163":-2.891006425068949e+233,"164":-2.689704622503163e+236,"165":-1.0128026828322266e+236,"166":0.13935963743525104,"167":-3.335304823974799e+235,"168":-1.7620151796635625e+236,"169":-7.893919274788889e+235,"170":-1.814972143407852e+235,"171":-5.526439746573349e+235,"172":-5.669569201627093e+232,"173":9.276894428396073e+235,"174":2.2341075535333802e+235,"175":-5.045063379820569e+233,"176":-5.355996223520061e+233,"177":-5.865217024811117e+233,"178":-3.462740313654225e+233,"179":-3.645079056084173e+233,"180":-2.4619014375904736e+233}},{"sx":1,"sy":1,"depth":181,"w":{"0":-28.081898181917488,"1":-10.763896903984081,"2":0.14446899632309454,"3":-5.298424947868897,"4":-26.09758169400581,"5":-5.357604289983677,"6":-0.8572872104379257,"7":-8.07905826672353,"8":-0.10690723939926869,"9":2.1641193764773883,"10":5.204328080606424,"11":-28.21010450860049,"12":-8.825899238425764,"13":-0.36153638463311716,"14":-3.598766709652146,"15":-25.67187005025833,"16":-9.542157646076852,"17":-0.09061478398444694,"18":-10.025922971139986,"19":-0.07985327998867811,"20":2.6426658592629386,"21":-0.5684652359539594,"22":0.13089923294998873,"23":-0.13231797849047505,"24":0.059739188806312404,"25":-0.22677624687248532,"26":0.12022847800756195,"27":-0.04255871551011055,"28":-28.13841103519494,"29":-11.449207535238777,"30":-0.19256348051342456,"31":-4.002265019191831,"32":-25.745575586650027,"33":-7.43279658005505,"34":-2.4311176259194434,"35":-6.8240724664438135,"36":-0.043658760973127174,"37":2.432300179192476,"38":4.014301683244198,"39":-0.03178093736237857,"40":-0.01808962222121404,"41":-0.07042464926841349,"42":-0.08208026905717372,"43":-0.13731170795771455,"44":0.06196527790206053,"45":-28.04854784775462,"46":-10.539635531729022,"47":-0.4783546892189113,"48":-2.4089186920488452,"49":-24.022563984986228,"50":-9.17832758110824,"51":-4.5103140228691565,"52":-7.771846620597508,"53":-0.044176747796438424,"54":3.791378049522639,"55":1.3667312241002987,"56":-0.04473436590620561,"57":-0.019188129973997773,"58":-0.075135458474661,"59":-0.10619625230800185,"60":0.021152558133050742,"61":-0.017511830887756753,"62":-28.04795019025783,"63":-10.63835581838173,"64":-0.34381324732039303,"65":-4.441039883012503,"66":-21.27506332457689,"67":-7.116232498798704,"68":1.0177263543073871,"69":-7.9667827832328175,"70":-0.004836798055196803,"71":6.571903804281898,"72":3.735622500128965,"73":-0.21011004471488504,"74":-0.007957968723621308,"75":0.009869235866070393,"76":-0.15953955060124891,"77":-0.023567937867847458,"78":0.0030163946422433023,"79":-27.952383089518868,"80":-9.867349853554193,"81":-0.05470745048998997,"82":-4.233709936983743,"83":-22.196984664598926,"84":-9.287714442209149,"85":-0.3042359482392601,"86":-8.905383014098934,"87":-0.09673565367144873,"88":5.738653794336856,"89":0.5413705730441984,"90":-0.09446079496932394,"91":-0.18209583826996703,"92":-0.05877679264021592,"93":-0.05383865239175585,"94":-0.03979135157318615,"95":-0.1499777598333864,"96":-27.855344710073503,"97":-10.602997422328851,"98":-0.003569139502457618,"99":-4.194154563600545,"100":-21.814081987084535,"101":-7.600962649721355,"102":-2.0136337453815933,"103":-5.499428056436757,"104":0.05127712983402638,"105":6.114219271763819,"106":3.3438803521820253,"107":-0.032436171222172044,"108":-0.10982938178357197,"109":-0.04437631674043025,"110":-0.08986741245999486,"111":0.09048502399222919,"112":-0.09898254752726894,"113":-27.918644395899165,"114":-11.267363682501026,"115":-0.17858533234703564,"116":-2.1547735317211205,"117":-20.63823908269024,"118":-9.235967154890304,"119":-1.9174670182011313,"120":-7.89785630569873,"121":0.02806839602259463,"122":7.22146779196632,"123":1.7756468847256535,"124":-0.0419448950595012,"125":-0.1072077287680251,"126":-0.09683959916219122,"127":0.04303548088042835,"128":-0.07045660314751737,"129":-0.08928392750376041,"130":-27.729985191272185,"131":-10.891922279811137,"132":0.0748475999071317,"133":-2.7216561794530354,"134":-19.749995418279152,"135":-7.392992780706946,"136":-1.6821106669138115,"137":-9.31064561606857,"138":0.05653400172449258,"139":8.191314205131608,"140":3.429055513234177,"141":0.00890505198486147,"142":-0.08962190940813952,"143":-0.10400794881426904,"144":-0.019859084278237675,"145":-0.24316153523759143,"146":0.03936292027090491,"147":-27.77312546598639,"148":-11.154874356615656,"149":0.03662746984982809,"150":-1.1263120806848652,"151":-18.622002153239873,"152":-9.43517316792133,"153":-1.8348410093042546,"154":-9.252082409426256,"155":-0.018086091412076472,"156":9.234674974110419,"157":1.9569245535220259,"158":-0.10794327399812513,"159":-0.002528459344999577,"160":-0.016396808776335016,"161":-0.04228081833369954,"162":0.054329229913249455,"163":-0.012862923817760802,"164":-27.836532964674078,"165":-11.102924775755579,"166":-0.09472726291054122,"167":-1.966966893266767,"168":-17.712845473561224,"169":-7.851558693582124,"170":-2.8215350468371923,"171":-6.35208402942475,"172":0.07813027927208878,"173":10.313832387317833,"174":3.2417166387169605,"175":-0.19838338817281478,"176":-0.16366118921773143,"177":-0.009532411990105552,"178":-0.03885547540142947,"179":-0.01816436620504003,"180":-0.017456449454598465}},{"sx":1,"sy":1,"depth":181,"w":{"0":-2.613508409583123,"1":-2.1321380288452203,"2":-0.023273862880447478,"3":-0.6722026593335443,"4":-2.334220193164696,"5":-0.6827572229243255,"6":0.7762939502149994,"7":-0.6065784557335313,"8":-0.00705826664309442,"9":0.45830010856399384,"10":1.6809405944429023,"11":-2.652054839464528,"12":-2.1226894431491523,"13":0.09840904598129452,"14":-0.07971531322018213,"15":-2.631527507309102,"16":-2.2360597034734817,"17":0.28071965916689184,"18":-1.48281534548019,"19":-0.029239793622147507,"20":-0.0950404017035907,"21":-0.2777264269530866,"22":0.08332399541236311,"23":-0.12440818250565525,"24":-0.05179048961399586,"25":-0.08304944556846988,"26":0.11742997535510817,"27":-0.08226471840896084,"28":-2.772556164713262,"29":-2.3182195263535035,"30":-0.08046350631820928,"31":-0.2311366119226916,"32":-2.6321727960522856,"33":-1.2811135196609336,"34":1.4258086546086657,"35":-0.7836258583662395,"36":0.06661962455223197,"37":-0.12347583296578585,"38":1.1160553573930114,"39":0.019050493353755846,"40":0.02259266841282964,"41":-0.0747249244108695,"42":-0.06915898160869009,"43":0.037917740501101124,"44":0.05318751330564186,"45":-2.466375509629959,"46":-2.060783906852371,"47":0.0169154552605271,"48":-0.2631282890704465,"49":-3.759188871275281,"50":-1.9122458440370105,"51":0.0662234561540718,"52":0.10665471947294529,"53":-0.03686518505455966,"54":-1.0903807173858888,"55":0.30598255494794063,"56":-0.06039917195164528,"57":-0.06389972691170524,"58":-0.015504821533693298,"59":-0.10962326154583894,"60":0.0977355364149091,"61":-0.034203025417047866,"62":-2.598971413454717,"63":-2.2021894027059528,"64":0.06881684999506632,"65":-0.7311627466919557,"66":-4.397733477588952,"67":-1.7111770318029151,"68":-0.3334248819602322,"69":-1.346129097293233,"70":0.0304719472316091,"71":-1.8348551644681348,"72":0.5443203595342558,"73":-0.06938187616172153,"74":-0.15300347577154053,"75":0.08358741307771483,"76":0.056655109000031484,"77":0.08006887305569449,"78":0.015530425504411806,"79":-2.6626950906903737,"80":-2.0961627879126485,"81":-0.022036613488477144,"82":-0.9718457882924579,"83":-4.839737467630816,"84":-1.9026840189375913,"85":-0.8554005703020064,"86":-3.277293661126416,"87":0.004574580321031803,"88":-2.291753292358025,"89":0.1952010398955492,"90":0.049145742265380224,"91":0.03699988137961134,"92":-0.04910949852181435,"93":-0.06052197607575867,"94":0.05041786581891881,"95":0.015343097457935155,"96":-2.7682508291908814,"97":-2.165687926936985,"98":0.06083021067159339,"99":-1.3435574875111518,"100":-5.087886245134589,"101":-1.751774724906184,"102":-1.1622273518556347,"103":-2.6371521698699065,"104":-0.0005584332051929404,"105":-2.2817236517333455,"106":0.2984408245282067,"107":-0.05477043575553056,"108":-0.017883192066522977,"109":0.06377713837078203,"110":-0.00616977210735369,"111":-0.026556056805596986,"112":0.10922162511965756,"113":-2.554090171316184,"114":-2.067834103207276,"115":-0.015469180928793805,"116":-0.9652034529529304,"117":-4.785771555456113,"118":-1.3864362426796817,"119":-2.018074749687566,"120":-2.615001129311816,"121":-0.023904505306616697,"122":-2.137255477442362,"123":0.7695456121741032,"124":0.06824990134592987,"125":-0.049207475917296406,"126":0.08835405375220085,"127":0.05243486056311176,"128":-0.017267681922180207,"129":-0.05622930473072735,"130":-2.795863348543231,"131":-1.9085738417627256,"132":-0.04719097010002892,"133":-1.0427502068917316,"134":-4.311058737251233,"135":-1.5443600153077115,"136":-0.8902124509498047,"137":-3.095775747223342,"138":0.049822338739582944,"139":-1.5203988723222774,"140":0.2806321578555208,"141":-0.029615829358690154,"142":0.01812063684449891,"143":0.14666800787724812,"144":-0.07667880420041645,"145":0.09405349352567827,"146":-0.04488385048143731,"147":-2.5931003958669416,"148":-2.0523873960275063,"149":0.02920780955674508,"150":-0.8189367376928955,"151":-3.967008827768437,"152":-1.2551498016396623,"153":-0.7037601091010565,"154":-2.954038108898095,"155":-0.053697934636537915,"156":-1.46496329020631,"157":0.8538388563010073,"158":0.1411963421969621,"159":-0.030337242323851602,"160":0.0023052759661963992,"161":-0.09537260913621766,"162":0.04414807241392328,"163":0.019319276210745882,"164":-2.85159493699847,"165":-2.34555100563827,"166":-0.05408080754107705,"167":-0.04033541113535414,"168":-3.403845201597433,"169":-1.2443888219171049,"170":-1.251215296468003,"171":-2.202926881488278,"172":-0.09173584441384235,"173":-0.7117580113958643,"174":1.141940832486883,"175":-0.07621812940188442,"176":0.1391388805116014,"177":0.023551844915622146,"178":-0.06290092741273456,"179":0.02099477489100023,"180":0.018480955841616263}},{"sx":1,"sy":1,"depth":181,"w":{"0":-71483465239.28697,"1":-23985146729.990944,"2":-0.023753992982145398,"3":-10247995334.553541,"4":-65244788958.42658,"5":-9279054343.65003,"6":-8562347781.040051,"7":-10857253044.04595,"8":-19259481.636374697,"9":6238676280.844518,"10":14706092386.414446,"11":-71501159346.68358,"12":-23661409952.4572,"13":-294901791.2203167,"14":-3259708231.3564386,"15":-58706887048.5065,"16":-26122615141.404926,"17":-12233340040.818722,"18":-13451146637.66733,"19":-8808994.70076093,"20":12794272298.210535,"21":-2461205188.7445703,"22":12708986.840310745,"23":-153054690.81762904,"24":14246859.225214092,"25":-124435927.8463889,"26":-408081535.74758613,"27":9031512.841640979,"28":-71561577346.18237,"29":-24981670788.755894,"30":-1301868447.9815273,"31":-12287958739.899946,"32":-49831763325.83236,"33":-16274909297.87928,"34":3560659623.3137074,"35":-19910196324.19671,"36":-19515978.684261084,"37":21729814020.204994,"38":8706761490.851763,"39":-395875283.3015027,"40":-12496450.100739293,"41":-26801175.4120877,"42":-138414984.86537904,"43":-89581365.47297204,"44":13584463.368014557,"45":-71483465239.16245,"46":-24606742205.180458,"47":0.014655719494016643,"48":-8516403256.922768,"49":-50128203459.91848,"50":-22632044234.847725,"51":-6589033995.433613,"52":-24833138774.269474,"53":-15209148.27180548,"54":21355261779.216995,"55":1974697970.2466924,"56":-25256997.79713734,"57":-128023053.68744956,"58":-111058431.76991278,"59":-176731327.8297829,"60":-114975139.49970429,"61":-93539844.69770098,"62":-71583976668.15936,"63":-23741646370.016087,"64":-1675190484.5737302,"65":-8361334257.676809,"66":-45353341004.14456,"67":-8980522512.537048,"68":-4332564573.166966,"69":-12516975759.527634,"70":-17409525.55125046,"71":26230635664.1192,"72":14761123857.473604,"73":-169250108.17239064,"74":-245726908.4898691,"75":-100057727.72026788,"76":-149713758.49301052,"77":8146783.6010784,"78":7016923.869878153,"79":-71471999033.3683,"80":-23097554048.795303,"81":-95551715.3345058,"82":-1890924981.2022028,"83":-43785094668.15396,"84":-22986553969.201637,"85":4212096712.6637607,"86":-18863705833.679707,"87":-10023285.417553607,"88":27686904365.24323,"89":111000079.57005993,"90":-32607534.034387097,"91":-53442675.87522516,"92":581055.4977481617,"93":-278944338.7858832,"94":-225091816.7480082,"95":-60079485.208679706,"96":-71468865282.50752,"97":-25284807733.99702,"98":-577320121.986529,"99":-4030708253.9097395,"100":-45762830148.3525,"101":-15640946462.147505,"102":-4585462939.797565,"103":-15762722883.867414,"104":-9587884.08814088,"105":25706035133.904526,"106":9643861271.921423,"107":-74965178.89915627,"108":-263988542.89541113,"109":-36898303.723808065,"110":3695954.581242505,"111":-164983396.89434573,"112":-112445327.77550398,"113":-71489198342.09999,"114":-25364691262.851227,"115":-95551715.43419185,"116":-2928610172.8548207,"117":-44530123817.60841,"118":-17524156546.26196,"119":-13572799414.245138,"120":-4375176814.503581,"121":-6206691.473821272,"122":26959074524.405285,"123":7840534716.625483,"124":-19325239.894573417,"125":-18476570.67530548,"126":-63477389.75656446,"127":-285112135.9169365,"128":-96725871.49745516,"129":-166467587.64792854,"130":-71483465239.3311,"131":-24332495727.734722,"132":0.09731722691007182,"133":-8126711931.733404,"134":-35411728135.8893,"135":-24790796838.462173,"136":4262547087.3793235,"137":-28929080972.862118,"138":-15851320.013388084,"139":36071737103.53557,"140":-458301110.99815166,"141":-292352405.02535635,"142":-70016208.1824809,"143":-45283471.11145899,"144":-116479908.3744157,"145":-77659944.6776649,"146":-47792858.28918623,"147":-71483465239.2201,"148":-25067368335.742687,"149":-0.09616922069546743,"150":-6578574013.13694,"151":-39571128389.54509,"152":-11658576534.346022,"153":10160781117.538631,"154":-10616534802.49995,"155":-11007291.098064104,"156":31912336849.685883,"157":13408791801.507946,"158":-82741228.29601423,"159":-218200065.2378733,"160":-49065197.06015161,"161":-59259095.46744658,"162":-107813021.1142048,"163":-132506188.69179302,"164":-71483465239.16783,"165":-27305120870.392845,"166":0.06172286500851557,"167":-1839166394.5242167,"168":-46325537535.5025,"169":-24608892769.487873,"170":3071264616.6379895,"171":-9589620622.859184,"172":-1013566.6117895931,"173":25157927703.841045,"174":2696228100.6613054,"175":-46369931.23639824,"176":-68796559.12379412,"177":-111044950.33524507,"178":-27222232.01688504,"179":-183495751.86983296,"180":-212655371.0358821}},{"sx":1,"sy":1,"depth":181,"w":{"0":0,"1":0,"2":0,"3":0,"4":0,"5":0,"6":0,"7":0,"8":0,"9":0,"10":0,"11":0,"12":0,"13":0,"14":0,"15":0,"16":0,"17":0,"18":0,"19":0,"20":0,"21":0,"22":0,"23":0,"24":0,"25":0,"26":0,"27":0,"28":0,"29":0,"30":0,"31":0,"32":0,"33":0,"34":0,"35":0,"36":0,"37":0,"38":0,"39":0,"40":0,"41":0,"42":0,"43":0,"44":0,"45":0,"46":0,"47":0,"48":0,"49":0,"50":0,"51":0,"52":0,"53":0,"54":0,"55":0,"56":0,"57":0,"58":0,"59":0,"60":0,"61":0,"62":0,"63":0,"64":0,"65":0,"66":0,"67":0,"68":0,"69":0,"70":0,"71":0,"72":0,"73":0,"74":0,"75":0,"76":0,"77":0,"78":0,"79":0,"80":0,"81":0,"82":0,"83":0,"84":0,"85":0,"86":0,"87":0,"88":0,"89":0,"90":0,"91":0,"92":0,"93":0,"94":0,"95":0,"96":0,"97":0,"98":0,"99":0,"100":0,"101":0,"102":0,"103":0,"104":0,"105":0,"106":0,"107":0,"108":0,"109":0,"110":0,"111":0,"112":0,"113":0,"114":0,"115":0,"116":0,"117":0,"118":0,"119":0,"120":0,"121":0,"122":0,"123":0,"124":0,"125":0,"126":0,"127":0,"128":0,"129":0,"130":0,"131":0,"132":0,"133":0,"134":0,"135":0,"136":0,"137":0,"138":0,"139":0,"140":0,"141":0,"142":0,"143":0,"144":0,"145":0,"146":0,"147":0,"148":0,"149":0,"150":0,"151":0,"152":0,"153":0,"154":0,"155":0,"156":0,"157":0,"158":0,"159":0,"160":0,"161":0,"162":0,"163":0,"164":0,"165":0,"166":0,"167":0,"168":0,"169":0,"170":0,"171":0,"172":0,"173":0,"174":0,"175":0,"176":0,"177":0,"178":0,"179":0,"180":0}},{"sx":1,"sy":1,"depth":181,"w":{"0":-6.447485148154661,"1":-2.231152947635698,"2":0.08155245115174702,"3":-1.054573609030087,"4":-6.084510908782877,"5":-1.5390598961681368,"6":0.22183743800248693,"7":-1.3481428683920476,"8":0.030402875640519533,"9":0.3308763092548819,"10":0.6154317261712191,"11":-6.414250324467283,"12":-2.0985640863261774,"13":-0.38241540682006464,"14":-1.484818374913953,"15":-6.133681964683487,"16":-1.730325843080438,"17":-0.028763280649141514,"18":-2.1484789810871923,"19":-0.047064580219210644,"20":0.32482803917163733,"21":0.3835634424609725,"22":0.026484053548006106,"23":-0.03700420261482258,"24":0.07711992705352147,"25":0.013264037392694272,"26":-0.08702543376894817,"27":0.0059989474627126635,"28":-6.346030685603894,"29":-2.329670621337567,"30":-0.21603777520619769,"31":-0.05687639276278695,"32":-5.855208367566943,"33":-2.1651636052112573,"34":-0.9946575917899676,"35":-2.6028281476018913,"36":0.05338390488255686,"37":0.46336276455293407,"38":0.3611345868951473,"39":0.10317664358724656,"40":-0.014337120335057555,"41":-0.11490972019394569,"42":0.05043208753967542,"43":0.016740604780681043,"44":-0.039949243338947345,"45":-6.283114476612211,"46":-2.359224100487743,"47":-0.3361850364925105,"48":-1.2594411512796588,"49":-4.9594845277551425,"50":-1.3028141049157085,"51":0.5100742122237325,"52":-0.6479259439857574,"53":0.0013650000529586471,"54":1.314961935920963,"55":1.2186395571442727,"56":-0.0281825042617523,"57":0.005793390187334586,"58":-0.06719534030128066,"59":-0.10106552157354858,"60":0.015496874736751062,"61":-0.03470285787002322,"62":-6.117665525593324,"63":-1.959993333570119,"64":-0.018629916122902452,"65":-0.9985604945974549,"66":-5.207692017398986,"67":-2.347273042567644,"68":-0.5570756288235809,"69":-1.9145509423163747,"70":0.033616348678637144,"71":0.9278636538941764,"72":-0.4311395233655477,"73":0.007191657092196628,"74":-0.05961599998037397,"75":0.05597385930357041,"76":0.027427086713260794,"77":-0.0015488678892506653,"78":-0.1418619265186555,"79":-6.249985332216228,"80":-2.265278530336643,"81":0.009386638604433797,"82":-2.22180653833745,"83":-4.847740492532322,"84":-1.2129921835823372,"85":0.005864196706788293,"86":-0.9734668557677079,"87":0.047084158537565236,"88":1.2036000921005965,"89":1.014715505033834,"90":-0.013108129323440671,"91":0.05645721717544163,"92":-0.005574860567800046,"93":-0.039299850619949915,"94":-0.018663181623192946,"95":0.06896733603589847,"96":-6.128863447445874,"97":-1.771334975437128,"98":0.10898049392372267,"99":-0.8075391893717448,"100":-4.668082854028643,"101":-1.9172511901509457,"102":-1.4289755868689369,"103":-1.9204925011839944,"104":-0.12166896373637577,"105":1.4440097339865439,"106":-0.09402111840828475,"107":0.010519310102426972,"108":0.051369289869236695,"109":0.014144873696222136,"110":-0.029526573342016766,"111":-0.12214353059016317,"112":-0.07653835550117605,"113":-6.218534030738901,"114":-2.2635723851484153,"115":0.0922699575013708,"116":-0.4735610210099731,"117":-3.998793532033489,"118":-1.9009485358232971,"119":-1.0261982955893347,"120":-1.7100337030902628,"121":-0.0006382353515128294,"122":2.2229407365619265,"123":0.2558635782847022,"124":0.0005906659881019017,"125":0.09677910845239825,"126":-0.11965116652626177,"127":0.002028952656504713,"128":-0.07119550188720854,"129":0.025583447505381284,"130":-6.1153378128579226,"131":-2.5160989432755714,"132":0.005609811625111711,"133":0.24256990440321466,"134":-3.485217581130871,"135":-1.4337771623549604,"136":0.061378425529011564,"137":-3.0275931726788077,"138":-0.032736287618353316,"139":2.720756902161138,"140":1.205847136664872,"141":-0.1564097495093455,"142":-0.017836558187635507,"143":0.04755879441189018,"144":-0.02644521119441628,"145":-0.22839506920234293,"146":-0.04983278595827072,"147":-6.134284551929625,"148":-2.2317695241390485,"149":0.047665091785666025,"150":-0.5809608055669725,"151":-3.746357129218346,"152":-1.8801341950884756,"153":-0.5189360257444215,"154":-0.6691409876381603,"155":0.009445821426582485,"156":2.338574617452894,"157":0.4849406413232743,"158":0.04568774764411863,"159":-0.025010282135155607,"160":-0.015771603659320094,"161":0.01337095919893684,"162":-0.07001420810680488,"163":-0.049000357918943846,"164":-5.989297724614721,"165":-2.2794499679774938,"166":0.0673166550828548,"167":-0.7785090391510973,"168":-3.5275065548648503,"169":-2.3447590755416328,"170":0.12279674250252622,"171":-2.6179052045463487,"172":0.026943220263581584,"173":2.532595916494367,"174":-0.1585765711373713,"175":-0.11037307636267162,"176":0.06708300716152794,"177":-0.027728595151096574,"178":0.10940859201110803,"179":-0.044301075810988765,"180":0.051484239693130804}},{"sx":1,"sy":1,"depth":181,"w":{"0":-5.010733812658475,"1":-2.052833743751557,"2":-0.04498605465713838,"3":-1.0512973557393017,"4":-4.597743221484666,"5":-0.7126196390085442,"6":-0.3072920052908199,"7":-0.31195722721849795,"8":0.1296128994955495,"9":0.3634528683054454,"10":1.3135706246432408,"11":-4.720172964396921,"12":-1.7511738512157722,"13":-0.30461727810126527,"14":-1.04166118751196,"15":-4.53848943979958,"16":-1.5908861814869462,"17":0.5328115629890225,"18":-2.60126807281665,"19":0.048524761023708285,"20":0.47976776630113954,"21":-0.024936875478216835,"22":-0.10770821890906596,"23":-0.08514445192757492,"24":-0.08968058626228184,"25":-0.048302593208851045,"26":0.10205862533869896,"27":-0.1125349782375162,"28":-4.920634385568748,"29":-2.171540826028508,"30":-0.2585652700574743,"31":0.43650804199268606,"32":-5.14495856193047,"33":-2.188565522927322,"34":-1.410883743326227,"35":-1.990434256093524,"36":0.0415475479167299,"37":-0.3201091266046085,"38":-0.020487296560980483,"39":0.12180672004747985,"40":0.0002443954700106873,"41":-0.025266818359685965,"42":0.028538444972825955,"43":-0.11699379330049092,"44":-0.06605992799221144,"45":-4.834943055901724,"46":-2.518938033208621,"47":-0.20106468695680152,"48":-1.274102142685689,"49":-4.026770923599065,"50":-0.8830553344703882,"51":-1.7046351310215102,"52":-0.12010084716793747,"53":-0.06892341638330757,"54":0.6257046222014094,"55":1.6424445313236165,"56":-0.07777724025126609,"57":0.0665866848654782,"58":-0.024622391611656302,"59":-0.0169193888781409,"60":0.020860260075189083,"61":-0.06629757731214607,"62":-4.835955561540537,"63":-1.8200392697161083,"64":-0.25327616750542986,"65":-1.0112318958198263,"66":-2.8361610687360446,"67":-2.0737990257276193,"68":0.387951815918133,"69":-2.1936053418234156,"70":0.01975065228501483,"71":1.92202604381899,"72":-0.22577167368071968,"73":-0.004630259486469044,"74":-0.09579875759215618,"75":-0.0900186070042053,"76":0.029017491990235067,"77":-0.014654253760540326,"78":-0.019346703085519924,"79":-4.992863183963826,"80":-2.4288860835668618,"81":-0.07712064538318138,"82":-1.2818527683912184,"83":-3.165599899496328,"84":-1.468073292903717,"85":-0.24956012561698357,"86":-0.21577252772248773,"87":0.026785202113127404,"88":1.5260412645269548,"89":1.0579751460724411,"90":-0.03301540444299531,"91":0.06655675521434272,"92":0.00880302597621443,"93":-0.04478064072885614,"94":0.05044976271168671,"95":0.051388883894838006,"96":-4.693429110016867,"97":-1.5922969167438215,"98":0.02428362301807074,"99":-0.4182065365684438,"100":-2.938381057261184,"101":-1.730870772830017,"102":-0.8149213101811857,"103":-0.18730866803035384,"104":0.01579703431411019,"105":1.842475659907646,"106":-0.07373668451223071,"107":-0.03818061013764405,"108":-0.05125234939974787,"109":-0.05183458607519128,"110":-0.009054247236665739,"111":-0.03312063315490991,"112":-0.013858857220619787,"113":-4.744422863247983,"114":-2.4676808421731566,"115":0.08361856940387255,"116":-0.3216739752095637,"117":-2.6842184984855555,"118":-2.132851214717911,"119":-1.0679073097704517,"120":-1.5546678508610754,"121":0.04019164173703871,"122":2.0528627747404085,"123":0.12395217710116459,"124":0.06485936383876513,"125":0.03191466523896116,"126":-0.03545785076889639,"127":0.03237419551821002,"128":-0.049556948188846296,"129":-0.0076326848499899055,"130":-4.666676465163449,"131":-1.8593470082414203,"132":-0.09185741314594852,"133":-0.7755313338638342,"134":-1.9648230667849098,"135":-0.9380525677755193,"136":0.8146605660337718,"137":-4.25152863633214,"138":-0.022476437860285366,"139":2.811486939103443,"140":0.9892632880356832,"141":-0.06759143108630263,"142":0.043300953839939,"143":-0.00391320446884579,"144":0.037050279346971804,"145":-0.09226116309698586,"146":0.09380820109964044,"147":-4.781464330064953,"148":-1.9492766129967634,"149":-0.09121373633328976,"150":-0.5537174135920317,"151":-2.52673500637531,"152":-1.574287959067563,"153":1.728664512555745,"154":-1.147396620834554,"155":0.09762688883264747,"156":2.221456376888264,"157":0.421761814753086,"158":-0.03414337389845513,"159":0.04906324886774846,"160":-0.017833518242324226,"161":-0.034802678931436834,"162":-0.056430320624021986,"163":-0.014869656737308291,"164":-4.7647802444837195,"165":-1.9669086971165233,"166":-0.18567876175152137,"167":-0.968132666357477,"168":-3.595000245909905,"169":-2.3444985702559604,"170":-0.569052871838912,"171":-0.7471343947320757,"172":-0.09613229843988196,"173":1.2054384436747523,"174":-0.587715099324699,"175":-0.058479946195837906,"176":0.059633027860430496,"177":-0.06304743237593124,"178":0.047287762532076796,"179":0.06853681668787653,"180":-0.0969350882456859}},{"sx":1,"sy":1,"depth":181,"w":{"0":-21.769684743780072,"1":-7.34674252529262,"2":-0.04061690599920628,"3":-3.771435038356979,"4":-19.748499255157714,"5":-3.5374715960077547,"6":-0.45086432209938754,"7":-5.990602256360858,"8":-0.10625214332051343,"9":2.271431316619388,"10":4.0033359961823605,"11":-21.73514637222104,"12":-5.900687103281021,"13":-0.28030035913298196,"14":-2.19193591294411,"15":-19.407319934738705,"16":-6.854550004917576,"17":-0.7284698698611379,"18":-5.608970220170108,"19":0.0568232559870176,"20":2.620684795545371,"21":-1.061944611921342,"22":-0.18549845758358907,"23":0.04504876623407405,"24":-0.19546532333998645,"25":-0.23370916294732977,"26":-0.12253308482016567,"27":-0.06585873368836452,"28":-21.777920929319986,"29":-7.7865879079289915,"30":-0.09885836927798122,"31":-4.430527035677894,"32":-19.22252764923272,"33":-5.0922662714550215,"34":-2.248496320208981,"35":-4.726978725321547,"36":-0.0860927974208455,"37":2.8231171094284804,"38":2.7597143196404037,"39":-0.05609184776378277,"40":-0.04219782616465115,"41":0.029217003733856838,"42":0.0683544450203157,"43":0.04614532602052526,"44":-0.045648355751227755,"45":-21.688575396152842,"46":-6.7144042934323505,"47":-0.2130654198099244,"48":-1.4956022053067612,"49":-17.444101324487537,"50":-6.75065732244349,"51":-2.606297729315991,"52":-7.11682670413383,"53":-0.06382082447650733,"54":4.358904415475141,"55":0.1014784769141361,"56":-0.14773299703463458,"57":0.0037456740274115947,"58":-0.21013415282095263,"59":-0.1572880186484144,"60":-0.1007995394572952,"61":-0.002292687572634359,"62":-21.60767993578725,"63":-7.847726972883479,"64":-0.19961631986283257,"65":-3.2933096743257955,"66":-15.580265134319601,"67":-4.031770778838838,"68":0.1553624202570361,"69":-4.83002034553497,"70":-0.09249470306429386,"71":5.80157418995599,"72":3.6977431072058606,"73":-0.1091193781044626,"74":-0.013305744795384645,"75":0.0010296333290855132,"76":-0.1872146621743987,"77":0.030671115331897692,"78":-0.09357040345044003,"79":-21.59955879181143,"80":-6.893813898687429,"81":-0.09563521899140723,"82":-1.84273994790003,"83":-15.660164751961403,"84":-6.797013893335997,"85":-0.7436575937933119,"86":-6.9575930656945,"87":0.009229624711907858,"88":6.089838416797675,"89":-0.06478642080117036,"90":0.09869331313929477,"91":0.03132861279649055,"92":0.03410005586142207,"93":-0.058055412099402716,"94":-0.046002246004714226,"95":-0.013098966881241642,"96":-21.75721028698471,"97":-7.899649161946698,"98":0.019045067442993467,"99":-1.9858622683183167,"100":-14.78353476258637,"101":-4.0108546062316925,"102":-1.5745321972635198,"103":-3.5062165824860636,"104":-0.0599697385689844,"105":6.8038044658660715,"106":3.6933318766569343,"107":0.02737853975568697,"108":-0.0683463817523833,"109":-0.0894823344150781,"110":-0.11330889931886406,"111":0.014914755382630335,"112":-0.10959117475820988,"113":-21.689108309840034,"114":-7.320354353723409,"115":-0.033740794842608515,"116":-1.5831263845131665,"117":-13.130208828053227,"118":-6.699155741847267,"119":-2.015531663086208,"120":-4.678778793959568,"121":-0.019503118751555713,"122":8.422779058553484,"123":0.485980482986058,"124":-0.0008501931587304638,"125":-0.19902168912293375,"126":0.055551705122055546,"127":-0.1585622485926105,"128":-0.008565546990227072,"129":-0.08016812327322169,"130":-21.67171839519559,"131":-7.5314192628477,"132":-0.036031906646111014,"133":-1.535016811531413,"134":-11.649644026430131,"135":-4.915705457565427,"136":-1.5292404008891318,"137":-5.184196430026703,"138":0.037626438821739924,"139":10.011229775170825,"140":2.6222392849475558,"141":-0.1007066600538478,"142":-0.1242612816711421,"143":0.03620445844667183,"144":0.04723864674895043,"145":-0.13810335936521587,"146":-0.21461314645184315,"147":-21.631878726720323,"148":-7.978506574585937,"149":-0.05179059881433107,"150":-0.5033192365845408,"151":-10.652952450462719,"152":-6.481844981114199,"153":-1.1815326461655167,"154":-6.113456970270926,"155":-0.15430086803700951,"156":10.954738428865562,"157":1.6884916559260241,"158":-0.05294782578396903,"159":-0.07623634756630678,"160":-0.03015537426601096,"161":-0.1588041397158224,"162":-0.057656890136645496,"163":-0.07854265460699543,"164":-21.79548211240466,"165":-7.896869430652714,"166":-0.07335136489211594,"167":-0.8036407611712979,"168":-10.189704459177399,"169":-5.313856207803074,"170":-1.487624879717891,"171":-4.681221194406001,"172":-0.0966488470033927,"173":11.694588248458903,"174":2.5658499761731117,"175":0.04368145524654057,"176":-0.06672784932514093,"177":0.05049979067182348,"178":-0.024608318287555345,"179":-0.11887423742123882,"180":-0.06273182469455157}},{"sx":1,"sy":1,"depth":181,"w":{"0":-353314692094.3795,"1":-118137584582.60847,"2":-0.06684193135485918,"3":-49977940201.98185,"4":-322059260341.65735,"5":-44809130789.473625,"6":-42743945418.67088,"7":-53348499144.106544,"8":-94324002.89596193,"9":31255431752.600937,"10":73328453793.20038,"11":-353403019048.0719,"12":-116544961172.46588,"13":-1472115892.7955832,"14":-14943835305.752548,"15":-289627162652.3851,"16":-129310286267.69673,"17":-60804453258.69557,"18":-65663099646.60978,"19":-41520053.77135673,"20":63775856395.67251,"21":-12765325095.310694,"22":77707556.32069927,"23":-756553855.2947923,"24":76516051.84648804,"25":-610796231.25701,"26":-2035064780.8799164,"27":49399569.74443973,"28":-353704618766.3214,"29":-123263380235.89091,"30":-6498777866.227878,"31":-60472419377.79956,"32":-245484281993.90826,"33":-79669331699.00566,"34":17659368813.404903,"35":-98280453035.03427,"36":-95511160.56810607,"37":108220336772.53128,"38":43594048536.88665,"39":-1973255182.9231558,"40":-54275871.02141102,"41":-135713549.33889008,"42":-670221629.8835796,"43":-438444116.62136686,"44":73118660.32785556,"45":-353314692094.6427,"46":-121025649148.8265,"47":0.41749962297424315,"48":-42197018894.83852,"49":-246903653026.48248,"50":-111857939739.22783,"51":-32846282290.23159,"52":-122837544444.29822,"53":-75480319.79810126,"54":106411039068.01021,"55":9167709409.535631,"56":-112284350.91428292,"57":-635071731.3289459,"58":-546351491.4467616,"59":-873570427.0370117,"60":-572281622.9421468,"61":-459232065.65385014,"62":-353819396276.8689,"63":-116712883971.97803,"64":-8411736368.462176,"65":-41640095304.07093,"66":-223216207647.92676,"67":-43184765180.22542,"68":-21331230786.483387,"69":-60831680214.177635,"70":-86778996.13399348,"71":130603188628.77208,"72":73528118791.59322,"73":-834881489.701618,"74":-1223253242.4293137,"75":-501614009.9368709,"76":-740802363.622844,"77":55058041.4938249,"78":46701375.09909727,"79":-353252778155.4133,"80":-113532891172.00208,"81":-515949494.05645496,"82":-8218966667.045309,"83":-215677156840.2806,"84":-113692583645.29768,"85":21446713000.015728,"86":-93150058681.81866,"87":-48157135.85424562,"88":137575621315.09473,"89":-159692473.20329303,"90":-156124881.17379546,"91":-256172935.5989545,"92":6895394.3992017275,"93":-1378899610.3429806,"94":-1116033436.6514573,"95":-298456219.9145453,"96":-353219392918.9994,"97":-124546339463.18953,"98":-2842949487.648121,"99":-19866722190.197212,"100":-225881491909.2191,"101":-76347063606.66078,"102":-21988789958.272423,"103":-77367258874.07925,"104":-47168814.65571543,"105":127337901009.56273,"106":48199275856.26094,"107":-368640016.62452686,"108":-1316252951.8831449,"109":-175818557.8918075,"110":38188845.011680976,"111":-818047981.6045648,"112":-558221026.4255502,"113":-353345649064.3815,"114":-124842985506.42365,"115":-515949494.1181487,"116":-13616806587.94754,"117":-220309548535.36035,"118":-86621839173.13737,"119":-68068270384.75758,"120":-21303881571.998047,"121":-29281103.74141716,"122":133036100528.91797,"123":38221146333.05384,"124":-73387494.56182554,"125":-88680662.7653119,"126":-307761332.0234478,"127":-1421565396.754103,"128":-477455730.34794164,"129":-829941072.8859476,"130":-353314692094.7317,"131":-120072765897.57181,"132":-0.05230514560886221,"133":-40277754317.207664,"134":-174472185772.66507,"135":-122062582474.20923,"136":21092288913.475002,"137":-143267551733.02356,"138":-77789299.51224534,"139":178842506322.21353,"140":-1989816576.7605042,"141":-1449452435.8814104,"142":-342594781.04653496,"143":-228015403.2912832,"144":-578589837.6705244,"145":-378757460.7044943,"146":-221381770.6990422,"147":-353314692094.72144,"148":-123405916968.1225,"149":0.10111309721447882,"150":-31872306942.94271,"151":-195002614070.8383,"152":-56699529892.46359,"153":50886958909.95615,"154":-51835537803.140686,"155":-53300245.33066303,"156":158312078023.7113,"157":66706387075.53331,"158":-404016911.9139869,"159":-1090183245.5118725,"160":-226922387.97038817,"161":-284952095.47715443,"162":-535747146.5936434,"163":-656969902.0869007,"164":-353314692094.61914,"165":-134667780864.10742,"166":0.29784767806537205,"167":-8685925245.517117,"168":-228676235621.54605,"169":-121723967150.77742,"170":15863782381.883314,"171":-46297750337.74559,"172":-3934636.5007396475,"173":124638456473.13219,"174":12943813713.18399,"175":-214666212.22063583,"176":-338984388.15575397,"177":-549514483.3839947,"178":-129145017.74496536,"179":-913788882.5231321,"180":-1052692705.8026608}},{"sx":1,"sy":1,"depth":181,"w":{"0":-312662481827.1637,"1":-104636691393.76204,"2":0.004321321528486007,"3":-44283715991.39365,"4":-285077129418.14,"5":-39790001645.51899,"6":-37823015938.290535,"7":-47251873792.14771,"8":-83542449.26008527,"9":27585352409.146233,"10":64846689748.313545,"11":-312740564305.639,"12":-103230419144.796,"13":-1301374638.7309155,"14":-13361305400.285803,"15":-256372196583.74463,"16":-114477376024.653,"17":-53767591266.39887,"18":-58199892329.76094,"19":-36964646.550006464,"20":56368367721.814735,"21":-11246956879.799831,"22":67468504.01141606,"23":-670611391.0464097,"24":67033998.392174765,"25":-540234246.3353045,"26":-1800479202.4155324,"27":43612459.995448425,"28":-313007183412.4994,"29":-109143535720.95113,"30":-5745026419.042421,"31":-53580461954.795395,"32":-217345148413.88602,"33":-70601171133.39174,"34":15702333062.196821,"35":-87046631723.86862,"36":-84695620.00066172,"37":95662034998.52742,"38":38542364587.30588,"39":-1745672619.9802563,"40":-49232937.00299473,"41":-119744987.17115298,"42":-594380008.6485673,"43":-387819481.71612895,"44":63640157.35276291,"45":-312662481827.3712,"46":-107203664282.80368,"47":0.3185137226831906,"48":-37345139756.87967,"49":-218657367948.99075,"50":-99018696870.31886,"51":-29048114114.1351,"52":-108767541370.78217,"53":-66802111.96467587,"54":94005113878.4017,"55":8184967412.558413,"56":-100048842.29125567,"57":-561950419.2979717,"58":-484783367.7367838,"59":-773011408.4810476,"60":-506110978.1532235,"61":-407304861.69766587,"62":-313108424434.08435,"63":-103387262338.32959,"64":-7432376778.246215,"65":-36845115067.588554,"66":-197696916397.11484,"67":-38356193656.363754,"68":-18907056605.298275,"69":-53960932628.57352,"70":-76781797.73968713,"71":115411508037.21912,"72":65031068681.83691,"73":-738943656.0568595,"74":-1082038405.8794105,"75":-443749974.7655502,"76":-656062803.5780044,"77":47062219.7988515,"78":40522743.130083635,"79":-312608833397.38416,"80":-100578547824.36174,"81":-447070248.95380396,"82":-7409836401.776859,"83":-190993459729.57385,"84":-100634130204.0285,"85":18917746430.096302,"86":-82459706293.04337,"87":-42811567.2241093,"88":121615373667.90472,"89":-55582379.49738347,"90":-138346674.6384206,"91":-227663601.58612984,"92":5389261.979965312,"93":-1221079587.4829574,"94":-987601233.8321184,"95":-263908041.76684394,"96":-312583435239.8565,"97":-110283674180.31662,"98":-2522251642.8566747,"99":-17584150846.379017,"100":-199973694822.85608,"101":-67686027693.10367,"102":-19538135403.66129,"103":-68573589082.12826,"104":-41820426.3463435,"105":112609740417.08156,"106":42597646487.396835,"107":-326279261.28502023,"108":-1164503035.8051095,"109":-156017463.94615665,"110":32133815.011797156,"111":-724633602.6474597,"112":-493910328.75969064,"113":-312689306042.2824,"114":-110587379948.7881,"115":-447070248.9685756,"116":-12172552954.73195,"117":-194989552738.8942,"118":-76660817352.45981,"119":-60173908778.39829,"120":-18864623378.5497,"121":-26095349.841611873,"122":117699753303.57806,"123":33926562596.46007,"124":-66473464.31577562,"125":-78918444.53266227,"126":-272370618.9225629,"127":-1257628090.8804865,"128":-423291811.5102132,"129":-734527447.4688215,"130":-312662481827.47577,"131":-106330149587.87804,"132":0.015279208446681897,"133":-35628359787.85507,"134":-154479515239.61786,"135":-108137636598.71837,"136":18706213494.92935,"137":-126887650390.76472,"138":-68884682.47678572,"139":158182966587.76877,"140":-1807487010.9443681,"141":-1282280207.05633,"142":-303445279.0152177,"143":-201535778.22314247,"144":-512434721.9591019,"145":-335941130.3685206,"146":-197572760.92182383,"147":-312662481827.43353,"148":-109307773239.11253,"149":0.09285584261049577,"150":-28265782200.47987,"151":-172671851965.1712,"152":-50249917977.4198,"153":44980741378.08426,"154":-45932784273.48789,"155":-47258445.36719707,"156":139990629862.2616,"157":59057855261.58955,"158":-357684752.6484106,"159":-964191045.9897883,"160":-202920680.81620365,"161":-252638384.9106868,"162":-474608839.1590942,"163":-581166173.8847779,"164":-312662481827.4154,"165":-119268438505.2957,"166":-0.012330948929978349,"167":-7734646403.219255,"168":-202443132817.41605,"169":-107781828821.03128,"170":13959937902.479523,"171":-41058598313.22021,"172":-3564224.097877472,"173":110219349009.7887,"174":11486609684.054157,"175":-191622857.52014875,"176":-299632251.38866,"177":-485977786.0888905,"178":-115085712.8943509,"179":-808215726.246088,"180":-932675543.6123216}},{"sx":1,"sy":1,"depth":181,"w":{"0":-230218572520.13562,"1":-77087146313.89037,"2":-0.0724456293784604,"3":-32755585590.830345,"4":-209931605055.15753,"5":-29480037186.496048,"6":-27822254796.54914,"7":-34792270556.83579,"8":-61685377.71008304,"9":20286967465.064156,"10":47607109127.28621,"11":-230275474487.554,"12":-76040019785.21774,"13":-948366124.6159078,"14":-10110610503.433064,"15":-188776467643.12006,"16":-84236521843.22777,"17":-39554629279.881294,"18":-42976821342.32069,"19":-27668749.144131422,"20":41499006844.272736,"21":-8196502058.060951,"22":47059209.99794185,"23":-494081476.96797913,"24":48219740.26587084,"25":-397695487.91589934,"26":-1322252470.8304253,"27":31363188.195750512,"28":-230469770981.16428,"29":-80356968559.48477,"30":-4186641017.4303846,"31":-39498222844.31972,"32":-160081609487.14365,"33":-52098834492.97396,"34":11636330910.324095,"35":-64180769155.40904,"36":-62557111.13690217,"37":70388161493.92397,"38":28258134066.509743,"39":-1283447399.003793,"40":-36470395.703401916,"41":-87250752.16898558,"42":-439364656.8573096,"43":-286653399.91821104,"44":45799306.41831028,"45":-230218572520.17032,"46":-79026123880.29567,"47":-0.12675588001840418,"48":-27528538908.10543,"49":-161120478033.03363,"50":-72833647211.54303,"51":-21282170448.85381,"52":-80029916514.82756,"53":-49142009.54222328,"54":69098094487.15103,"55":6192476668.539442,"56":-74831936.57334644,"57":-413077486.73470944,"58":-357780920.147016,"59":-568857308.5993098,"60":-371769350.3485313,"61":-301070295.0237703,"62":-230545937082.91287,"63":-76189360150.9523,"64":-5456076048.49997,"65":-27071036853.382782,"66":-145727015527.29395,"67":-28433243476.09506,"68":-13976828871.790308,"69":-39890574640.92622,"70":-56412278.15651789,"71":84818921555.81207,"72":47756116674.99611,"73":-544526226.2760841,"74":-794572192.1139919,"75":-325581635.9002618,"76":-482075766.1797288,"77":32345454.76614597,"78":27023068.556813132,"79":-230179982163.3559,"80":-74157002788.10655,"81":-321586306.0512857,"82":-5686339774.601243,"83":-140730456006.3913,"84":-74059581390.57272,"85":13785011154.55472,"86":-60719302554.19772,"87":-31767875.95923449,"88":89449526157.09723,"89":97421397.55543487,"90":-102788345.84541737,"91":-167251311.81810528,"92":3514682.8975665844,"93":-899836622.8398674,"94":-727564445.8710886,"95":-193461254.05174637,"96":-230163391466.69778,"97":-81240552891.9047,"98":-1842282738.053356,"99":-12864891789.348623,"100":-147241713008.87122,"101":-50005098745.29813,"102":-14578334141.339521,"103":-50577095505.037964,"104":-30703865.93733817,"105":82921678457.79033,"106":31235454146.561268,"107":-239704186.00268653,"108":-854879944.1176611,"109":-116210847.18386516,"110":19259291.371563293,"111":-533831375.1028105,"112":-362020236.38040584,"113":-230237867698.3496,"114":-81512300248.10443,"115":-321586306.0260817,"116":-9108595929.145992,"117":-143431426758.1271,"118":-56375877762.10634,"119":-44193323635.27304,"120":-13872962346.677488,"121":-19403437.944900226,"122":86806440940.39655,"123":25136422486.046562,"124":-53048184.57259381,"125":-58052169.989144616,"126":-201093582.77604106,"127":-924399875.9757146,"128":-310440780.85982776,"129":-540352703.3177838,"130":-230218572520.19772,"131":-78284133838.92477,"132":0.07514313301201146,"133":-26107654839.525837,"134":-113689114270.81602,"135":-79689301452.86855,"136":13743235645.390455,"137":-93397968569.22615,"138":-50677590.29924862,"139":116529458249.29274,"140":-1405167613.9249372,"141":-943073689.3038148,"142":-224031125.18114787,"143":-146819270.44047374,"144":-376646749.27527815,"145":-248911339.86534998,"146":-147905123.18966368,"147":-230218572520.12927,"148":-80554863779.42569,"149":-0.026068736543219402,"150":-20925927951.81595,"151":-127078652164.3909,"152":-37134859129.6899,"153":33018228874.884922,"154":-33917758730.69842,"155":-34965774.47296099,"156":103139920355.72517,"157":43420004649.82317,"158":-264026839.17813507,"159":-707888768.1972,"160":-151913075.10745594,"161":-187023243.76268852,"162":-349325878.49956197,"163":-427209492.4580336,"164":-230218572520.18628,"165":-87838618167.66507,"166":-0.10645560400479125,"167":-5684291457.973435,"168":-148939400183.86273,"169":-79303652957.32146,"170":10165954125.59342,"171":-30387737289.287426,"172":-2710580.2346558324,"173":81279172336.11073,"174":8534965210.423656,"175":-143095319.4251529,"176":-220867305.31982234,"177":-357367785.7552402,"178":-86193258.11796938,"179":-592750994.0055534,"180":-687112634.7329658}},{"sx":1,"sy":1,"depth":181,"w":{"0":-37266494447.387405,"1":-12326594300.980051,"2":-0.11249603084458734,"3":-5286762460.387559,"4":-33857522388.91905,"5":-4651556029.778757,"6":-4564659764.459633,"7":-5488168674.596681,"8":-9937447.648444576,"9":3408972058.5218754,"10":7675038271.274793,"11":-37275307461.371826,"12":-12169894279.356544,"13":-146883566.34897658,"14":-1592993484.8247807,"15":-30389072112.489456,"16":-13539285961.338057,"17":-6467566930.208683,"18":-6855007388.5991125,"19":-4356380.35363471,"20":6886235348.809478,"21":-1369391681.8315814,"22":8414556.919272041,"23":-79097143.11502777,"24":8354396.117912475,"25":-63341484.91597555,"26":-213889012.59370247,"27":5477192.379371704,"28":-37305400229.56832,"29":-12866268565.023636,"30":-648429704.362957,"31":-6353813055.017271,"32":-25705995859.904057,"33":-8319689063.732768,"34":1922869061.8202026,"35":-10347218897.300055,"36":-10032756.385279924,"37":11599404369.682034,"38":4546579501.278029,"39":-209473613.73521212,"40":-3221173.0826090234,"41":-13730417.120048681,"42":-69581279.22603545,"43":-46421313.17930282,"44":8346301.164783052,"45":-37266494447.46073,"46":-12666026951.741482,"47":0.5986570105928943,"48":-4505082842.60954,"49":-25901094885.4318,"50":-11654317936.533691,"51":-3421083991.6139607,"52":-12854199507.111265,"53":-7934276.229540203,"54":11365399561.968739,"55":1011709015.2440656,"56":-10508890.30792853,"57":-66697991.632513106,"58":-57420228.80464718,"59":-91461205.66460286,"60":-59652552.46307626,"61":-48340626.1785457,"62":-37320628207.54096,"63":-12155169696.268126,"64":-902229332.7609732,"65":-4391387535.838593,"66":-23420422087.975494,"67":-4437110035.351454,"68":-2307825569.6108875,"69":-6305028162.866971,"70":-9167839.189638613,"71":13900206119.672047,"72":7718059661.198521,"73":-88047228.36083531,"74":-128351391.9676832,"75":-52678755.68178467,"76":-76655032.91067043,"77":6775214.78121456,"78":4875699.042632094,"79":-37259243979.68279,"80":-11862478268.66471,"81":-60420566.25948805,"82":-866018923.7322308,"83":-22594509400.69162,"84":-11914848717.454052,"85":2251516166.821491,"86":-9787502996.971308,"87":-5026060.34943223,"88":14664734578.945004,"89":-52370448.900373876,"90":-16080170.071014605,"91":-24347805.108348235,"92":1509422.1263088249,"93":-146354118.82243603,"94":-118614885.64359061,"95":-30193937.474057328,"96":-37251842120.192474,"97":-13015940528.02034,"98":-274720889.4218044,"99":-1980354227.8049853,"100":-23659391766.42348,"101":-7964617779.003213,"102":-2424315272.5665073,"103":-8084882327.901465,"104":-4768830.441126561,"105":13592450353.599564,"106":5051322749.130095,"107":-37425743.19303698,"108":-138328865.41657048,"109":-18072048.279517658,"110":3722314.5250325142,"111":-86654305.70619373,"112":-57322846.94548436,"113":-37270119681.52545,"114":-13063155760.107695,"115":-60420566.133407615,"116":-1392760468.2646325,"117":-23006775021.063175,"118":-8997626621.082737,"119":-7262280222.661265,"120":-2107332975.8506637,"121":-2962238.8322396204,"122":14263344660.401878,"123":4065529139.239329,"124":-7643793.175833954,"125":-7974254.118750268,"126":-31778270.744644113,"127":-150708357.8182842,"128":-47849798.64338151,"129":-88127020.48446456,"130":-37266494447.56317,"131":-12516896863.37124,"132":0.09173576191615318,"133":-4125470514.3967924,"134":-18103217848.672955,"135":-12773366989.878428,"136":2193102038.6283727,"137":-15095386579.771217,"138":-8043978.555035627,"139":19163276598.886868,"140":-256470126.54966253,"141":-152086864.28733817,"142":-35937095.5414658,"143":-22745748.797974043,"144":-60266142.59701023,"145":-40413014.3583265,"146":-22632629.701853845,"147":-37266494447.678024,"148":-12901278516.762936,"149":0.03690690493490488,"150":-3353224238.47264,"151":-20267311494.440586,"152":-5876204369.228985,"153":5409589774.590824,"154":-5403978133.418879,"155":-5575965.94087421,"156":16999182953.287432,"157":7025074147.215491,"158":-41605171.301800005,"159":-115034359.14471346,"160":-22585722.84290305,"161":-29417962.15217528,"162":-56584260.90532825,"163":-68854018.93788269,"164":-37266494447.59491,"165":-14076607754.916048,"166":0.11932595693803258,"167":-771839629.0464216,"168":-23825762320.755356,"169":-12720743937.106094,"170":1697551017.8344774,"171":-4776019960.713502,"172":-211671.33094057182,"173":13440732126.5835,"174":1355863817.7095973,"175":-21144356.932175994,"176":-35632548.645087704,"177":-57317003.80868944,"178":-13682787.973504681,"179":-95060791.19893113,"180":-111244006.51033755}},{"sx":1,"sy":1,"depth":181,"w":{"0":-13.938580746631049,"1":-4.960368219534417,"2":-0.06592608920662925,"3":-2.5243227283357,"4":-12.011008501849858,"5":-1.4327362927003997,"6":-0.42667535748024604,"7":-2.484436073900228,"8":0.0098183297960087,"9":2.1200797187392246,"10":3.389038696285735,"11":-13.972079417331116,"12":-3.455770020682926,"13":-0.2977241745849125,"14":-2.251257186117636,"15":-11.662781830173602,"16":-5.151282252161387,"17":-0.9041131070547255,"18":-2.847518360210361,"19":0.09278725542079466,"20":2.40612621826938,"21":-1.696428773674577,"22":0.06972824318622894,"23":0.03323363648205058,"24":0.05853416888111289,"25":0.04035686366347885,"26":0.054582214987651805,"27":0.029405446461395934,"28":-13.973117099315159,"29":-5.00227802088434,"30":-0.20003206326133108,"31":-3.4380814861433056,"32":-11.34865720549018,"33":-3.405231545456935,"34":-0.6337624573495385,"35":-2.370717548951983,"36":-0.02428759605285937,"37":2.5180008921336374,"38":1.8643967619331598,"39":-0.10425287946196388,"40":0.002928542846837428,"41":0.017679460459354483,"42":-0.11560492787113649,"43":-0.03168813700164535,"44":-0.025694028878563438,"45":-13.691996018677386,"46":-4.7304629265402065,"47":-0.06852799122820351,"48":-0.9995128087853683,"49":-11.255659309041539,"50":-4.36904481017455,"51":-1.034530063074369,"52":-2.744092822168071,"53":-0.014770627144557949,"54":2.449105784036302,"55":0.2159669262538352,"56":-0.06568700174238215,"57":-0.0680727464772622,"58":-0.009763712712695707,"59":-0.14032685788831714,"60":0.054572711819874116,"61":-0.05137633422410223,"62":-13.626210097885219,"63":-4.600350679890673,"64":0.0027178907256983783,"65":-2.7473855912620286,"66":-11.327323765804886,"67":-3.3583201763556843,"68":0.8056345219155908,"69":-2.4926146531105484,"70":0.07120288912942466,"71":2.2685070224730195,"72":1.3777284027028471,"73":-0.18247557672739423,"74":-0.024802513968942765,"75":-0.0029486074108063553,"76":-0.008748350054188989,"77":-0.023896161160491366,"78":0.15347203284197525,"79":-13.86237890061192,"80":-4.120323710556359,"81":-0.08627465861579496,"82":-3.0372920351419666,"83":-12.769535275322948,"84":-4.041355963325449,"85":-1.4041802174304463,"86":-3.7155022101904223,"87":0.026042875592671006,"88":1.0721768134938905,"89":0.12102315643223069,"90":-0.11769820474295205,"91":-0.010823937281982356,"92":-0.107218954394089,"93":0.0037151064918394252,"94":-0.13691392349301434,"95":-0.11980945746683942,"96":-13.580771936592281,"97":-4.554610916375839,"98":-0.023464521198904686,"99":-4.07483252250267,"100":-11.990869910936645,"101":-4.816571732265703,"102":-2.867471916196968,"103":-4.5050964878631,"104":0.020987763676368718,"105":1.537546527957309,"106":-0.26119245800361884,"107":-0.04730380998652552,"108":0.03716735375991119,"109":0.023314026346961798,"110":-0.07850057837895412,"111":-0.0025787572398657354,"112":-0.02035461369276617,"113":-13.707647367474591,"114":-4.835916255072686,"115":0.02286934421615945,"116":-2.843047993805323,"117":-10.658488092514482,"118":-3.2009457080301327,"119":-3.0068249136698695,"120":-5.342658726628948,"121":-0.07082157247307863,"122":3.0086883883794173,"123":1.5488343050706068,"124":0.08254010449403756,"125":-0.11390875440652291,"126":0.1295469764883164,"127":-0.17097788770376304,"128":0.015480774409699284,"129":0.009636136977448417,"130":-13.761627036394176,"131":-4.236501779315428,"132":0.0012728231917136545,"133":-3.6201860869784848,"134":-9.191359592439525,"135":-3.5394907698545635,"136":-0.9030172437420256,"137":-6.796677099575015,"138":-0.07474856409689212,"139":4.5033169415121455,"140":0.7580967410584553,"141":-0.16663588973260252,"142":-0.029039148161097105,"143":0.01742070922280127,"144":0.0331643465771341,"145":-0.05386450549442335,"146":-0.04299987220282349,"147":-13.67279865024983,"148":-5.04406286383669,"149":-0.09053581717868964,"150":-1.3621114637364333,"151":-9.358916806020067,"152":-3.1666141434982524,"153":-0.27743331355035816,"154":-6.05208935027764,"155":0.059380854147425846,"156":4.401853327286657,"157":1.7809075944004518,"158":0.14162614497672826,"159":0.11378681022170549,"160":-0.011855141072849882,"161":-0.28007796291585996,"162":0.1323227449104827,"163":-0.012506660980385121,"164":-13.623640080911372,"165":-4.735964010569129,"166":-0.024265489110993275,"167":-1.6549795455096457,"168":-9.688885474716574,"169":-4.049386840514875,"170":-0.2911703831430343,"171":-4.789652652917033,"172":0.024940220702694825,"173":4.017213191746951,"174":0.8885605726836855,"175":-0.03891390482578343,"176":-0.0020996754610523942,"177":0.06837835003001355,"178":-0.11370159816425215,"179":-0.06057959127066142,"180":0.07235901769615227}},{"sx":1,"sy":1,"depth":181,"w":{"0":-1170146995.5707061,"1":-328783483.64479625,"2":0.029436650659410382,"3":-276827341.31301504,"4":-1152800170.7368405,"5":-209056812.2427845,"6":2563110.3555201204,"7":-137004847.75928277,"8":-495071.84117670904,"9":17346824.569983605,"10":119726671.40935177,"11":-1170819166.7716572,"12":-314363897.1155362,"13":-11202851.720982218,"14":-18978842.371874187,"15":-1151121826.9298108,"16":-385930620.5126483,"17":-115806769.9407558,"18":-369521602.0296157,"19":-188038.45609915294,"20":19697339.830013618,"21":-71566723.46391822,"22":-179711.57075965725,"23":-5562259.496429695,"24":451585.1029002363,"25":-1936179.1349243396,"26":-2425990.9557218538,"27":-251399.79738207336,"28":-1173114350.6479838,"29":-340838282.18616235,"30":-49455918.996845596,"31":-323899146.81905746,"32":-1066262963.5575106,"33":-200310638.0048141,"34":10985649.672924422,"35":-127902856.71346626,"36":-511903.87294266635,"37":106851387.26444256,"38":140527644.27329654,"39":-1559243.1606438255,"40":-1278298.1722542348,"41":-384780.72312397166,"42":-6296490.389481315,"43":-922837.5868237666,"44":537694.2935588253,"45":-1170146995.7412148,"46":-361683718.3870746,"47":0.06067639248485064,"48":-179731404.37116283,"49":-1030691280.2078506,"50":-371458646.5440926,"51":-152009744.18623155,"52":-397481698.24639064,"53":-352613.47131518746,"54":139455715.31295982,"55":-9774928.15184374,"56":-1157750.8217464017,"57":-2133922.5840723454,"58":258007.05780941984,"59":-2821849.08341938,"60":-2594933.5571860243,"61":-1453506.8514194256,"62":-1170146995.5287588,"63":-298898155.1667533,"64":-0.02687505770246125,"65":-295872397.978441,"66":-946550595.3335862,"67":-145597926.26148698,"68":-36654241.30890864,"69":-227381243.3289603,"70":-612946.0799253893,"71":223596399.97891855,"72":153300228.86572307,"73":-2152388.1270231274,"74":-4844464.230998959,"75":-90429.57341042257,"76":-3411522.599186557,"77":-8822.275754616507,"78":603670.7238677113,"79":-1170146995.5679722,"80":-271811372.6973589,"81":-0.08418837323112423,"82":-68921829.25046328,"83":-943155138.2413918,"84":-341060691.9149308,"85":130889293.74707958,"86":-434328566.59008765,"87":-360797.74913273583,"88":226991857.50377947,"89":-69249319.11006925,"90":-358086.12815101177,"91":-2479202.3923921124,"92":-114488.98747924439,"93":-5350749.16850881,"94":-1165087.6753966815,"95":-436341.8431932432,"96":-1171680675.5723722,"97":-356993806.10900426,"98":-25561334.698027458,"99":-173291440.01777542,"100":-1038203861.0604874,"101":-168397639.80045456,"102":-91046401.38363959,"103":-171318523.8408758,"104":-375788.8998721859,"105":133476814.51653063,"106":188596166.15142837,"107":-3208398.5508312047,"108":-1354140.980768192,"109":511357.27105871576,"110":-750287.3570505758,"111":-1320003.3825430458,"112":-3782482.8782453174,"113":-1170146995.6871288,"114":-339514782.4973009,"115":0.05040573050503197,"116":-111087006.64999524,"117":-955618690.3534145,"118":-353795886.0902831,"119":-312620385.08451456,"120":-75529745.0218968,"121":-262792.9746670439,"122":214528305.17753989,"123":-14281103.835693462,"124":-213282.11432784365,"125":-501695.8988930827,"126":-124675.00849809381,"127":-6411480.248525288,"128":-703782.5024938233,"129":-1949040.095123343,"130":-1170146995.559454,"131":-344495452.56837636,"132":-0.00030148868497330435,"133":-170699627.0987456,"134":-770332885.578208,"135":-343490959.63360256,"136":188553482.27069202,"137":-468689186.2466961,"138":-386273.687285151,"139":399814109.9539666,"140":1004492.9029988052,"141":-6423644.38285555,"142":-458710.136911996,"143":-1168574.4000893433,"144":-1597217.915208768,"145":-1755596.5176765588,"146":1499787.216215401,"147":-1170146995.5268395,"148":-381914874.59825873,"149":0.1587880725087021,"150":-155249237.0833932,"151":-915723975.0757078,"152":-245946515.3121846,"153":81499595.5111572,"154":-175039919.10251832,"155":-242576.94350291725,"156":254423020.51291516,"157":135968359.29820135,"158":-259163.32512792374,"159":-1333741.876733786,"160":-2777187.2697078343,"161":-1561193.7249385903,"162":-1709603.1280198686,"163":-2263066.543125877,"164":-1170146995.616876,"165":-406511931.5257947,"166":-0.17962527612372794,"167":-58817613.39141459,"168":-953919567.313933,"169":-313138216.32030284,"170":-36346802.16894417,"171":-156215867.81242967,"172":-58861.64209852929,"173":216227428.19824478,"174":93373715.17435586,"175":-980842.1177342935,"176":-2294728.1255313107,"177":-2777055.8721945263,"178":-1559435.592762221,"179":-1246918.0459317842,"180":-1044975.8923262092}},{"sx":1,"sy":1,"depth":181,"w":{"0":0,"1":0,"2":0,"3":0,"4":0,"5":0,"6":0,"7":0,"8":0,"9":0,"10":0,"11":0,"12":0,"13":0,"14":0,"15":0,"16":0,"17":0,"18":0,"19":0,"20":0,"21":0,"22":0,"23":0,"24":0,"25":0,"26":0,"27":0,"28":0,"29":0,"30":0,"31":0,"32":0,"33":0,"34":0,"35":0,"36":0,"37":0,"38":0,"39":0,"40":0,"41":0,"42":0,"43":0,"44":0,"45":0,"46":0,"47":0,"48":0,"49":0,"50":0,"51":0,"52":0,"53":0,"54":0,"55":0,"56":0,"57":0,"58":0,"59":0,"60":0,"61":0,"62":0,"63":0,"64":0,"65":0,"66":0,"67":0,"68":0,"69":0,"70":0,"71":0,"72":0,"73":0,"74":0,"75":0,"76":0,"77":0,"78":0,"79":0,"80":0,"81":0,"82":0,"83":0,"84":0,"85":0,"86":0,"87":0,"88":0,"89":0,"90":0,"91":0,"92":0,"93":0,"94":0,"95":0,"96":0,"97":0,"98":0,"99":0,"100":0,"101":0,"102":0,"103":0,"104":0,"105":0,"106":0,"107":0,"108":0,"109":0,"110":0,"111":0,"112":0,"113":0,"114":0,"115":0,"116":0,"117":0,"118":0,"119":0,"120":0,"121":0,"122":0,"123":0,"124":0,"125":0,"126":0,"127":0,"128":0,"129":0,"130":0,"131":0,"132":0,"133":0,"134":0,"135":0,"136":0,"137":0,"138":0,"139":0,"140":0,"141":0,"142":0,"143":0,"144":0,"145":0,"146":0,"147":0,"148":0,"149":0,"150":0,"151":0,"152":0,"153":0,"154":0,"155":0,"156":0,"157":0,"158":0,"159":0,"160":0,"161":0,"162":0,"163":0,"164":0,"165":0,"166":0,"167":0,"168":0,"169":0,"170":0,"171":0,"172":0,"173":0,"174":0,"175":0,"176":0,"177":0,"178":0,"179":0,"180":0}},{"sx":1,"sy":1,"depth":181,"w":{"0":-99598123648.82808,"1":-33380915150.759647,"2":-0.03703689477681062,"3":-14127800024.496807,"4":-90835342435.43848,"5":-12740345974.448355,"6":-12095551243.506304,"7":-15058502394.298218,"8":-26624911.882274304,"9":8762781213.408321,"10":20640569176.370766,"11":-99622739704.60628,"12":-32922651703.208836,"13":-410267596.74873275,"14":-4347521258.619672,"15":-81657199370.75752,"16":-36502685580.12947,"17":-17121239768.426144,"18":-18563607994.02581,"19":-11921158.427403856,"20":17965540333.940266,"21":-3580033876.789092,"22":21195838.56635554,"23":-214847993.78728196,"24":21108802.68855742,"25":-171432719.46923384,"26":-573771129.0910182,"27":14087285.3612309,"28":-99706793271.46239,"29":-34790590634.53226,"30":-1811160377.1928084,"31":-17096333342.837494,"32":-69239979840.54848,"33":-22524138365.650097,"34":5102288579.141763,"35":-27829117248.72347,"36":-27078549.746019773,"37":30466813430.91567,"38":12266452268.918049,"39":-556730613.7666506,"40":-16018732.520728333,"41":-37743823.877953716,"42":-189279869.61724114,"43":-123483901.38396221,"44":19597025.16344598,"45":-99598123648.77763,"46":-34202464871.826492,"47":0.040823423105316885,"48":-11927887453.137775,"49":-69730616843.17941,"50":-31529757832.31847,"51":-9221280326.705086,"52":-34673726619.364235,"53":-21303605.77319271,"54":29867506805.6959,"55":2672707039.501835,"56":-31223685.663733,"57":-178868894.85210416,"58":-155525330.1573483,"59":-246188015.42047435,"60":-161090935.28990835,"61":-130763054.36507858,"62":-99740046955.60971,"63":-32971888984.099583,"64":-2365388447.813571,"65":-11737383533.143795,"66":-63060939365.38186,"67":-12279341561.94557,"68":-6069319399.716338,"69":-17244173399.91246,"70":-24467748.919578582,"71":36679107590.172585,"72":20692547422.110737,"73":-235588575.45302978,"74":-344292089.24457437,"75":-141544180.77994817,"76":-209102527.30483532,"77":14596040.387822118,"78":12271416.081469245,"79":-99581861794.74135,"80":-32099433971.296825,"81":-135515451.42642525,"82":-2432913935.1040206,"83":-60891800866.58138,"84":-32059808595.972607,"85":5979677527.117033,"86":-26268503996.780163,"87":-13724675.688944595,"88":38690060928.04774,"89":39625375.14003374,"90":-44179827.49898249,"91":-72067126.35165767,"92":1415948.9458660956,"93":-389806858.7147098,"94":-315284353.60443795,"95":-83737698.63179736,"96":-99576325662.5457,"97":-35148225879.78651,"98":-800584361.6951889,"99":-5555257949.893697,"100":-63714982284.15668,"101":-21624097892.26933,"102":-6281535671.062689,"103":-21893083498.606014,"104":-13319070.259815078,"105":35861343378.30053,"106":13524127987.460659,"107":-103500960.16504939,"108":-370712595.6820484,"109":-50015929.36001899,"110":9255307.810717404,"111":-231901076.4814101,"112":-156784662.35783914,"113":-99606254576.0918,"114":-35291448889.3538,"115":-135515451.48193914,"116":-3930725124.565722,"117":-62087572968.527176,"118":-24396663992.99661,"119":-19199071400.746075,"120":-5977876730.012027,"121":-8364591.4315134715,"122":37518681607.35925,"123":10894784896.593409,"124":-21486204.547168106,"125":-25196797.906505536,"126":-86361472.01695856,"127":-400983434.69202787,"128":-134895399.84302935,"129":-234736606.88962403,"130":-99598123648.91837,"131":-33910283144.817028,"132":-0.0021620101088386736,"133":-11286260886.360672,"134":-49161377798.7034,"135":-34516100289.13609,"136":5978820485.35545,"137":-40509877118.82452,"138":-21868072.94790273,"139":50436745850.29562,"140":-605817144.5611197,"141":-408254053.8172785,"142":-96796932.16974345,"143":-63741981.63515018,"144":-163675981.05961168,"145":-107778846.30454452,"146":-63412121.28138367,"147":-99598123649.03497,"148":-34875266836.032875,"149":-0.040721471024994065,"150":-9019141732.31055,"151":-54961592168.61875,"152":-16015631315.957357,"153":14316414756.618137,"154":-14653145525.639347,"155":-15059702.813149879,"156":44636531480.200294,"157":18859635519.94831,"158":-113967892.56077562,"159":-307109131.3695758,"160":-65708865.0892213,"161":-80132134.79946016,"162":-151885563.62513697,"163":-184856328.73055518,"164":-99598123648.88513,"165":-38040485883.66614,"166":-0.05159451722191302,"167":-2456212369.4456687,"168":-64424477442.283226,"169":-34366410800.61696,"170":4430954721.28293,"171":-13081811703.427563,"172":-1131141.282374949,"173":35173646206.696106,"174":3674075082.848085,"175":-61444423.80727907,"176":-95244203.69759698,"177":-154338611.50255245,"178":-37485521.21106678,"179":-256743063.2966691,"180":-298404092.4941482}},{"sx":1,"sy":1,"depth":181,"w":{"0":-288552500242.1253,"1":-96264158108.2489,"2":-0.055717598125299896,"3":-40875749546.94482,"4":-262895933869.2526,"5":-36506684402.664856,"6":-34836088638.34508,"7":-43390551501.910774,"8":-77107529.28051275,"9":25656566372.753433,"10":59757473705.66325,"11":-288624540428.4082,"12":-95027517042.01709,"13":-1200669772.0192077,"14":-12177788248.200323,"15":-236439002055.946,"16":-105404620887.16423,"17":-49693271701.36117,"18":-53601740732.0867,"19":-33783388.29872498,"20":52185538372.41539,"21":-10377103845.306433,"22":62357747.03349282,"23":-614599105.5693138,"24":62511040.93891442,"25":-498675633.84830284,"26":-1659239000.894409,"27":39959321.68552545,"28":-288870527627.3445,"29":-100483285430.7696,"30":-5300456422.264865,"31":-49380156581.04366,"32":-200361922290.34247,"33":-64997057170.183205,"34":14324131743.137135,"35":-80024810122.5335,"36":-77932691.87627725,"37":88508605337.1171,"38":35486228260.52182,"39":-1610617861.9783754,"40":-41254654.47960607,"41":-110565990.97323658,"42":-548189906.8981683,"43":-358120589.57868135,"44":61063372.591525264,"45":-288552500242.24774,"46":-98690297906.95885,"47":0.06797280344903843,"48":-34449714705.344,"49":-201455839890.4819,"50":-91217576746.23685,"51":-26831138471.18433,"52":-100188883043.77437,"53":-61529669.507101566,"54":87096660351.77773,"55":7472721160.88919,"56":-93017387.78619133,"57":-518604825.0076854,"58":-444610755.892537,"59":-712364709.782083,"60":-465983994.91390014,"61":-373103957.031461,"62":-288965359006.9351,"63":-95124962714.7315,"64":-6880979415.193722,"65":-34001439433.243446,"66":-182116095882.68375,"67":-35126380457.37074,"68":-17416686388.36582,"69":-49549437267.142265,"70":-70850015.35010536,"71":106849263124.3971,"72":59998582257.33184,"73":-681340212.1646988,"74":-998416514.3404481,"75":-408375445.7443778,"76":-603127068.4636315,"77":44735258.377087384,"78":38838351.416366786,"79":-288500065512.42847,"80":-92532387010.13007,"81":-436956082.58835965,"82":-6723789719.419748,"83":-175962772467.95926,"84":-92758965457.39554,"85":17544263259.37688,"86":-76064014608.39674,"87":-39320612.86515396,"88":112537293044.41058,"89":-226578447.20517442,"90":-126753009.86561432,"91":-208211412.8700412,"92":6603349.898224972,"93":-1126501827.999667,"94":-910531158.6035291,"95":-242291571.34919783,"96":-288465485896.019,"97":-101582817541.66302,"98":-2302589420.5030217,"99":-16200431654.479109,"100":-184312065539.96988,"101":-62222277346.96351,"102":-18090607881.04443,"103":-63101214998.20872,"104":-38343529.02111203,"105":104153420356.18585,"106":39360540194.82166,"107":-300213910.21167964,"108":-1074512232.11109,"109":-142432931.298727,"110":30972267.74254004,"111":-666423599.5216064,"112":-455075225.34454733,"113":-288578717607.1842,"114":-101771068280.28496,"115":-436956082.5867468,"116":-11103102756.587309,"117":-179686907639.99762,"118":-70601184237.42827,"119":-55503737070.09985,"120":-17291707600.42784,"121":-23880382.62536077,"122":108891809967.10347,"123":31169884042.692184,"124":-61574641.220498726,"125":-70736265.78876156,"126":-251574066.10304588,"127":-1160375068.2299213,"128":-387053912.5872063,"129":-676371676.9534719,"130":-288552500242.06024,"131":-97819770209.2873,"132":-0.06720912076015917,"133":-32881454502.83991,"134":-142314341041.90717,"135":-99512746502.99323,"136":17187958709.52956,"137":-116882234916.35788,"138":-63615278.67292996,"139":146238159200.18973,"140":-1692976293.8238697,"141":-1182374546.437686,"142":-279488801.27353746,"143":-185163317.13210785,"144":-470563452.9997866,"145":-308914518.78647774,"146":-181180993.84551185,"147":-288552500242.1447,"148":-100594259752.58641,"149":0.1833708285286192,"150":-26080935834.477886,"151":-159112696255.4246,"152":-46239339436.7837,"153":41576659876.1896,"154":-42268954422.29126,"155":-43608869.67733293,"156":129439803986.80035,"157":54354920315.8902,"158":-328358435.1242483,"159":-889537706.0058079,"160":-183413174.8571608,"161":-233757274.18938056,"162":-436268354.8322705,"163":-536350686.0308197,"164":-288552500242.34,"165":-109789960438.49649,"166":-0.01629596018182702,"167":-6969739106.628213,"168":-186645291786.71997,"169":-99226832247.15613,"170":12897621102.776964,"171":-37787264253.65265,"172":-3037797.844967867,"173":101907208455.28075,"174":10563128191.405594,"175":-174600154.82383534,"176":-276598597.40659255,"177":-448711276.7373171,"178":-104218935.72745422,"179":-745775029.9360697,"180":-857781636.2386923}},{"sx":1,"sy":1,"depth":181,"w":{"0":-10.983287660903047,"1":-3.8866161959804897,"2":-0.021001994675180137,"3":-2.264756948445575,"4":-9.87257398618794,"5":-1.218477165712619,"6":-0.3532592455318567,"7":-2.354260457299051,"8":0.10919910848278955,"9":0.971790319639198,"10":2.4950784045038197,"11":-10.874771910030027,"12":-2.2487394732341612,"13":0.03745141390678307,"14":-0.8670131742353135,"15":-9.78530057491932,"16":-3.685690419550973,"17":-0.4940582458587793,"18":-3.5329950439259887,"19":-0.05538263340391179,"20":1.0964133739655049,"21":-1.4343612250966238,"22":-0.0364205185964157,"23":0.04921410344075798,"24":-0.0405651198145884,"25":0.04791142062442524,"26":0.020028658637775306,"27":0.03961994029095362,"28":-11.043269483539628,"29":-3.975775591551791,"30":-0.005153545644278456,"31":-3.3187728709230013,"32":-9.959680404154383,"33":-2.17458076352145,"34":-1.4004614894704654,"35":-0.9479065547302545,"36":-0.02257378447416598,"37":0.8778948480157408,"38":1.7354863865478316,"39":0.010569873373398273,"40":0.03052202218047681,"41":0.02560575879063609,"42":-0.06465600536039881,"43":0.016645267970717303,"44":0.01880198870414617,"45":-10.733035896192087,"46":-3.189406499252801,"47":0.010415944403992888,"48":-0.9329335248128003,"49":-9.012237611556282,"50":-3.9747365679884976,"51":-2.6151466107538126,"52":-4.379694834954442,"53":0.08331950960354169,"54":1.6951582138557744,"55":-0.9075642649200114,"56":0.0910406859771298,"57":-0.11804992669967523,"58":0.10460518244973979,"59":0.0520402091753197,"60":0.05999511043772324,"61":-0.0393888226243913,"62":-11.014089927168026,"63":-4.173342223273261,"64":0.06339412444248768,"65":-1.7183380624655287,"66":-7.672907632437079,"67":-1.4946853916779752,"68":0.5826893195340297,"69":-2.2502414810979996,"70":-0.07293216452469607,"71":3.301701380071161,"72":2.4833832031944607,"73":-0.14521378553521713,"74":-0.16925199475403924,"75":0.07324271158333588,"76":0.07623755901440954,"77":-0.003827396435556108,"78":-0.058288401798427585,"79":-10.862907272342785,"80":-3.5698652889267013,"81":0.003002694143151525,"82":-0.4115686003441029,"83":-8.270445639054572,"84":-3.8217514147484937,"85":-0.9151990558858945,"86":-4.219223373961083,"87":-0.023359446705777092,"88":2.7456700163843055,"89":0.002347521400480407,"90":-0.06370351297279912,"91":-0.10604395521104229,"92":-0.09315749339480192,"93":0.024906511372697813,"94":0.0032056883067906167,"95":-0.06036946393586215,"96":-10.836722574722883,"97":-3.7084066347082474,"98":0.024632373988722436,"99":-2.313424310790583,"100":-7.752318022717531,"101":-1.9045479337341709,"102":-0.4203335628633153,"103":-0.7800114386805782,"104":-0.06875669264162151,"105":3.2244612880818426,"106":1.8570353990221047,"107":0.03308897281376531,"108":0.0594098760926825,"109":0.05554117053665869,"110":-0.18703170163334484,"111":0.1255126870610454,"112":-0.1040973097258961,"113":-10.88942347637461,"114":-3.890889799813574,"115":-0.10816384332931603,"116":-0.7398011744702419,"117":-7.280125160919531,"118":-3.3549170063987366,"119":-1.2049401409146783,"120":-3.150097946627226,"121":-0.09011631605019312,"122":3.6948784337850267,"123":0.4776234352196263,"124":0.05548491106623371,"125":0.0038875894891141185,"126":-0.03424428461063021,"127":0.08619720247105421,"128":-0.070044822177682,"129":-0.13111510212226724,"130":-10.916131335905416,"131":-3.6612555671546563,"132":0.00825910455933107,"133":-1.2868055452841043,"134":-6.479787204792217,"135":-2.3612313867875687,"136":-0.40468242376022623,"137":-3.1555488144648494,"138":0.0210185879645314,"139":4.5696649017561715,"140":1.2285724556402955,"141":0.007825097692564328,"142":-0.03569988456512507,"143":0.09003904232495244,"144":0.0850490445970253,"145":-0.10985734591077398,"146":0.09410448851581595,"147":-11.011682056019675,"148":-3.9676424784755957,"149":-0.02010405723722092,"150":-0.463467134562875,"151":-6.264332488605048,"152":-3.140651611672418,"153":0.23165315511816492,"154":-4.220604344381593,"155":-0.08608080783600315,"156":4.580840355999218,"157":0.649544722048778,"158":-0.004948097987885339,"159":-0.11223398028969091,"160":0.16629018334256476,"161":-0.01888496446793402,"162":0.15345755129996502,"163":-0.09349786088274804,"164":-11.002200941520597,"165":-3.906960429938883,"166":0.004031605991625861,"167":-0.37842777161318736,"168":-6.3015700275433835,"169":-2.4176474450991092,"170":-2.8679474514385057,"171":-2.9297666757787026,"172":-0.029566994459674048,"173":4.319091537495299,"174":1.3085420561129237,"175":0.010486331681315688,"176":-0.036329074484213617,"177":0.009083022539455417,"178":0.08796988948152655,"179":0.018708762724566244,"180":-0.10818074267396378}},{"sx":1,"sy":1,"depth":181,"w":{"0":-10.60799197720755,"1":-5.460501320426823,"2":0.029361117708086693,"3":-1.5637878210584768,"4":-11.172928040650229,"5":-2.62631791443667,"6":-0.08802060566557816,"7":-3.7522572786634827,"8":0.028996844832214732,"9":-0.6394359643809833,"10":2.6349493399795745,"11":-10.819530939595575,"12":-4.948694445160272,"13":-0.3818579697026659,"14":-1.2071362029293577,"15":-11.413072807912192,"16":-4.5320937322977235,"17":1.725258723683541,"18":-6.20622123792579,"19":0.03120931408859315,"20":-0.7348702027121207,"21":0.6053133946861233,"22":0.06009327387735657,"23":-0.04109895291403887,"24":-0.03690078540656707,"25":0.06255312098131553,"26":0.0539226280344275,"27":0.0057372461182152905,"28":-10.51728785858064,"29":-5.795066050357604,"30":-0.11091588715855748,"31":-0.8911138345157398,"32":-12.447758183809718,"33":-3.370590877287289,"34":-1.9286275446251797,"35":-4.146962637914518,"36":0.04596075531395663,"37":-1.8910475945582879,"38":2.5128656061372943,"39":0.08232631036720715,"40":0.14498638570433378,"41":-0.126642472755853,"42":-0.141715732324869,"43":-0.019520148082139505,"44":-0.16291146158339403,"45":-10.402818739050392,"46":-5.347760882731642,"47":-0.03357927031239083,"48":-1.0880569658246542,"49":-11.041440345023192,"50":-4.528419961317256,"51":-2.0358465125325056,"52":-4.364367804087769,"53":0.13341981688206048,"54":-0.5954681155273112,"55":0.8209327134308712,"56":0.03190343694672086,"57":-0.07689003156119188,"58":0.09296368072468457,"59":-0.03382163429703709,"60":-0.05711486555885205,"61":0.12841571432781038,"62":-10.264122836668665,"63":-5.41865005831091,"64":0.16355338494261645,"65":-1.1072736801521252,"66":-9.555611910371256,"67":-3.5579334035357992,"68":-0.3083691885197149,"69":-3.3612977825335864,"70":-0.023976219707056837,"71":0.6931222868532678,