
// Using demo at: https://cs.stanford.edu/people/karpathy/convnetjs/demo/rldemo.html
let num_inputs = 11;
let num_actions = 6;
let temporal_window = 10;
let network_size = num_inputs*temporal_window + num_actions*temporal_window + num_inputs;

var layer_defs = [];
layer_defs.push({type:'input', out_sx:1, out_sy:1, out_depth:network_size});
layer_defs.push({type:'fc', num_neurons: 50, activation:'relu'});
layer_defs.push({type:'fc', num_neurons: 50, activation:'relu'});
layer_defs.push({type:'regression', num_neurons:num_actions});

// options for the Temporal Difference learner that trains the above net
// by backpropping the temporal difference learning rule.
var tdtrainer_options = {learning_rate:0.01, momentum:0.0, batch_size:5, l2_decay:0.01};

var opt = {};
opt.temporal_window = temporal_window;
opt.experience_size = 30000;
opt.start_learn_threshold = 1000;
opt.gamma = 0.7;
opt.learning_steps_total = 200000;
opt.learning_steps_burnin = 3000;
opt.epsilon_min = 0.05;
opt.epsilon_test_time = 0.05;
opt.tdtrainer_options = tdtrainer_options;
// opt.hidden_layer_sizes = [20,20];
opt.layer_defs = layer_defs;

let agents = [];
const neuralNetAgent = {
  brain: new deepqlearn.Brain(num_inputs, num_actions, opt),
  decision: neuralNetDecision,
  reportCard: {
    died: false,
    kill: false,
    leftEdgeCollision: false,
    rightEdgeCollision: false,
    history: [],
    reward: neuralNetReward,
    reset: function() {
      this.died = false;
      this.kill = false;
      this.leftEdgeCollision = false;
      this.rightEdgeCollision = false;
    }
  },
  body: goldBody,
  enemy: blueBody
};
const sinusoidalAgent = {
  decision: sinusoidalDecision,
  reportCard: {
    died: false,
    kill: false,
    leftEdgeCollision: false,
    rightEdgeCollision: false,
    history: [],
    reward: function() {
      if (this.died) { return -1; }
      if (this.kill) { return 1; }
      return 0;
    },
    reset: function() {
      this.died = false;
      this.kill = false;
      this.leftEdgeCollision = false;
      this.rightEdgeCollision = false;
    }
  },
  body: blueBody,
  enemy: goldBody
};
  // {
  //   brain: new deepqlearn.Brain(num_inputs, num_actions, opt),
  //   decision: neuralNetDecision,
  //   body: protagonist,
  //   enemy: bot
  // }
// ];

function botBrainCycle() {
  agents.forEach(agent => {
    agent['reportCard']['history'].push(snapMomentAsObject(agent.body, agent.enemy));
    if (agent['reportCard']['history'].length > 50) { agent['reportCard']['history'].shift(); }
    agent.decision();
  });
}

function agentResponsibleFor(obj) {
  return agents.find((agent) => {
    return agent['body']['display']['color'] == obj['display']['color'];
  });
}

function updateReportCard(obj, state) {
  const responsibleAgent = agentResponsibleFor(obj);
  if (!responsibleAgent) { return; }
  responsibleAgent['reportCard'][state] = true;
}

function savenet() {
  const j = agents[0].brain.value_net.toJSON();
  const t = JSON.stringify(j);
  const textArea = document.querySelector('#net-json');
  textArea.value = t;
}

function loadnet(t) {
  var j = JSON.parse(t);
  agents[0].brain.value_net.fromJSON(j);
}

const jsontext = `{"layers":[{"out_depth":181,"out_sx":1,"out_sy":1,"layer_type":"input"},{"out_depth":50,"out_sx":1,"out_sy":1,"layer_type":"fc","num_inputs":181,"l1_decay_mul":0,"l2_decay_mul":1,"filters":[{"sx":1,"sy":1,"depth":181,"w":{"0":-254134762.03868818,"1":-51692721.1576675,"2":0.0006123366967523222,"3":-15789210.254189156,"4":-199130363.5253307,"5":19140955.05767459,"6":-35118246.61216283,"7":-24666646.876744367,"8":-47262.63455412891,"9":55004398.610628836,"10":70833676.5351844,"11":-254261641.91244385,"12":-55318309.839538045,"13":-2114665.1199732814,"14":48256079.47552618,"15":-178982882.60433692,"16":-83386718.07588328,"17":-61425882.87931177,"18":-11467778.882401234,"19":74024.84213301315,"20":75278759.36481364,"21":-28068408.15416697,"22":619249.6539870494,"23":-115083.32280758204,"24":277488.33251299354,"25":-491754.8441639113,"26":-1886686.2025139492,"27":108346.57517143656,"28":-254694883.90587142,"29":-71546982.02822122,"30":-9335364.948125627,"31":-32619222.566306647,"32":-130281843.04067229,"33":-20228714.829136554,"34":-9640227.860304026,"35":-48178979.32084526,"36":-15125.261908259086,"37":124413040.88601069,"38":51318267.2456717,"39":-1818206.6230178862,"40":553357.0882526981,"41":-379529.6801081688,"42":28163.393702636276,"43":-373316.7300993936,"44":501092.70293810527,"45":-254134761.98476526,"46":-49850874.96379217,"47":-0.00009425420696510831,"48":-29413921.766623016,"49":-113947806.89142713,"50":-72454114.25149469,"51":-22275328.752714925,"52":-76860648.21833988,"53":-59732.16382683342,"54":140186955.1106864,"55":-22603239.447015166,"56":197297.18062364124,"57":-427284.491561869,"58":-4282.817374136416,"59":-721168.2215686712,"60":-591400.7320081965,"61":58399.06908390678,"62":-254914899.6632244,"63":-45871159.308513336,"64":-13002297.350929298,"65":-44235748.102630176,"66":-102563336.68440862,"67":28927546.139310386,"68":8964812.032869551,"69":5157641.735357506,"70":-92437.21827845981,"71":152351563.16510165,"72":74798705.66240166,"73":-298266.4341755245,"74":-1268108.8783322747,"75":-605001.9916379689,"76":-357556.31790211954,"77":614667.2830183113,"78":425826.37211264943,"79":-253569754.74052167,"80":-41234176.12887402,"81":-4708392.395831122,"82":50864562.52882431,"83":-119262967.58960667,"84":-81588759.16305608,"85":59976350.21622338,"86":-69367170.60534203,"87":37174.547225267896,"88":134306787.21514386,"89":-40354582.7602309,"90":155536.79819034552,"91":160638.5121865813,"92":273553.4634446496,"93":-910893.8624320813,"94":-802484.6918813352,"95":-364790.47498923895,"96":-251715455.97111952,"97":-69079495.09688689,"98":-116599.05271759593,"99":-15770597.251343796,"100":-157523772.32927313,"101":-2277898.1206248347,"102":4796458.802798234,"103":-18799288.239604734,"104":-7074.157557600773,"105":94191683.61110045,"106":66801596.990468204,"107":-244245.39061867498,"108":-1452680.6729798473,"109":362093.7552400471,"110":929537.8247552102,"111":-407830.1506503957,"112":-675315.1431065737,"113":-254417265.26144674,"114":-53490780.01946814,"115":-4708392.334836996,"116":35530476.25794746,"117":-171126204.00432146,"118":-68378953.01716088,"119":-73873306.77581464,"120":-3712399.248459541,"121":48591.050619253096,"122":83291061.4026498,"123":-14888173.117345078,"124":748820.0638324354,"125":-77024.7783445765,"126":104176.42413099321,"127":-1467697.0343277315,"128":-91063.7568134483,"129":-705650.7078918226,"130":-254134761.97798675,"131":-62067771.612018384,"132":-0.0904764497225589,"133":-40750722.60869927,"134":-116958337.58900198,"135":-49207905.45536361,"136":5132948.753233611,"137":-83728046.52255291,"138":-50528.39979381384,"139":137176424.3927928,"140":12859866.0066862,"141":-1404634.475852698,"142":-40103.02227518443,"143":-401127.3885136986,"144":-202201.00980538566,"145":98746.57366237306,"146":460878.94811756647,"147":-254134761.8171398,"148":-54676857.48901753,"149":0.030560479051229102,"150":1919139.225386705,"151":-133176046.73675139,"152":-12353870.75813327,"153":71899048.39052849,"154":-13808442.004100382,"155":2548.103471826337,"156":120958715.26752807,"157":42322986.695110925,"158":-13931.036482749752,"159":-1247025.3439625504,"160":662153.6468711968,"161":-114548.16533792194,"162":-312501.20037508896,"163":-462588.1460060299,"164":-254134762.00129232,"165":-72524635.9427271,"166":-0.11412844809028676,"167":20779960.06386908,"168":-177842522.22456917,"169":-72647149.11480616,"170":46307144.48852306,"171":6041144.545603633,"172":58172.0434704756,"173":76292239.73720117,"174":-122513.10897044915,"175":512440.63367601874,"176":-257322.4399992837,"177":-607860.1822668018,"178":382603.7514161576,"179":-1207512.6811706915,"180":-310789.0793335782}},{"sx":1,"sy":1,"depth":181,"w":{"0":-399350749987.361,"1":-133607557732.9272,"2":0.06690667983322579,"3":-56741798546.0647,"4":-364100859538.95984,"5":-50969701385.694725,"6":-48193456078.93147,"7":-60333340093.11761,"8":-106927649.62404363,"9":35249890448.45695,"10":82637856347.19164,"11":-399449992430.08093,"12":-131809163961.83884,"13":-1654040709.398099,"14":-17309666599.947033,"15":-327461314976.7939,"16":-146053011130.4833,"17":-68639291315.90721,"18":-74467122007.48212,"19":-47626921.99706273,"20":71988677453.15024,"21":-14243847168.600775,"22":82845309.17229228,"23":-854750756.8728703,"24":84443751.03405291,"25":-691108995.4959546,"26":-2293816990.441122,"27":54265784.199367926,"28":-399788863992.00446,"29":-139335042800.34244,"30":-7301900076.579012,"31":-68439981377.80613,"32":-277646592022.5711,"33":-90273672532.67227,"34":19984412948.93856,"35":-111131656992.47745,"36":-108273704.20726807,"37":122142271969.30014,"38":49061370267.42612,"39":-2225599463.760891,"40":-62455608.80710838,"41":-152139658.09196013,"42":-761673256.6846502,"43":-497201577.0924108,"44":80947666.4066249,"45":-399350749987.51373,"46":-136953908544.6635,"47":0.19338536035498222,"48":-47693609315.35915,"49":-279300137329.3861,"50":-126362794935.2231,"51":-36995336453.88467,"52":-138768006569.2516,"53":-85206715.35729468,"54":120050612658.11752,"55":10591113609.357222,"56":-130499424.06835797,"57":-716882559.0985904,"58":-618359974.1356288,"59":-986968140.0522604,"60":-645246523.4659677,"61":-520165277.02530664,"62":-399919090849.79645,"63":-132061929525.34642,"64":-9472347703.7689,"65":-46964161560.34497,"66":-252574984808.56308,"67":-49159741722.325645,"68":-24159016801.552505,"69":-69051863877.73409,"70":-97855543.52368626,"71":147344106041.29712,"72":82902187802.98026,"73":-944182621.7499832,"74":-1379348040.9566507,"75":-564592805.9338264,"76":-836134212.2693169,"77":57583901.620511174,"78":48551881.10548121,"79":-399282090181.4223,"80":-128492180796.0507,"81":-572165051.3213983,"82":-9676168771.90622,"83":-243974560984.61914,"84":-128454912625.40637,"85":24023286289.957584,"86":-105310257487.0155,"87":-54877419.556187175,"88":155307529196.72955,"89":37268170.66304397,"90":-177966269.60217738,"91":-290728697.6631074,"92":6833495.718361376,"93":-1559136485.8176773,"94":-1260867327.180785,"95":-336256613.4466526,"96":-399248014863.35785,"97":-140867964974.09134,"98":-3201828341.9328127,"99":-22405851957.1661,"100":-255357121943.75815,"101":-86581831599.21678,"102":-25143844706.063126,"103":-87606489338.36708,"104":-53265729.619067974,"105":143890892919.48837,"106":54286133374.81386,"107":-416567089.15464807,"108":-1483685267.8219953,"109":-200769819.82596195,"110":36109133.97362526,"111":-924019089.915784,"112":-629189765.1826872,"113":-399385079890.7539,"114":-141246029109.57513,"115":-572165051.2242727,"116":-15660805943.797028,"117":-248846498172.102,"118":-97838166234.745,"119":-76644651177.03026,"120":-24116250876.20067,"121":-33501160.870157484,"122":150538581718.52722,"123":43407862874.89784,"124":-90506099.66791356,"125":-100473410.48204054,"126":-349453433.0172341,"127":-1603150438.2648814,"128":-538453777.0095184,"129":-936084739.3592584,"130":-399350749987.509,"131":-135712952863.74438,"132":0.03516430796516559,"133":-45415735747.471344,"134":-197262191570.39618,"135":-138078657580.6271,"136":23805949013.33916,"137":-161839092998.19818,"138":-88025353.27436803,"139":202088558417.0685,"140":-2365704716.9578934,"141":-1636469445.6995425,"142":-388272562.00024503,"143":-255674444.64000297,"144":-652628123.2117958,"145":-430107191.11808455,"146":-254970131.2336265,"147":-399350749987.5872,"148":-139604027701.24603,"149":-0.017092110939145484,"150":-36241613311.76045,"151":-220475141778.0246,"152":-64358823587.38505,"153":57319274401.95394,"154":-58772580730.85639,"155":-60596838.86862469,"156":178875608209.64096,"157":75245204113.84334,"158":-457827518.1264922,"159":-1228376004.7677019,"160":-260956005.6013773,"161":-324615993.3460596,"162":-604680732.365709,"163":-741665643.9368662,"164":-399350749987.5769,"165":-152259087741.86774,"166":-0.029483093920931902,"167":-9868210726.427109,"168":-258443996011.466,"169":-137499409448.65024,"170":17702770267.47966,"171":-52658655109.61836,"172":-4687002.828362554,"173":140906753976.19504,"174":14759678293.14002,"175":-246831034.87906814,"176":-383498211.77190316,"177":-620732563.5595484,"178":-147797850.30990112,"179":-1029821572.4925333,"180":-1189440665.1949985}},{"sx":1,"sy":1,"depth":181,"w":{"0":-23789169267.61734,"1":-7970670032.1521,"2":-0.05851552994272043,"3":-3386521752.525912,"4":-21690172279.081894,"5":-3041908816.103764,"6":-2874435279.0661316,"7":-3595226405.391706,"8":-6380143.764942556,"9":2098996988.5773299,"10":4928761216.1171055,"11":-23795057826.49025,"12":-7862275982.707823,"13":-98142646.30085497,"14":-1041687343.1411741,"15":-19506420423.882145,"16":-8717233746.204556,"17":-4088176300.675956,"18":-4439893905.947309,"19":-2853800.5644977433,"20":4288637402.3734756,"21":-854957763.4166172,"22":4954562.2334519755,"23":-51096548.2783156,"24":4956652.519598134,"25":-40981811.67738454,"26":-136917194.54305303,"27":3236265.256760736,"28":-23815164799.503433,"29":-8311488330.715044,"30":-433258863.6335548,"31":-4088314778.892642,"32":-16539888899.97779,"33":-5383148834.217067,"34":1210718042.6312773,"35":-6637833120.307959,"36":-6469399.848380843,"37":7275275899.304257,"38":2928339496.3510156,"39":-132851940.96042033,"40":-3712237.417475841,"41":-9144276.775975345,"42":-45319700.275312684,"43":-29582432.43077992,"44":4762513.461636656,"45":-23789169267.536713,"46":-8169364011.100477,"47":0.04623932524401793,"48":-2846631182.6890163,"49":-16652348541.956753,"50":-7533464925.725413,"51":-2196882556.1860137,"52":-8282489298.108243,"53":-5086916.6069781985,"54":7136820725.639161,"55":635899085.274195,"56":-7676557.058323706,"57":-42722943.56862977,"58":-37017606.146175325,"59":-58756862.993968435,"60":-38534757.18783768,"61":-31139347.38182459,"62":-23823096241.02644,"63":-7876812473.718795,"64":-565449557.7223548,"65":-2804343599.512895,"66":-15065184143.745052,"67":-2931891452.655817,"68":-1436974151.8418012,"69":-4117102473.5006747,"70":-5843382.662010767,"71":8757912097.285965,"72":4944921021.03885,"73":-56221268.825784534,"74":-82233769.70708153,"75":-33800953.66337183,"76":-49809587.602073744,"77":3348782.3600835004,"78":2868723.023119901,"79":-23785124282.297012,"80":-7667340734.923298,"81":-33708211.3662019,"82":-581208645.7613543,"83":-14556289438.617258,"84":-7665059385.664355,"85":1431303682.3102424,"86":-6283253759.209793,"87":-3277293.924946593,"88":9228834843.593437,"89":2281349.1977341473,"90":-10558056.702756576,"91":-17242886.75797753,"92":364084.4377545914,"93":-93083684.13680153,"94":-75244668.11119409,"95":-20082862.645338528,"96":-23783212265.260773,"97":-8401447201.010904,"98":-190222008.48076707,"99":-1328657114.5654073,"100":-15233334183.018082,"101":-5165297549.355177,"102":-1501766052.3637133,"103":-5233703870.800056,"104":-3170679.55070187,"105":8549878082.345752,"106":3236149651.8160243,"107":-24800556.885424044,"108":-88543265.69607762,"109":-11967908.723746192,"110":2121355.1384099377,"111":-55234530.34566926,"112":-37423167.99639656,"113":-23791191760.305218,"114":-8429424750.627887,"115":-33708211.24868811,"116":-937618348.0921003,"117":-14844768448.890097,"118":-5831628801.65634,"119":-4571161062.531136,"120":-1433721991.509278,"121":-1997726.0613136075,"122":8946423311.423365,"123":2597795949.0293283,"124":-5324087.8702623425,"125":-6048982.864299803,"126":-20680943.435961474,"127":-95721321.19013308,"128":-32107611.17569753,"129":-55965127.73016134,"130":-23789169267.567,"131":-8096160844.689536,"132":0.06312315265622906,"133":-2698874525.825104,"134":-11767541469.796444,"135":-8238613152.037259,"136":1417925334.0528698,"137":-9663901967.16983,"138":-5236478.413573007,"139":12021627797.779102,"140":-142452307.42063916,"141":-97555030.60038261,"142":-23097319.379466355,"143":-15285744.753459329,"144":-38990104.56071463,"145":-25679710.60808358,"146":-15240164.367878256,"147":-23789169267.607296,"148":-8330209101.116726,"149":0.0948582934472095,"150":-2158912300.5271926,"151":-13151693330.129732,"152":-3837700590.454663,"153":3420275177.4473004,"154":-3500326094.67332,"155":-3605663.7082194416,"156":10637475937.416697,"157":4492508510.385534,"158":-27247119.873935968,"159":-73321235.544264,"160":-15548788.277809087,"161":-19375418.84991705,"162":-36174440.051583275,"163":-44181071.90251855,"164":-23789169267.53474,"165":-9086337639.9504,"166":0.0960355954519957,"167":-582048966.6390952,"168":-15414628394.305243,"169":-8205525786.75896,"170":1049098723.5561031,"171":-3138774095.1395407,"172":-264483.4972085392,"173":8374540873.21074,"174":880811853.362936,"175":-14743855.89446893,"176":-22818908.938160617,"177":-37038997.83371338,"178":-8828192.268327866,"179":-61360626.296359174,"180":-71057493.07731532}},{"sx":1,"sy":1,"depth":181,"w":{"0":-0.9671744049205798,"1":-0.2029861191150947,"2":0.020074998694827432,"3":0.476286660471039,"4":-1.1318758568292195,"5":-0.5610551857831155,"6":0.21043134984152748,"7":-0.21314114928992983,"8":0.08123917025169866,"9":-0.17319537770579724,"10":-0.4728802692824262,"11":-0.9578922969841294,"12":-0.16329272124294347,"13":0.036891475316479905,"14":0.04892903197895151,"15":-1.3065873219743214,"16":0.18410908525865563,"17":0.4096574657867417,"18":-0.026983630953380206,"19":0.047569354412016256,"20":-0.3529894668124022,"21":0.5393250369684222,"22":0.04104683633929764,"23":0.046754146036149725,"24":0.0440523872361279,"25":-0.08578158410414323,"26":-0.01920045778625682,"27":-0.031044406092514427,"28":-0.8336510365859238,"29":-0.1671983157706368,"30":-0.06697712515456238,"31":0.015489407550146944,"32":-1.6302366574599825,"33":-0.4222624796581212,"34":-0.1588758997044598,"35":-0.8599066083488724,"36":-0.05816039267124604,"37":-0.7029616713151794,"38":-0.29130237210267007,"39":0.06493249067748429,"40":0.0767673473361838,"41":0.037698530949502256,"42":0.028440683547782456,"43":-0.06281873175770318,"44":0.050491850117048,"45":-0.9865716993216385,"46":-0.2517373241858787,"47":-0.1715645342637107,"48":0.09559485073969617,"49":-1.442801410007845,"50":0.13112218500973055,"51":-0.004200309101729057,"52":-0.8501767840403333,"53":0.06255355345846547,"54":-0.3510052091654238,"55":0.3928268114705268,"56":0.0846352687427047,"57":-0.012534276175522928,"58":0.1004920036593337,"59":-0.10034019182506901,"60":-0.06065036632268139,"61":-0.1150460826627253,"62":-1.092052140218306,"63":-0.10038510885295307,"64":-0.07904368291396896,"65":0.23753503691336153,"66":-1.2304241387347645,"67":-0.1281857312714737,"68":-0.09272045255643944,"69":-0.37378670928992097,"70":-0.1402723272538453,"71":-0.26727387015109033,"72":0.031054591565775804,"73":0.12172861713952854,"74":0.01864255037820993,"75":-0.09884027694443635,"76":-0.05050340153675286,"77":-0.05938589394100513,"78":-0.013905048410622909,"79":-1.013444469527075,"80":-0.1259134195780077,"81":-0.10021505041012482,"82":0.1425952633668412,"83":-0.9700341893514167,"84":0.12537645235947462,"85":-0.04236233771155893,"86":0.2065662428445171,"87":-0.11449991239435321,"88":0.17704695120086417,"89":0.40787847282784806,"90":-0.046095317041021024,"91":0.04423122934141707,"92":0.0031560858726417357,"93":-0.06728604756083573,"94":-0.02046237479017489,"95":0.0288915500555637,"96":-1.106875971286216,"97":-0.10276301292538066,"98":-0.04014438068643058,"99":0.16783404552125594,"100":-0.7117230861655107,"101":0.03269525133431813,"102":0.5269423782251325,"103":0.8557917881697009,"104":-0.06427097192389022,"105":0.27537154095087524,"106":0.29240068542827663,"107":-0.039259318221614166,"108":0.03129803531537964,"109":-0.2040318004628203,"110":0.03972348529904692,"111":0.011116901499842728,"112":0.059042008266197564,"113":-1.0970372133165458,"114":-0.06155809940226071,"115":-0.007010829351100415,"116":0.4269027744277473,"117":-1.0326978739740487,"118":-0.4291971024799227,"119":0.36115338951295906,"120":0.34267072352651873,"121":0.018432604080596007,"122":0.09778068576192371,"123":-0.3263317643565782,"124":-0.00407764240883566,"125":-0.05997537536083013,"126":0.027919466552233742,"127":0.0032073322414628972,"128":-0.014462440826033743,"129":0.02166559528513821,"130":-0.8542628011042781,"131":-0.22077513914140062,"132":-0.05610239699696396,"133":0.086452793797893,"134":-1.200284385539889,"135":-0.294546768207963,"136":0.19945835501147874,"137":0.8296935774387069,"138":0.007992301064571852,"139":-0.20469169919251323,"140":-0.004764854399055391,"141":-0.05324376549002892,"142":0.0115746120463631,"143":-0.015784675087663312,"144":0.09383010821478042,"145":-0.03221213152141942,"146":0.13271746263883938,"147":-0.9074033918449959,"148":-0.19757050748119245,"149":0.01201263649230234,"150":0.011196398249420555,"151":-1.1300088685972858,"152":-0.1447190555016775,"153":-0.5474863033394419,"154":-0.20068491079350442,"155":0.0075551294506698485,"156":-0.028058115435972263,"157":-0.13652512022779778,"158":0.010432469779009895,"159":0.04256647704577804,"160":-0.08988842480882372,"161":-0.053266105306000754,"162":0.048735274872137004,"163":0.007903973239118525,"164":-0.8888157949456277,"165":-0.1377984865852646,"166":-0.02959935549200049,"167":-0.055123657946635256,"168":-0.46268107074990494,"169":-0.06083778656828914,"170":-0.4228512578740871,"171":0.13005280711416656,"172":0.033449980055158125,"173":0.12124148569352079,"174":0.20576469395185024,"175":-0.015287742949046739,"176":0.020907336906161495,"177":0.01900436384758813,"178":-0.0528689558495529,"179":-0.03448126038516948,"180":0.010086549504912131}},{"sx":1,"sy":1,"depth":181,"w":{"0":-2.6353239541545033e+236,"1":-1.0172245978757628e+236,"2":-0.0010232542618555738,"3":-4.1349227985012976e+235,"4":-2.5328796532181945e+236,"5":-4.500450052277942e+235,"6":-3.3416217696262383e+235,"7":-9.03382596903753e+235,"8":-6.366056180517326e+232,"9":1.0244430093636106e+235,"10":5.671795926480046e+235,"11":-2.6354746161510883e+236,"12":-8.296226120079557e+235,"13":1.3522203325838908e+232,"14":-4.9167560621232437e+235,"15":-2.3243385688594125e+236,"16":-9.243277805578146e+235,"17":-2.7421022403129884e+235,"18":-7.231544795198495e+235,"19":-1.0304823895747205e+233,"20":3.1113604729161354e+235,"21":-9.470516854988675e+234,"22":-6.856373829284984e+232,"23":-1.286799183857553e+233,"24":-3.044586876570542e+232,"25":-1.0947769745340439e+234,"26":-1.1812264621362508e+234,"27":-2.8513834929435034e+232,"28":-2.638362741569478e+236,"29":-9.838960217933384e+235,"30":-3.1258586393795236e+234,"31":-4.8094108963437604e+235,"32":-2.2184976862593804e+236,"33":-7.251450827466262e+235,"34":2.2333423299867184e+234,"35":-8.093916717012345e+235,"36":-8.402220960231898e+232,"37":4.198650553101069e+235,"38":2.5875093904670535e+235,"39":-6.54399558784237e+233,"40":-7.4944122428281865e+233,"41":-8.028396751933673e+232,"42":-4.942089025499233e+233,"43":-4.772552327688423e+233,"44":-7.661791113893786e+232,"45":-2.6369770348542526e+236,"46":-8.575167651070279e+235,"47":8.98599826889812e+232,"48":-2.628268360354396e+235,"49":-2.2700616350407745e+236,"50":-7.306530012686917e+235,"51":-2.2665632958884743e+235,"52":-7.168180843752584e+235,"53":-7.30632032887449e+232,"54":3.6691539981347654e+235,"55":1.2686376383835382e+235,"56":-2.8297766654986514e+233,"57":-8.205434403088693e+233,"58":-3.0522876046712577e+233,"59":-5.3748315566477555e+233,"60":-3.6020576742314433e+233,"61":-2.257680066302906e+233,"62":-2.6389397631658102e+236,"63":-9.54598860543501e+235,"64":-3.1327080624403287e+234,"65":-3.6303759854609776e+235,"66":-2.1413379491258814e+236,"67":-6.372318780350513e+235,"68":-7.474487846554806e+234,"69":-6.149404035290981e+235,"70":-7.169251679698437e+232,"71":4.9760181403987115e+235,"72":3.173669825084793e+235,"73":-9.879022508046708e+233,"74":-2.125408529837611e+233,"75":-1.0153463238818039e+233,"76":-7.311324418458898e+233,"77":-2.8932291812211466e+233,"78":-2.097737008994472e+233,"79":-2.6372508998413773e+236,"80":-8.937762282129342e+235,"81":-0.07116323382546909,"82":-3.55829207981693e+235,"83":-2.1127780451233803e+236,"84":-8.050211961664783e+235,"85":9.854071274454329e+233,"86":-5.442041529696511e+235,"87":-8.620938086128657e+232,"88":5.244728547179701e+235,"89":8.875503204647013e+234,"90":-5.112429016289727e+233,"91":-4.188642219871592e+233,"92":-2.2546204252230352e+232,"93":-6.35220660650176e+233,"94":-4.054713358811264e+233,"95":-5.388614726444386e+233,"96":-2.6372508998413773e+236,"97":-9.239508704469571e+235,"98":-1.7358389018139563e+52,"99":-3.746029835341976e+235,"100":-2.1128174063606104e+236,"101":-7.152221359249207e+235,"102":-4.1319873550574675e+235,"103":-5.881537555449521e+235,"104":-7.395542158594049e+232,"105":5.244334934806848e+235,"106":2.087287345220269e+235,"107":-4.238693841644386e+233,"108":-7.309104559700037e+233,"109":-2.5506502348267124e+233,"110":-5.243253462079582e+233,"111":-2.7242101903545042e+233,"112":-3.2561556818353266e+233,"113":-2.6372508998413773e+236,"114":-9.765097710631782e+235,"115":1.5493764750755453e+50,"116":-1.5868145818365324e+235,"117":-1.8587234808828611e+236,"118":-8.016815978295166e+235,"119":-3.8190169053411374e+235,"120":-6.243515916925404e+235,"121":-3.915021455056478e+232,"122":7.785274189584453e+235,"123":1.7482817323369482e+235,"124":-8.484687067824335e+233,"125":-5.511405305621758e+233,"126":-1.1446180458412754e+233,"127":-4.6701911297402525e+233,"128":-5.164750426689168e+233,"129":-3.46415994723978e+232,"130":-2.637199140826343e+236,"131":-1.0420128295701172e+236,"132":8.626502485109613e+232,"133":-1.0747905015896957e+235,"134":-1.6581825800537745e+236,"135":-7.02495466723755e+235,"136":9.425839902098672e+234,"137":-4.2695636930744653e+235,"138":-1.6793601587338923e+232,"139":9.79016560772632e+235,"140":3.3951736284637766e+235,"141":-6.644019078115874e+233,"142":-4.152767800397402e+233,"143":-2.5034900500727367e+233,"144":-5.697445388827474e+233,"145":-3.560820892967642e+233,"146":-2.7635247600598595e+233,"147":-2.637134248586871e+236,"148":-9.675942839437941e+235,"149":-7.02067734771249e+232,"150":-1.6521810216548065e+235,"151":-1.723910791500053e+236,"152":-8.537588812744689e+235,"153":-2.5868843687504576e+234,"154":-6.778855915315584e+235,"155":-3.7905991362943713e+232,"156":9.13223457086832e+235,"157":1.1383540266933128e+235,"158":-3.873122874385696e+233,"159":-4.128187661405684e+233,"160":-5.425076261323441e+233,"161":-5.207898061668828e+233,"162":-3.8542845644697535e+233,"163":-2.833498547187588e+233,"164":-2.6362010385517357e+236,"165":-9.926560195466777e+235,"166":0.13658749658433117,"167":-3.268958965712166e+235,"168":-1.7269651870733079e+236,"169":-7.736893492444405e+235,"170":-1.7788687312964147e+235,"171":-5.41650784904858e+235,"172":-5.556790174067775e+232,"173":9.092358514784836e+235,"174":2.1896667030225186e+235,"175":-4.944707017332164e+233,"176":-5.249454787263088e+233,"177":-5.748546172236981e+233,"178":-3.3938595095973244e+233,"179":-3.5725711711456935e+233,"180":-2.412929312865593e+233}},{"sx":1,"sy":1,"depth":181,"w":{"0":-27.523293276263324,"1":-10.549781548406303,"2":0.141595220143926,"3":-5.193028718990186,"4":-25.578448796879307,"5":-5.2510308660807485,"6":-0.840234059749788,"7":-7.918349700955607,"8":-0.10478064140394801,"9":2.1210707302536913,"10":5.100803625897926,"11":-27.64894932366792,"12":-8.650334517713238,"13":-0.3543447056119767,"14":-3.5271800695576845,"15":-25.161205405920605,"16":-9.352345118551137,"17":-0.08881227538867337,"18":-9.826487387437128,"19":-0.0782648391487739,"20":2.590097970033086,"21":-0.5571573297917511,"22":0.12829538640092045,"23":-0.1296859102658769,"24":0.05855085731565465,"25":-0.22226521548963388,"26":0.11783689403487703,"27":-0.04171213786396011,"28":-27.578681976291758,"29":-11.221459985781795,"30":-0.1887330092194985,"31":-3.9226519937843327,"32":-25.233444792341853,"33":-7.284943446856666,"34":-2.38275785254289,"35":-6.6883280686968245,"36":-0.04279030123096714,"37":2.383916882475229,"38":3.9344492246066154,"39":-0.03114875119740125,"40":-0.017729783593186332,"41":-0.06902376267928506,"42":-0.080447528967605,"43":-0.13458030450442787,"44":0.06073266506399283,"45":-27.49060634669418,"46":-10.329981181667245,"47":-0.46883926136893544,"48":-2.3610004996965146,"49":-23.544707324389798,"50":-8.995752358475423,"51":-4.420594890533598,"52":-7.617249106564253,"53":-0.04329798426431902,"54":3.715959986116316,"55":1.3395442169561136,"56":-0.043844510238877636,"57":-0.018806439838083066,"58":-0.07364086450453029,"59":-0.1040837972625119,"60":0.020731791607093514,"61":-0.017163485680552103,"62":-27.490020577795775,"63":-10.42673772512664,"64":-0.3369741168122693,"65":-4.352698751341534,"66":-20.851859926279335,"67":-6.974676455903859,"68":0.9974817493862078,"69":-7.8083076005308305,"70":-0.0047405845049663595,"71":6.4411755436502265,"72":3.661313525688284,"73":-0.20593053729894534,"74":-0.007799668870126113,"75":0.00967291710107326,"76":-0.15636599107067792,"77":-0.023099124626526014,"78":0.002956392542896979,"79":-27.396354497100827,"80":-9.671068605103445,"81":-0.05361921029975835,"82":-4.149493011026682,"83":-21.75544241399796,"84":-9.102963296964804,"85":-0.29818408906428756,"86":-8.728237202723053,"87":-0.09481138878228439,"88":5.624500536583144,"89":0.5306016337110941,"90":-0.09258178155220738,"91":-0.17847358923616358,"92":-0.057607605126794935,"93":-0.05276769432670532,"94":-0.03899982230948113,"95":-0.1469944033722472,"96":-27.3012464043632,"97":-10.392082678019744,"98":-0.0034981422065440463,"99":-4.110724472831037,"100":-21.38015643364042,"101":-7.449764358340784,"102":-1.9735785581903853,"103":-5.390033475247133,"104":0.050257125556266026,"105":5.992595268381646,"106":3.2773639095772147,"107":-0.031790951150226225,"108":-0.10764465655410857,"109":-0.04349358338439111,"110":-0.08807977057292064,"111":0.08868509658123681,"112":-0.09701358744256512,"113":-27.363286933318154,"114":-11.04323336958318,"115":-0.17503291427042697,"116":-2.1119107929705376,"117":-20.227703387383148,"118":-9.052245366293487,"119":-1.8793247788176208,"120":-7.7407522079650475,"121":0.027510059701791524,"122":7.077818409417838,"123":1.7403257303616475,"124":-0.04111052752509801,"125":-0.10507515344046486,"126":-0.09491326659011391,"127":0.042179419421146995,"128":-0.06905508093206782,"129":-0.08750789229500908,"130":-27.178380536158983,"131":-10.675260244428095,"132":0.07335873201744036,"133":-2.6675170153731105,"134":-19.35712865920793,"135":-7.245931424383586,"136":-1.6486501342851174,"137":-9.125438324087979,"138":0.05540942779095742,"139":8.028372645088112,"140":3.360844766971783,"141":0.00872791275831683,"142":-0.08783915106590699,"143":-0.10193902348527745,"144":-0.019464047524391164,"145":-0.23832456782284805,"146":0.03857991335941428,"147":-27.220662664854597,"148":-10.932981680515315,"149":0.03589887649736617,"150":-1.1039074893181215,"151":-18.251573427641162,"152":-9.24748877482349,"153":-1.7983423658630648,"154":-9.068040056308082,"155":-0.017726323018876784,"156":9.050978889563673,"157":1.9179974251451701,"158":-0.10579606721042487,"159":-0.002478163250885399,"160":-0.016070643580514007,"161":-0.04143976861607524,"162":0.05324851328386066,"163":-0.012607054634733184,"164":-27.28280886205989,"165":-10.882065480323849,"166":-0.09284294891516157,"167":-1.9278400027438571,"168":-17.36050168574009,"169":-7.695375547597594,"170":-2.765409093084792,"171":-6.225728422087405,"172":0.07657611234936702,"173":10.10866971169216,"174":3.177232435925639,"175":-0.19443714731987372,"176":-0.16040564208306218,"177":-0.00934279332309456,"178":-0.03808256257943446,"179":-0.017803040770251757,"180":-0.01710920589444135}},{"sx":1,"sy":1,"depth":181,"w":{"0":-2.561520520121245,"1":-2.089725555345969,"2":-0.022810899376544045,"3":-0.6588312091322441,"4":-2.2877879027856665,"5":-0.6691758214241259,"6":0.7608519168449107,"7":-0.5945124016925182,"8":-0.006917863656561676,"9":0.4491836062803038,"10":1.6475033368868948,"11":-2.5993001847118227,"12":-2.0804649208451123,"13":0.09645149398499567,"14":-0.07812961681418859,"15":-2.579181182091887,"16":-2.191580020810848,"17":0.2751355858357898,"18":-1.4533191938739585,"19":-0.028658155869177755,"20":-0.09314985875371415,"21":-0.2722018949744868,"22":0.08166651512757193,"23":-0.12193345588279536,"24":-0.050760273587386835,"25":-0.0813974266270885,"26":0.11509405917596578,"27":-0.08062830925428693,"28":-2.717404498512536,"29":-2.2721055211172754,"30":-0.07886292686078314,"31":-0.22653884419132395,"32":-2.579813634756223,"33":-1.2556296192441159,"34":1.3974464796648896,"35":-0.7680379787348264,"36":0.06529442748590021,"37":-0.12101965263290314,"38":1.0938547926881859,"39":0.018671541084446904,"40":0.0221432552241098,"41":-0.07323849678122092,"42":-0.06778327167104883,"43":0.03716348109463207,"44":0.05212950769435389,"45":-2.4173143866980844,"46":-2.019790809006773,"47":0.01657897315277502,"48":-0.25789414313989867,"49":-3.6844111147585403,"50":-1.8742074642103919,"51":0.06490613966651024,"52":0.10453314460208799,"53":-0.03613186307304858,"54":-1.0686908724253517,"55":0.29989595228556115,"56":-0.05919771208126568,"57":-0.0626286340286111,"58":-0.015196399741337381,"59":-0.10744263645857868,"60":0.09579138186579539,"61":-0.03352265909485663,"62":-2.547272693809578,"63":-2.1583834678093528,"64":0.06744794573689131,"65":-0.7166184628800769,"66":-4.310253796606216,"67":-1.6771383112642857,"68":-0.3267923967370615,"69":-1.3193519074992626,"70":0.029865799488384755,"71":-1.7983562394525616,"72":0.5334927430706462,"73":-0.06800173240732411,"74":-0.14995993179190772,"75":0.08192469289072117,"76":0.05552812600148982,"77":0.07847614364013553,"78":0.015221494398064948,"79":-2.6097287801409688,"80":-2.0544659336333226,"81":-0.021598261340095976,"82":-0.9525138392424691,"83":-4.7434654466306725,"84":-1.8648358428633551,"85":-0.8383849486451271,"86":-3.212101760475138,"87":0.004483582803980302,"88":-2.2461657532476353,"89":0.19131810229040147,"90":0.04816813553297179,"91":0.03626388001982515,"92":-0.04813261274967775,"93":-0.05931807338667323,"94":0.049414954014431356,"95":0.015037892679668086,"96":-2.713184804691735,"97":-2.1226080791195296,"98":0.05962017658226513,"99":-1.3168314521594382,"100":-4.986678050534166,"101":-1.716928435364228,"102":-1.139108334187158,"103":-2.584693958907728,"104":-0.000547324856110544,"105":-2.236335622158229,"106":0.29250424191014224,"107":-0.05368094266287508,"108":-0.017527459745566406,"109":0.06250848401801345,"110":-0.006047043047387401,"111":-0.026027803925027793,"112":0.10704898938113963,"113":-2.5032842289991954,"114":-2.0267007629092344,"115":-0.015161468099080184,"116":-0.9460036331871448,"117":-4.690573023971584,"118":-1.358857263455344,"119":-1.9779312220722944,"120":-2.5629835466803335,"121":-0.023428997068355637,"122":-2.0947412076946152,"123":0.7542378166931567,"124":0.06689227482597992,"125":-0.04822864117955219,"126":0.08659651558505761,"127":0.05139182671446935,"128":-0.016924193324347008,"129":-0.05511079182748112,"130":-2.74024805601856,"131":-1.8706085053774972,"132":-0.04625224768070692,"133":-1.0220078276847313,"134":-4.2253031895460476,"135":-1.51363961759602,"136":-0.8725043516271215,"137":-3.034194599538765,"138":0.04883127315524106,"139":-1.490155109485142,"140":0.2750498250998435,"141":-0.0290267115057007,"142":0.017760181273820518,"143":0.1437504889769231,"144":-0.07515351000881236,"145":0.09218258214579236,"146":-0.04399102126807116,"147":-2.5415184624591185,"148":-2.011561321511487,"149":0.028626808030561553,"150":-0.8026464543177456,"151":-3.8880971182531905,"152":-1.230182371304847,"153":-0.6897609183483299,"154":-2.895276405240105,"155":-0.05262977572800636,"156":-1.4358222515481813,"157":0.836854300247189,"158":0.13838766562884675,"159":-0.02973377412963109,"160":0.0022594194341607073,"161":-0.09347545791861017,"162":0.04326987929229585,"163":0.01893497731488394,"164":-2.794871032138902,"165":-2.2988933228233215,"166":-0.05300503252763109,"167":-0.03953305944296297,"168":-3.336135938662887,"169":-1.219635448909301,"170":-1.2263261312801996,"171":-2.1591062766692564,"172":-0.0899110356925088,"173":-0.6975997264313489,"174":1.1192253541077897,"175":-0.07470199894987997,"176":0.13637113095573103,"177":0.02308335179518368,"178":-0.06164970264169815,"179":0.0205771469880986,"180":0.018113332808179207}},{"sx":1,"sy":1,"depth":181,"w":{"0":-70061516690.89452,"1":-23508034373.147846,"2":-0.023281478733900268,"3":-10044142289.082064,"4":-63946940111.29844,"5":-9094475465.020649,"6":-8392025623.91865,"7":-10641280648.837582,"8":-18876372.173732575,"9":6114576579.58186,"10":14413558908.198452,"11":-70078858827.24515,"12":-23190737365.137234,"13":-289035607.0259769,"14":-3194866139.9407797,"15":-57539090096.58587,"16":-25602984279.13226,"17":-11989994533.507366,"18":-13183576530.767738,"19":-8633766.244983036,"20":12539768730.689367,"21":-2412246913.7963777,"22":12456179.770471524,"23":-150010128.0686924,"24":13963460.809558118,"25":-121960649.31342234,"26":-399963980.9334878,"27":8851858.056692211,"28":-70138074992.35213,"29":-24484735582.89353,"30":-1275971690.6879437,"31":-12043526757.84091,"32":-48840510267.69225,"33":-15951168925.559017,"34":3489831009.0916276,"35":-19514142849.919445,"36":-19127766.984288078,"37":21297564724.51872,"38":8533566657.310049,"39":-388000535.16848797,"40":-12247870.810111668,"41":-26268046.63405724,"42":-135661635.0362094,"43":-87799413.63039342,"44":13314241.325726215,"45":-70061516690.77263,"46":-24117265075.859394,"47":0.014364188032994421,"48":-8346995027.926747,"49":-49131053616.87894,"50":-22181847782.575424,"51":-6457964981.169307,"52":-24339158166.11285,"53":-14906608.009733029,"54":20930463073.86875,"55":1935417293.1991668,"56":-24754585.788512263,"57":-125476420.0744588,"58":-108849258.28744003,"59":-173215789.59697235,"60":-112688054.89677823,"61":-91679150.81640185,"62":-70160028747.18694,"63":-23269377720.486717,"64":-1641867608.1596446,"65":-8195010660.03777,"66":-44451172688.86045,"67":-8801882026.828348,"68":-4246381231.5368247,"69":-12267988172.650507,"70":-17063215.40102357,"71":25708856058.42871,"72":14467495693.652872,"73":-165883386.30426365,"74":-240838910.6898516,"75":-98067380.15931793,"76":-146735653.54453743,"77":7984727.843473127,"78":6877343.27347675,"79":-70050278570.65736,"80":-22638097678.83474,"81":-93651001.33775891,"82":-1853310715.8173337,"83":-42914121897.09111,"84":-22529305611.982082,"85":4128309716.801077,"86":-18488469140.30236,"87":-9823902.300047101,"88":27136156673.594635,"89":108792066.8291056,"90":-31958905.214678723,"91":-52379594.572037704,"92":569497.1461938232,"93":-273395580.1143373,"94":-220614292.03641373,"95":-58884384.5445661,"96":-70047207156.34537,"97":-24781842530.318558,"98":-565836074.4985054,"99":-3950529435.89288,"100":-44852516278.11919,"101":-15329816873.747496,"102":-4494248945.7763195,"103":-15449170919.809956,"104":-9397161.970576465,"105":25194690877.98182,"106":9452025656.6416,"107":-73473972.1290482,"108":-258737284.80228826,"109":-36164322.94598144,"110":3622434.6807435188,"111":-161701548.41460082,"112":-110208566.16821031,"113":-70067135750.86804,"114":-24860137016.623207,"115":-93651001.43546271,"116":-2870354281.5077305,"117":-43644330932.35585,"118":-17175566157.151688,"119":-13302809391.236506,"120":-4288145830.491902,"121":-6083228.014097025,"122":26422804818.43049,"123":7684570859.506971,"124":-18940822.369158044,"125":-18109034.87156322,"126":-62214698.00095522,"127":-279440687.47163844,"128":-94801801.19522029,"129":-163156215.65696844,"130":-70061516690.93765,"131":-23848473907.26288,"132":0.0953813933704564,"133":-7965055439.622532,"134":-34707318308.38247,"135":-24297658495.77089,"136":4177756533.0453663,"137":-28353623913.555046,"138":-15536005.675902454,"139":35354198382.64956,"140":-449184588.7740588,"141":-286536933.20186716,"142":-68623446.30033672,"143":-44382692.64755144,"144":-114162890.92044447,"145":-76115133.64713238,"146":-46842163.11457157,"147":-70061516690.8289,"148":-24568728434.925194,"149":-0.09425622328676511,"150":-6447713068.761307,"151":-38783979803.736885,"152":-11426664218.346167,"153":9958662936.610378,"154":-10405350772.727224,"155":-10788334.147023533,"156":31277536887.10285,"157":13142064216.687923,"158":-81095340.41028073,"159":-213859631.19504958,"160":-48089192.53235393,"161":-58080313.98984353,"162":-105668405.31588121,"163":-129870376.59129588,"164":-70061516690.77792,"165":-26761967613.128326,"166":0.06049507424588636,"167":-1802581710.553015,"168":-45404030294.19087,"169":-24119372861.157043,"170":3010171044.176992,"171":-9398863962.159258,"172":-993404.7524350284,"173":24657486396.760536,"174":2642594751.7318854,"175":-45447540.9159248,"176":-67428058.49147463,"177":-108836045.0253684,"178":-26680727.5840654,"179":-179845655.76531062,"180":-208425232.00807306}},{"sx":1,"sy":1,"depth":181,"w":{"0":0,"1":0,"2":0,"3":0,"4":0,"5":0,"6":0,"7":0,"8":0,"9":0,"10":0,"11":0,"12":0,"13":0,"14":0,"15":0,"16":0,"17":0,"18":0,"19":0,"20":0,"21":0,"22":0,"23":0,"24":0,"25":0,"26":0,"27":0,"28":0,"29":0,"30":0,"31":0,"32":0,"33":0,"34":0,"35":0,"36":0,"37":0,"38":0,"39":0,"40":0,"41":0,"42":0,"43":0,"44":0,"45":0,"46":0,"47":0,"48":0,"49":0,"50":0,"51":0,"52":0,"53":0,"54":0,"55":0,"56":0,"57":0,"58":0,"59":0,"60":0,"61":0,"62":0,"63":0,"64":0,"65":0,"66":0,"67":0,"68":0,"69":0,"70":0,"71":0,"72":0,"73":0,"74":0,"75":0,"76":0,"77":0,"78":0,"79":0,"80":0,"81":0,"82":0,"83":0,"84":0,"85":0,"86":0,"87":0,"88":0,"89":0,"90":0,"91":0,"92":0,"93":0,"94":0,"95":0,"96":0,"97":0,"98":0,"99":0,"100":0,"101":0,"102":0,"103":0,"104":0,"105":0,"106":0,"107":0,"108":0,"109":0,"110":0,"111":0,"112":0,"113":0,"114":0,"115":0,"116":0,"117":0,"118":0,"119":0,"120":0,"121":0,"122":0,"123":0,"124":0,"125":0,"126":0,"127":0,"128":0,"129":0,"130":0,"131":0,"132":0,"133":0,"134":0,"135":0,"136":0,"137":0,"138":0,"139":0,"140":0,"141":0,"142":0,"143":0,"144":0,"145":0,"146":0,"147":0,"148":0,"149":0,"150":0,"151":0,"152":0,"153":0,"154":0,"155":0,"156":0,"157":0,"158":0,"159":0,"160":0,"161":0,"162":0,"163":0,"164":0,"165":0,"166":0,"167":0,"168":0,"169":0,"170":0,"171":0,"172":0,"173":0,"174":0,"175":0,"176":0,"177":0,"178":0,"179":0,"180":0}},{"sx":1,"sy":1,"depth":181,"w":{"0":-6.31923182248682,"1":-2.1867708701229818,"2":0.07993021041195031,"3":-1.033596038797439,"4":-5.963477863931799,"5":-1.5084449283861712,"6":0.21742464936821182,"7":-1.3213256206786648,"8":0.029798101868860987,"9":0.324294520220639,"10":0.6031895629418014,"11":-6.2866581056601705,"12":-2.0568194654370213,"13":-0.37480840244794167,"14":-1.45528237906141,"15":-6.011670809561519,"16":-1.6959062145331143,"17":-0.028191121688616913,"18":-2.1057414534899412,"19":-0.046128371946439164,"20":0.31836656228002275,"21":0.37593360137257403,"22":0.025957232955691363,"23":-0.03626811529705792,"24":0.07558585804946735,"25":0.013000189261476834,"26":-0.0852943245004408,"27":0.005879616445281852,"28":-6.219795491335791,"29":-2.283328831006753,"30":-0.211740353420281,"31":-0.05574500798931408,"32":-5.738736607126747,"33":-2.122094187197579,"34":-0.9748718705178149,"35":-2.5510527098302744,"36":0.05232199265151078,"37":0.4541455559547186,"38":0.353950900431561,"39":0.10112425457552929,"40":-0.014051926446089094,"41":-0.11262393691135263,"42":0.049428892836826444,"43":0.016407600797348355,"44":-0.039154573293432984,"45":-6.158130811096101,"46":-2.3122944325738604,"47":-0.32949764629632045,"48":-1.234388357450323,"49":-4.860830499142968,"50":-1.276898536621606,"51":0.4999278198626927,"52":-0.6350374060220421,"53":0.001337847482257712,"54":1.2888047230646362,"55":1.194398388316025,"56":-0.02762189810072043,"57":0.005678148113666613,"58":-0.06585869110163228,"59":-0.09905512698491521,"60":0.015188611022019823,"61":-0.03401254888446796,"62":-5.995972969356162,"63":-1.9210051610437933,"64":-0.01825932997268033,"65":-0.9786971368122469,"66":-5.104100647285417,"67":-2.300581105007207,"68":-0.5459942846400335,"69":-1.8764667094922345,"70":0.032947652525676954,"71":0.9094065971280569,"72":-0.4225632992366393,"73":0.007048600703861977,"74":-0.058430118960908044,"75":0.05486042771882462,"76":0.02688150731237385,"77":-0.0015180578209447015,"78":-0.13904001015226158,"79":-6.125660671389253,"80":-2.2202176269916762,"81":0.00919991966050492,"82":-2.177610379527615,"83":-4.751309275421294,"84":-1.188863352266169,"85":0.005747546150372369,"86":-0.9541026604558002,"87":0.04614756081303435,"88":1.1796580881969758,"89":0.9945307919035327,"90":-0.012847382514354359,"91":0.05533417063957421,"92":-0.005463965483666509,"93":-0.03851809828947809,"94":-0.018291933755889795,"95":0.06759543831054089,"96":-6.0069481422320905,"97":-1.7360995935399708,"98":0.1068126547651272,"99":-0.79147562594135,"100":-4.575225385300034,"101":-1.8791132440173965,"102":-1.4005504153326267,"103":-1.882290078915939,"104":-0.11924872563250036,"105":1.4152855033098466,"106":-0.09215085103398415,"107":0.010310060065650684,"108":0.050347452344755295,"109":0.013863503975935306,"110":-0.02893923096903392,"111":-0.11971385240603069,"112":-0.07501585511403333,"113":-6.094834998962374,"114":-2.2185454204305355,"115":0.09043452420655348,"116":-0.4641409487716498,"117":-3.9192495614221166,"118":-1.8631348819659952,"119":-1.0057851668764017,"120":-1.676017725637744,"121":-0.0006255395787410691,"122":2.1787220162894703,"123":0.25077394192599906,"124":0.0005789164647463269,"125":0.09485397916106028,"126":-0.11727106642918521,"127":0.0019885927456496136,"128":-0.06977928150363513,"129":0.025074541761636177,"130":-5.993691559464804,"131":-2.466048722178625,"132":0.005498221294811251,"133":0.23774470570453796,"134":-3.415889659439728,"135":-1.4052564779155128,"136":0.06015748635389749,"137":-2.967368312249895,"138":-0.03208509763333016,"139":2.666635626498218,"140":1.1818604345677934,"141":-0.153298447958354,"142":-0.017481753507444135,"143":0.046612755234147416,"144":-0.025919163253903865,"145":-0.22385183621797838,"146":-0.04884151255793158,"147":-6.0122614101466985,"148":-2.187375181691241,"149":0.046716938141369034,"150":-0.5694043376287696,"151":-3.6718346216172644,"152":-1.8427345799391979,"153":-0.5086133542560526,"154":-0.6558304401869777,"155":0.009257925218404751,"156":2.2920557088988645,"157":0.4752942057639885,"158":0.04477892731448808,"159":-0.02451277779260755,"160":-0.015457875038945289,"161":0.013104984179960455,"162":-0.06862148601014714,"163":-0.048025643170851236,"164":-5.870158659701048,"165":-2.2341071665024446,"166":0.06597759269049218,"167":-0.7630229432487273,"168":-3.4573374212289685,"169":-2.2981171457942517,"170":0.1203540706319883,"171":-2.56582985407238,"172":0.026407265930442642,"173":2.482217537731318,"174":-0.15542216718699128,"175":-0.10817753596476433,"176":0.06574859249184856,"177":-0.027177018146652483,"178":0.1072322371286057,"179":-0.0434198391469482,"180":0.050460115587623554}},{"sx":1,"sy":1,"depth":181,"w":{"0":-4.9110603336597425,"1":-2.0119987904901153,"2":-0.04409119239908418,"3":-1.0303849567122352,"4":-4.506284948193264,"5":-0.6984442145540684,"6":-0.3011793550521568,"7":-0.30575177642063306,"8":0.12703464068180526,"9":0.3562230666056357,"10":1.287441087740303,"11":-4.626279319587999,"12":-1.7163395142487632,"13":-0.2985578335155683,"14":-1.0209404710702328,"15":-4.448209842284265,"16":-1.559240285630472,"17":0.5222128794190299,"18":-2.5495236680408806,"19":0.04755950684544939,"20":0.47022422953255794,"21":-0.02444083134033278,"22":-0.10556568783541283,"23":-0.08345075913558822,"24":-0.08789666072050997,"25":-0.047341758391079805,"26":0.10002847593750117,"27":-0.1102964333039082,"28":-4.822753163690373,"29":-2.128344552386641,"30":-0.25342189166651574,"31":0.4278250273319659,"32":-5.042615085237041,"33":-2.145030594143844,"34":-1.382818454604492,"35":-1.950840552967268,"36":0.040721084408676056,"37":-0.3137415182859757,"38":-0.02007976341317055,"39":0.11938374169610962,"40":0.00023953395717480182,"41":-0.024764211000504986,"42":0.027970758441869803,"43":-0.11466655365146894,"44":-0.06474586440560641,"45":-4.738766405303163,"46":-2.468831336956279,"47":-0.19706510972878402,"48":-1.2487577125264735,"49":-3.946670426926836,"50":-0.8654896044544207,"51":-1.6707265419236315,"52":-0.11771180202695052,"53":-0.06755239230734629,"54":0.6132581106020882,"55":1.609773037163228,"56":-0.07623009597806978,"57":0.0652621430351468,"58":-0.024132603184459877,"59":-0.016582828522897795,"60":0.020445307939983042,"61":-0.06497878640706904,"62":-4.739758770187385,"63":-1.7838350623665657,"64":-0.24823799990232087,"65":-0.9911164786176356,"66":-2.779744174266849,"67":-2.032547031236057,"68":0.3802346813382191,"69":-2.1499701610008106,"70":0.019357772459555094,"71":1.8837931163324815,"72":-0.2212806252601706,"73":-0.004538154399881295,"74":-0.09389312943269444,"75":-0.08822795755640096,"76":0.02844027625964162,"77":-0.014362751455877095,"78":-0.018961858614473304,"79":-4.893545187375491,"80":-2.3805707000138914,"81":-0.07558656209012345,"82":-1.2563541628442916,"83":-3.102629810304292,"84":-1.4388703900954984,"85":-0.24459587749094247,"86":-0.211480382237508,"87":0.02625239107583953,"88":1.4956852632668372,"89":1.0369299124906786,"90":-0.03235866226821294,"91":0.06523280874440122,"92":0.008627916250259885,"93":-0.043889864563104695,"94":0.04944621641445056,"95":0.05036665660614738,"96":-4.600067453756655,"97":-1.5606229585523514,"98":0.023800573373168113,"99":-0.4098875753148057,"100":-2.879930803555637,"101":-1.6964403045442644,"102":-0.7987109016596404,"103":-0.183582725426495,"104":0.015482799827342296,"105":1.8058251480545864,"106":-0.07226991494315049,"107":-0.03742112173035762,"108":-0.05023283805419851,"109":-0.05080349288211105,"110":-0.008874140219304013,"111":-0.032461797771388065,"112":-0.013583176937896098,"113":-4.6500468396352135,"114":-2.4185937535761974,"115":0.08195522945547515,"116":-0.31527523893435855,"117":-2.6308240444715243,"118":-2.0904245545308298,"119":-1.046664505663782,"120":-1.5237424097627716,"121":0.03939214990442871,"122":2.0120272439947553,"123":0.12148652133435413,"124":0.06356918186519533,"125":0.03127981896007644,"126":-0.03475252347032425,"127":0.03173020826649651,"128":-0.048571161751325816,"129":-0.00748085554084219,"130":-4.573846972311756,"131":-1.8223608916552627,"132":-0.09003018618031872,"133":-0.760104470452425,"134":-1.9257388212420945,"135":-0.9193928332117739,"136":0.7984553442328319,"137":-4.16695726094294,"138":-0.022029336728835947,"139":2.7555608622338474,"140":0.9695848702128993,"141":-0.06624690285176536,"142":0.042439611594560556,"143":-0.003835363035230258,"144":0.036313275471201674,"145":-0.09042590474039477,"146":0.09194216907483296,"147":-4.6863514778752435,"148":-1.9105016173948637,"149":-0.08939931338193602,"150":-0.5427028710004052,"151":-2.476473212791949,"152":-1.5429722349255954,"153":1.6942779311826361,"154":-1.1245726159550744,"155":0.09568489550041612,"156":2.1772671834873907,"157":0.4133721319327728,"158":-0.033464194163818926,"159":0.04808728309337854,"160":-0.017478774032701268,"161":-0.03411038430608551,"162":-0.05530780911415056,"163":-0.014573869638264937,"164":-4.669999271997786,"165":-1.9277829642309874,"166":-0.18198524123099794,"167":-0.9488745787008599,"168":-3.523488528283608,"169":-2.2978618224777083,"170":-0.5577332764281304,"171":-0.732272403018532,"172":-0.09422003548840695,"173":1.1814598712955613,"174":-0.5760242750263257,"175":-0.05731666354963829,"176":0.05844680812250301,"177":-0.061793293329278666,"178":0.04634711471843088,"179":0.06717348285012276,"180":-0.09500685620548432}},{"sx":1,"sy":1,"depth":181,"w":{"0":-21.33664233996354,"1":-7.20060117869913,"2":-0.03980895481312067,"3":-3.696413681177437,"4":-19.355662257751913,"5":-3.4671042378490347,"6":-0.4418957324236526,"7":-5.8714372417115275,"8":-0.1041385764914229,"9":2.226248022096344,"10":3.9237016669086566,"11":-21.302791005429498,"12":-5.783310680174908,"13":-0.27472462651498186,"14":-2.148333940387994,"15":-19.021269673786694,"16":-6.718199348206344,"17":-0.7139791527347665,"18":-5.497396627090361,"19":0.055692928209885195,"20":2.5685541534684133,"21":-1.0408204177550846,"22":-0.18180852367220277,"23":0.0441526565178064,"24":-0.1915771286105656,"25":-0.2290602220504879,"26":-0.12009565762624512,"27":-0.0645486722573239,"28":-21.344714691363105,"29":-7.6316971603199395,"30":-0.09689187934607164,"31":-4.3423950254864,"32":-18.840153275023006,"33":-4.990970949404412,"34":-2.2037692484605964,"35":-4.6329497003680435,"36":-0.08438024014750084,"37":2.766959685299094,"38":2.7048181033244636,"39":-0.054976069153480446,"40":-0.04135842732662329,"41":0.028635819317172333,"42":0.06699473891838956,"43":0.045227403545303364,"44":-0.04474031900483343,"45":-21.257146418864437,"46":-6.580841414151122,"47":-0.20882712409501214,"48":-1.4658516975818174,"49":-17.097103393240918,"50":-6.616373298184189,"51":-2.554453274651312,"52":-6.97525884131106,"53":-0.0625513011200531,"54":4.272197121901534,"55":0.09945986782099879,"56":-0.14479429337806243,"57":0.00367116510806648,"58":-0.20595416584675105,"59":-0.15415924657437918,"60":-0.09879443578290145,"61":-0.002247081448827873,"62":-21.177860130382324,"63":-7.691620047458007,"64":-0.1956455535420656,"65":-3.2277991832614,"66":-15.270342618432268,"67":-3.9515708250840165,"68":0.15227195217159234,"69":-4.733941617453669,"70":-0.09065479913244237,"71":5.686169320169894,"72":3.6241876293620074,"73":-0.10694877626279818,"74":-0.013041067020829045,"75":0.0010091518707123377,"76":-0.18349058953431172,"77":0.030061005738333813,"78":-0.09170910169466319,"79":-21.169900532141593,"80":-6.756682204899251,"81":-0.093732843940554,"82":-1.806084178832178,"83":-15.348652873486042,"84":-6.661807744520015,"85":-0.728864762577689,"86":-6.819192677199887,"87":0.009046029087138677,"88":5.968699397197623,"89":-0.06349768980994948,"90":0.09673010650284536,"91":0.03070542426834623,"92":0.03342173780885015,"93":-0.05690057428222922,"94":-0.045087169676081,"95":-0.01283840233138594,"96":-21.324416024967924,"97":-7.742509400730138,"98":0.018666223105859695,"99":-1.946359511138213,"100":-14.489460801210951,"101":-3.9310707168237933,"102":-1.5432116147372268,"103":-3.436470948819337,"104":-0.058776820984196704,"105":6.668463239032765,"106":3.6198641469776645,"107":0.026833926050512574,"108":-0.06698683604492438,"109":-0.0877023524975492,"110":-0.11105495955297646,"111":0.014618071181676575,"112":-0.10741118794108656,"113":-21.257668731837036,"114":-7.174737920438674,"115":-0.033069623207497914,"116":-1.5516348464792364,"117":-12.869022813628257,"118":-6.565896186638477,"119":-1.975438722530461,"120":-4.585708561675286,"121":-0.019115162861266768,"122":8.255233201401529,"123":0.4763133629042974,"124":-0.0008332811228650881,"125":-0.19506275119233144,"126":0.054446671025085665,"127":-0.1554081295461858,"128":-0.008395161194460979,"129":-0.07857341957308636,"130":-21.240624737241802,"131":-7.38160432799134,"132":-0.035315160232380724,"133":-1.5044822687583783,"134":-11.4179093958099,"135":-4.8179222818854885,"136":-1.498820762432822,"137":-5.081072433958842,"138":0.036877973986067444,"139":9.81208646841104,"140":2.570077720979064,"141":-0.0987034039358403,"142":-0.12178947719856839,"143":0.03548427963383402,"144":0.04629897594608969,"145":-0.13535620838813187,"146":-0.2103440633703073,"147":-21.20157755914974,"148":-7.819798182315227,"149":-0.05076038061550901,"150":-0.49330721414771406,"151":-10.441044001112896,"152":-6.352908169909823,"153":-1.1580296077290675,"154":-5.991848130584336,"155":-0.1512315163402742,"156":10.736826855122283,"157":1.654904192712314,"158":-0.05189458803504366,"159":-0.07471985471871248,"160":-0.02955552378981809,"161":-0.15564520897300366,"162":-0.056509979715332184,"163":-0.0769802847172414,"164":-21.361926547527126,"165":-7.739784963829849,"166":-0.07189226009800034,"167":-0.7876547452451005,"168":-9.987010935356727,"169":-5.2081530204192426,"170":-1.45803305689311,"171":-4.588102377910335,"172":-0.09472630887181052,"173":11.461959587715297,"174":2.514810107907026,"175":0.04281254407006661,"176":-0.06540049945244618,"177":0.04949524921878298,"178":-0.024118809806815807,"179":-0.11650959199202825,"180":-0.06148396371350109}},{"sx":1,"sy":1,"depth":181,"w":{"0":-346286558918.87244,"1":-115787592646.0757,"2":-0.06551231216329358,"3":-48983779394.52895,"4":-315652859977.5281,"5":-43917787899.65307,"6":-41893683180.58456,"7":-52287291203.74079,"8":-92447710.5457324,"9":30633698941.228027,"10":71869804746.48717,"11":-346373128873.4612,"12":-114226649688.73016,"13":-1442832574.6210384,"14":-14646572647.188118,"15":-283865901329.50134,"16":-126738047033.98396,"17":-59594931535.62868,"18":-64356929766.44456,"19":-40694137.17663611,"20":62507227543.94132,"21":-12511397345.330162,"22":76161798.19972134,"23":-741504491.7431631,"24":74993995.12347227,"25":-598646277.257279,"26":-1994583287.6931198,"27":48416913.877741896,"28":-346668729172.40424,"29":-120811426011.10051,"30":-6369504226.201229,"31":-59269502470.17553,"32":-240601110518.3032,"33":-78084549957.08533,"34":17308088782.90233,"35":-96325459008.64821,"36":-93611253.28646716,"37":106067618654.2233,"38":42726876054.01881,"39":-1934003205.790134,"40":-53196215.806695536,"41":-133013936.44472826,"42":-656889586.305061,"43":-429722589.57881093,"44":71664184.49116434,"45":-346286558919.13116,"46":-118618207853.84904,"47":0.4091947236404636,"48":-41357636115.01568,"49":-241992247433.06042,"50":-109632862450.29411,"51":-32192904292.029137,"52":-120394060941.84055,"53":-73978865.84913859,"54":104294311485.91492,"55":8985345403.491438,"56":-110050791.4574893,"57":-622438889.2659073,"58":-535483471.7225777,"59":-856193370.7277756,"60":-560897801.2389202,"61":-450097024.8868007,"62":-346781223529.5843,"63":-114391232169.18828,"64":-8244410172.417508,"65":-40811790844.090744,"66":-218775992538.32303,"67":-42325734158.7846,"68":-20906910105.45926,"69":-59621616892.71967,"70":-85052789.00104977,"71":128005230991.09578,"72":72065498010.24748,"73":-818274033.4404248,"74":-1198920298.2083309,"75":-491635907.85558635,"76":-726066328.6241022,"77":53962827.35000412,"78":45772391.699821964,"79":-346225876571.51135,"80":-111274495761.8682,"81":-505686230.633776,"82":-8055475044.439022,"83":-211386908472.15903,"84":-111431011633.70135,"85":21020095147.67649,"86":-91297118420.99158,"87":-47199194.473067544,"88":134838968099.30154,"89":-156515871.73748487,"90":-153019246.22158054,"91":-251077145.50690758,"92":6758231.266109347,"93":-1351470549.751963,"94":-1093833307.9938867,"95":-292519331.05157477,"96":-346193155433.95294,"97":-122068864623.17938,"98":-2786397558.0014625,"99":-19471533503.06338,"100":-221388258985.3014,"101":-74828368396.43251,"102":-21551389115.19157,"103":-75828269947.32896,"104":-46230532.952323735,"105":124804896448.44556,"106":47240496226.48295,"107":-361307032.20968556,"108":-1290070058.1470506,"109":-172321176.47167775,"110":37429192.796343274,"111":-801775377.358767,"112":-547116898.0015627,"113":-346316900093.06537,"114":-122359609785.57072,"115":-505686230.69423544,"116":-13345941174.573334,"117":-215927152666.7743,"118":-84898758205.26794,"119":-66714256866.51125,"120":-20880104921.341022,"121":-28698644.247868408,"122":130389747426.1783,"123":37460851580.075005,"124":-71927671.0765928,"125":-86916627.69416289,"126":-301639345.9409743,"127":-1393287628.6633842,"128":-467958184.58101416,"129":-813431891.3585843,"130":-346286558919.2186,"131":-117684279349.00177,"132":-0.05126469204910636,"133":-39476549533.807304,"134":-171001586376.51505,"135":-119634514509.38625,"136":20672721262.377842,"137":-140417674680.5215,"138":-76241915.35632107,"139":175284972542.83087,"140":-1950235160.5068815,"141":-1420619939.0198963,"142":-335779888.2602875,"143":-223479722.6183416,"144":-567080533.0077679,"145":-371223220.1687538,"146":-216978046.1953112,"147":-346286558919.2086,"148":-120951127403.73322,"149":0.09910175625155566,"150":-31238303254.96154,"151":-191123623550.69186,"152":-55571663273.867424,"153":49874715909.25916,"154":-50804425678.29397,"155":-52239997.25478794,"156":155162935368.34476,"157":65379464129.74548,"158":-395980210.56636536,"159":-1068497328.6603321,"160":-222408449.54991958,"161":-279283830.55505884,"162":-525090068.4168396,"163":-643901461.7771947,"164":-346286558919.1079,"165":-131988970388.51399,"166":0.29192289431224283,"167":-8513144886.409578,"168":-224127409676.9065,"169":-119302634919.40224,"170":15548220143.057758,"171":-45376795839.16202,"172":-3856368.741308269,"173":122159149242.2581,"174":12686335468.97041,"175":-210396073.55522922,"176":-332241313.2775049,"177":-538583545.4481738,"178":-126576066.03145327,"179":-895611801.0023736,"180":-1031752550.4827155}},{"sx":1,"sy":1,"depth":181,"w":{"0":-306443002109.96344,"1":-102555259122.1495,"2":0.004235361833415282,"3":-43402824648.75233,"4":-279406377321.8427,"5":-38998499234.56249,"6":-37070640792.10544,"7":-46311939877.04369,"8":-81880623.49300975,"9":27036624788.23805,"10":63556759887.65347,"11":-306519531372.3713,"12":-101176960430.09306,"13":-1275487704.2872615,"14":-13095522414.598803,"15":-251272442793.69708,"16":-112200192928.99329,"17":-52698046748.715355,"18":-57042180512.93927,"19":-36229346.081181355,"20":55247088578.604546,"21":-11023232498.84672,"22":66126421.04131881,"23":-657271594.3418025,"24":65700558.60455971,"25":-529487910.80449,"26":-1764664083.7764094,"27":42744921.271986246,"28":-306780846893.9955,"29":-106972453336.16379,"30":-5630746397.08643,"31":-52514639811.95851,"32":-213021720370.0421,"33":-69196773172.66524,"34":15389982372.014004,"35":-85315100785.80219,"36":-83010855.3699612,"37":93759126523.86111,"38":37775680163.251335,"39":-1710947713.463221,"40":-48253595.79352756,"41":-117363020.79452233,"42":-582556606.0244635,"43":-380104979.52714884,"44":62374227.82536589,"45":-306443002110.16626,"46":-105071169805.95134,"47":0.312177850127269,"48":-36602270520.0717,"49":-214307837244.10336,"50":-97049017703.15997,"51":-28470289248.484703,"52":-106603938262.75722,"53":-65473284.860119484,"54":92135164866.09105,"55":8022152102.864742,"56":-98058671.47919779,"57":-550772105.8192759,"58":-475140060.6624854,"59":-757634671.4062703,"60":-496043422.41427606,"61":-399202756.47788876,"62":-306880074029.9346,"63":-101330683700.0102,"64":-7284531995.742602,"65":-36112192318.10645,"66":-193764330835.52667,"67":-37593212543.05462,"68":-18530957578.701797,"69":-52887542165.97879,"70":-75254454.80138274,"71":113115743194.65173,"72":63737471156.83058,"73":-724244594.4549077,"74":-1060514506.1161184,"75":-434922903.6330148,"76":-643012407.2649963,"77":46126058.479544,"78":39716665.03107412,"79":-306390420854.35547,"80":-98577840113.85088,"81":-438177130.95230395,"82":-7262439992.270853,"83":-187194219277.17252,"84":-98632316849.24689,"85":18541434761.585777,"86":-80819418440.85503,"87":-41959959.85358102,"88":119196201577.26288,"89":-54476735.22597242,"90":-135594683.63576946,"91":-223134918.95003724,"92":5282058.821533396,"93":-1196789881.5897624,"94":-967955877.578943,"95":-258658385.00155777,"96":-306365527916.7856,"97":-108089912169.9435,"98":-2472079032.3064113,"99":-17234367051.105545,"100":-195995819602.09525,"101":-66339617743.58044,"102":-19149482962.39352,"103":-67209523768.18689,"104":-40988534.7426393,"105":110369708314.76854,"106":41750294426.539894,"107":-319788916.6941264,"108":-1141338750.2487571,"109":-152913965.7366189,"110":31494609.407293078,"111":-710219196.5194076,"112":-484085468.2459473,"113":-306469292737.996,"114":-108387576625.57065,"115":-438177130.96678644,"116":-11930416623.67629,"117":-191110822034.6651,"118":-75135880955.10312,"119":-58976929841.351555,"120":-18489368433.37738,"121":-25576261.340476435,"122":115358470703.529,"123":33251695670.59858,"124":-65151174.66775772,"125":-77348599.43255349,"126":-266952624.63668397,"127":-1232611362.4348578,"128":-414871694.0060025,"129":-719916233.0546098,"130":-306443002110.269,"131":-104215031058.71129,"132":0.014975274548142087,"133":-34919640725.16954,"134":-151406609894.0849,"135":-105986563551.64275,"136":18334109637.961018,"137":-124363602211.53848,"138":-67514428.89539777,"139":155036392216.10605,"140":-1771532493.031104,"141":-1256773098.9027462,"142":-297409147.8264586,"143":-197526830.05122438,"144":-502241374.3563229,"145":-329258591.95109016,"146":-193642645.06000605,"147":-306443002110.2274,"148":-107133423842.85936,"149":0.09100875489353007,"150":-27703519475.322666,"151":-169237064795.46777,"152":-49250346990.11941,"153":44085984811.73662,"154":-45019089677.086105,"155":-46318380.7303716,"156":137205937314.7677,"157":57883076852.63583,"158":-350569690.2614983,"159":-945011365.0156211,"160":-198884184.172411,"161":-247612904.07411858,"162":-465167923.7300975,"163":-569605620.7615694,"164":-306443002110.20966,"165":-116895951631.11128,"166":-0.012085661787384076,"167":-7580788875.627922,"168":-198416135554.79425,"169":-105637833499.5646,"170":13682246923.598906,"171":-40241860986.97333,"172":-3493324.579154521,"173":108026866555.21962,"174":11258118131.335985,"175":-187811097.09167635,"176":-293671968.9165273,"177":-476310719.6537909,"178":-112796428.76629752,"179":-792138705.1493093,"180":-914122768.7724482}},{"sx":1,"sy":1,"depth":181,"w":{"0":-225639066421.60214,"1":-75553729384.06477,"2":-0.07100454146831145,"3":-32104011730.684437,"4":-205755647159.5705,"5":-28893620510.366653,"6":-27268814715.146793,"7":-34100182974.793232,"8":-60458332.64451165,"9":19883419262.1109,"10":46660108873.59036,"11":-225694836495.52042,"12":-74527432288.35579,"13":-929501232.8576915,"14":-9909490315.980368,"15":-185021327580.49493,"16":-82560889589.59435,"17":-38767808894.2394,"18":-42121926738.12636,"19":-27118362.596003536,"20":40673508914.86677,"21":-8033457301.286206,"22":46123108.5495716,"23":-484253211.9753729,"24":47260553.5582122,"25":-389784532.2865038,"26":-1295950234.7089984,"27":30739311.89402675,"28":-225885268044.7461,"29":-78758508350.34601,"30":-4103360386.0642085,"31":-38712524495.06612,"32":-156897267325.32684,"33":-51062484872.37125,"34":11404861104.108843,"35":-62904085782.13289,"36":-61312725.55661473,"37":68988000719.32735,"38":27696023477.975193,"39":-1257917073.0768228,"40":-35744926.86867028,"41":-85515160.86857423,"42":-430624818.4353532,"43":-280951292.6610852,"44":44888266.96239243,"45":-225639066421.63623,"46":-77454136823.42365,"47":-0.12423445301442854,"48":-26980941420.928993,"49":-157915470705.98007,"50":-71384840853.60039,"51":-20858825675.69498,"52":-78437962022.48291,"53":-48164477.061114706,"54":67723595715.669685,"55":6069295969.614329,"56":-73343380.25857492,"57":-404860552.5014657,"58":-350663944.7969637,"59":-557541603.3310353,"60":-364374117.2509958,"61":-295081406.9985518,"62":-225959919050.9773,"63":-74673801976.66861,"64":-5347543825.123502,"65":-26532539993.608753,"66":-142828214839.64963,"67":-27867649612.513737,"68":-13698801897.876566,"69":-39097071632.7099,"70":-55290125.54727311,"71":83131704211.51222,"72":46806152364.29176,"73":-533694514.71281576,"74":-778766568.0946958,"75":-319105168.46823084,"76":-472486318.69506633,"77":31702039.22525402,"78":26485525.882031288,"79":-225601243703.9043,"80":-72681872251.06961,"81":-315189313.69030845,"82":-5573227146.931544,"83":-137931046842.84396,"84":-72586388759.2379,"85":13510799817.21732,"86":-59511474648.3002,"87":-31135949.61158901,"88":87670196861.18887,"89":95483491.85413225,"90":-100743680.84943199,"91":-163924349.99189425,"92":3444768.852024403,"93":-881937079.5629355,"94":-713091739.4318751,"95":-189612924.25341088,"96":-225584983029.25916,"97":-79624516429.92908,"98":-1805636063.8003554,"99":-12608983459.445534,"100":-144312781970.41684,"101":-49010397700.30857,"102":-14288342029.165648,"103":-49571016304.842094,"104":-30093104.868978526,"105":81272201058.80846,"106":30614118729.57582,"107":-234935992.15270162,"108":-837874678.7528967,"109":-113899181.89305559,"110":18876185.69366786,"111":-523212405.4379823,"112":-354818932.5839694,"113":-225657977780.27686,"114":-79890858189.77975,"115":-315189313.665607,"116":-8927407808.005482,"117":-140578289904.87622,"118":-55254449229.23259,"119":-43314230376.69458,"120":-13597001484.893871,"121":-19017464.90446107,"122":85079687875.57259,"123":24636408960.594707,"124":-51992950.48740583,"125":-56897396.66400195,"126":-197093430.7526054,"127":-906011720.6536697,"128":-304265495.2014284,"129":-529604011.4415599,"130":-225639066421.66318,"131":-76726906442.3266,"132":0.07364838638003841,"133":-25588321567.465004,"134":-111427611271.98828,"135":-78104122472.749,"136":13469855306.16468,"137":-91540096886.80017,"138":-49669512.05736783,"139":114211455149.58713,"140":-1377216030.4059064,"141":-924314074.6287042,"142":-219574699.73815092,"143":-143898742.62638715,"144":-369154494.99528265,"145":-243959997.38055718,"146":-144962995.6009203,"147":-225639066421.59598,"148":-78952467040.07378,"149":-0.02555017743361339,"150":-20509669551.706314,"151":-124550804579.33144,"152":-36396172793.522835,"153":32361430516.52482,"154":-33243066931.26802,"155":-34270235.55233486,"156":101088261842.24884,"157":42556294246.63739,"158":-258774819.29564622,"159":-693807450.1890436,"160":-148891221.3695619,"161":-183302978.8161864,"162":-342377090.7738236,"163":-418711444.4741367,"164":-225639066421.65204,"165":-86091333041.2632,"166":-0.10433798993731212,"167":-5571219575.402636,"168":-145976698765.00095,"169":-77726145294.15349,"170":9963733043.228327,"171":-29783264649.596985,"172":-2656661.393185746,"173":79662367656.44463,"174":8365187747.18939,"175":-140248868.41642356,"176":-216473814.55751207,"177":-350259028.4713685,"178":-84478702.48119572,"179":-580959995.7283593,"180":-673444595.4141033}},{"sx":1,"sy":1,"depth":181,"w":{"0":-36525189622.47882,"1":-12081393780.633299,"2":-0.11025826065222416,"3":-5181598221.621704,"4":-33184028810.342873,"5":-4559027312.512672,"6":-4473859587.044462,"7":-5378998064.94531,"8":-9739772.015189791,"9":3341160812.1882367,"10":7522366468.192067,"11":-36533827328.05611,"12":-11927810834.65119,"13":-143961759.56116334,"14":-1561305670.50627,"15":-29784572920.506107,"16":-13269962587.680515,"17":-6338914137.884651,"18":-6718647633.61536,"19":-4269723.268680166,"20":6749254407.4775915,"21":-1342151752.8824105,"22":8247174.616852082,"23":-77523743.34407671,"24":8188210.533696857,"25":-62081496.57842551,"26":-209634333.97737765,"27":5368240.110101638,"28":-36563321491.136566,"29":-12610332848.309156,"30":-635531145.6016229,"31":-6227423053.915784,"32":-25194652385.220154,"33":-8154193871.975679,"34":1884619365.026037,"35":-10141392097.470554,"36":-9833184.87135462,"37":11368669105.933004,"38":4456138976.321086,"39":-205306766.19949207,"40":-3157097.5320799924,"41":-13457291.766831456,"42":-68197168.94739418,"43":-45497900.76961011,"44":8180276.60531354,"45":-36525189622.550644,"46":-12414074439.67979,"47":0.5867485298785368,"48":-4415467768.87211,"49":-25385870502.410297,"50":-11422490332.529741,"51":-3353031814.7991953,"52":-12598503868.005299,"53":-7776447.666957741,"54":11139319120.080206,"55":991584107.1858807,"56":-10299847.541625455,"57":-65371235.68881355,"58":-56278026.04875485,"59":-89641860.05518857,"60":-58465944.34189988,"61":-47379034.80922963,"62":-36578246554.28621,"63":-11913379152.85766,"64":-884282193.7164265,"65":-4304034088.280888,"66":-22954543229.427376,"67":-4348847076.18042,"68":-2261918320.8833447,"69":-6179608590.4701,"70":-8985472.602009369,"71":13623703324.962452,"72":7564532076.95372,"73":-86295793.56205405,"74":-125798227.05211483,"75":-51630870.27329233,"76":-75130211.57738312,"77":6640442.26017159,"78":4778711.674254564,"79":-36518083381.02291,"80":-11626509940.91236,"81":-59218680.81370053,"82":-848792081.8694563,"83":-22145059591.055515,"84":-11677838637.131733,"85":2206729024.3071413,"86":-9592810061.586647,"87":-4926081.995080266,"88":14373023789.921616,"89":-51328696.32803872,"90":-15760303.449918099,"91":-23863478.75379263,"92":1479396.7128201404,"93":-143442843.80080193,"94":-116255399.2379737,"95":-29593319.89882161,"96":-36510828759.26479,"97":-12757027537.753454,"98":-269256143.57297355,"99":-1940961036.5250125,"100":-23188759324.84452,"101":-7806185662.54882,"102":-2376090811.5512567,"103":-7924057909.952781,"104":-4673968.90215984,"105":13322069434.254534,"106":4950841875.314969,"107":-36681270.59328829,"108":-135577228.67482927,"109":-17712559.232204553,"110":3648270.2727315784,"111":-84930578.91429636,"112":-56182581.30879613,"113":-36528742743.48761,"114":-12803303564.801903,"115":-59218680.690125495,"116":-1365055687.5929534,"117":-22549124426.833317,"118":-8818645900.576368,"119":-7117818999.551171,"120":-2065413924.277587,"121":-2903313.9998550545,"122":13979618316.593805,"123":3984657664.4356637,"124":-7491742.89995271,"125":-7815630.316298717,"126":-31146137.624006458,"127":-147710468.30757213,"128":-46897970.81167225,"129":-86373998.46136259,"130":-36525189622.65112,"131":-12267910845.89637,"132":0.08991095483586435,"133":-4043406686.2130756,"134":-17743108776.526722,"135":-12519279270.592638,"136":2149476869.5090566,"137":-14795109264.413513,"138":-7883967.794626332,"139":18782080846.1212,"140":-251368424.73746884,"141":-149061553.53640378,"142":-35222235.10951051,"143":-22293290.535393756,"144":-59067328.94554392,"145":-39609118.98321333,"146":-22182421.60347631,"147":-36525189622.76375,"148":-12644646382.353933,"149":0.03617275306185162,"150":-3286521927.352599,"151":-19864154287.905476,"152":-5759314956.482904,"153":5301982255.822373,"154":-5296482241.374174,"155":-5465048.868667952,"156":16661035334.906776,"157":6885331425.559027,"158":-40777561.54981001,"159":-112746096.54505904,"160":-22136447.815408017,"161":-28832780.27215758,"162":-55458687.216549605,"163":-67484375.31537697,"164":-36525189622.682236,"165":-13796595980.215916,"166":0.11695232590761893,"167":-756486200.9992607,"168":-23351820437.371876,"169":-12467702995.186607,"170":1663783345.862381,"171":-4681015407.877478,"172":-207460.76643086653,"173":13173369185.059378,"174":1328892984.930958,"175":-20723753.544445258,"176":-34923746.25768623,"177":-56176854.40363486,"178":-13410610.058909202,"179":-93169842.66136609,"180":-109031141.57653545}},{"sx":1,"sy":1,"depth":181,"w":{"0":-13.661314604132857,"1":-4.861696612532138,"2":-0.06461468794013084,"3":-2.4741089197687685,"4":-11.772085611825444,"5":-1.404236313232236,"6":-0.4181879345052658,"7":-2.435015690360758,"8":0.009623023654171205,"9":2.0779071090533145,"10":3.321623964242565,"11":-13.694146919529114,"12":-3.387027869640964,"13":-0.29180184756208855,"14":-2.2064751952455035,"15":-11.430785862461343,"16":-5.04881298467003,"17":-0.8861284959862251,"18":-2.790875546585361,"19":0.09094153203968634,"20":2.3582635737842756,"21":-1.6626834253747427,"22":0.06834120950160678,"23":0.03257255323720138,"24":0.057369807637668496,"25":0.03955408523756163,"26":0.05349646598108384,"27":0.02882051354340416,"28":-13.695163959951719,"29":-4.902772744431376,"30":-0.19605302697603122,"31":-3.3696911952962547,"32":-11.122909802429742,"33":-3.3374947053808377,"34":-0.6211556593545566,"35":-2.3235592534482294,"36":-0.0238044673763792,"37":2.4679128374843966,"38":1.8273101956848068,"39":-0.10217908197438642,"40":0.002870288294738972,"41":0.017327780765982615,"42":-0.11330531552270025,"43":-0.03105779682073893,"44":-0.025182923450981016,"45":-13.419634937717548,"46":-4.6363645938825675,"47":-0.06716483294642707,"48":-0.9796305075735797,"49":-11.031761819431676,"50":-4.2821358039464785,"51":-1.0139511989058276,"52":-2.689507348561361,"53":-0.01447680994142242,"54":2.400388190354866,"55":0.2116709137947419,"56":-0.06438035640191078,"57":-0.06671864392061805,"58":-0.009569493013465389,"59":-0.1375354770954755,"60":0.053487151850247536,"61":-0.050354356573367405,"62":-13.35515762996267,"63":-4.508840539056584,"64":0.0026638264639959074,"65":-2.6927346179175387,"66":-11.102000727364949,"67":-3.2915164968779633,"68":0.7896088461157701,"69":-2.4430315813355845,"70":0.0697865217988819,"71":2.223381897986882,"72":1.3503226397653276,"73":-0.1788457739390727,"74":-0.02430914254918096,"75":-0.0028899537345535194,"76":-0.008574327941260462,"77":-0.023420818903920938,"78":0.1504191683286575,"79":-13.58662856465716,"80":-4.0383622625555695,"81":-0.08455848376093865,"82":-2.976874245014517,"83":-12.515523776473572,"84":-3.9609653411536767,"85":-1.376248275194974,"86":-3.6415934684046523,"87":0.02552483090889731,"88":1.0508490804515394,"89":0.1186157647223536,"90":-0.1153569529468591,"91":-0.010608627603660544,"92":-0.10508615576645955,"93":0.0036412056216800605,"94":-0.1341904327652798,"95":-0.11742620864757652,"96":-13.310623324229697,"97":-4.464010630570547,"98":-0.022997765121177106,"99":-3.99377598486954,"100":-11.752347617609734,"101":-4.720760523897657,"102":-2.8104321865876094,"103":-4.415481142694326,"104":0.02057027524049507,"105":1.5069616640842973,"106":-0.2559968196099582,"107":-0.04636284295703823,"108":0.03642802104080468,"109":0.022850263911687686,"110":-0.07693904546920757,"111":-0.0025274606204081515,"112":-0.01994971987156413,"113":-13.434974950002943,"114":-4.739720245603496,"115":0.022414427394458866,"116":-2.7864941046749228,"117":-10.446469528214994,"118":-3.1372725202828082,"119":-2.947013175291622,"120":-5.236382599758905,"121":-0.0694127902905747,"122":2.9488395817764648,"123":1.5180249048209253,"124":0.08089821736144925,"125":-0.11164288232778335,"126":0.1269700290145291,"127":-0.167576796858297,"128":0.01517283096255195,"129":0.009444455013776039,"130":-13.487880855757963,"131":-4.152229318051962,"132":0.0012475042024374743,"133":-3.5481733727927334,"134":-9.008525137136273,"135":-3.469083246304958,"136":-0.8850544315782025,"137":-6.661477650258014,"138":-0.07326166622678765,"139":4.413736995065957,"140":0.7430166864349104,"141":-0.16332116987785514,"142":-0.028461501646117212,"143":0.01707417660706459,"144":0.03250464164654929,"145":-0.05279303315965108,"146":-0.04214451907108647,"147":-13.400819443197003,"148":-4.943726403604702,"149":-0.0887348793900183,"150":-1.3350163528304113,"151":-9.172749303895202,"152":-3.1036238789721566,"153":-0.27191461218133406,"154":-5.931701234822596,"155":0.05819965064708482,"156":4.31429169428489,"157":1.7454817940394929,"158":0.1388089187749794,"159":0.11152336385576421,"160":-0.011619318696540974,"161":-0.27450665420171977,"162":0.12969058187229499,"163":-0.012257878575017159,"164":-13.352638735746712,"165":-4.641756250389648,"166":-0.023782800185632932,"167":-1.6220587049421689,"168":-9.496154238336771,"169":-3.9688364681949615,"170":-0.28537842408986736,"171":-4.694376918671268,"172":0.024444110021629606,"173":3.9373028174043587,"174":0.8708853325109458,"175":-0.038139829726122565,"176":-0.002057908732705587,"177":0.0670181684098176,"178":-0.11143984683591251,"179":-0.059374542500556106,"180":0.07091965266492943}},{"sx":1,"sy":1,"depth":181,"w":{"0":-1146870440.4095004,"1":-322243325.0817134,"2":0.028851097027748605,"3":-271320693.93914795,"4":-1129868678.4836774,"5":-204898255.71919492,"6":2512124.983767417,"7":-134279548.36673358,"8":-485223.87586676714,"9":17001761.667200156,"10":117345069.36971399,"11":-1147529240.7859962,"12":-308110572.8583423,"13":-10980004.679513657,"14":-18601315.383352812,"15":-1128223720.27892,"16":-378253691.53640676,"17":-113503142.55140235,"18":-362171081.1245922,"19":-184297.99655656025,"20":19305520.495504,"21":-70143118.74355286,"22":-176136.74955708816,"23":-5451615.072712401,"24":442602.175458284,"25":-1897664.6742569099,"26":-2377733.1620299728,"27":-246398.95451922645,"28":-1149778768.882088,"29":-334058329.6619137,"30":-48472142.231247604,"31":-317456147.4470548,"32":-1045052868.773238,"33":-196326060.3128292,"34":10767123.212948544,"35":-125358614.05776884,"36":-501721.084984509,"37":104725900.2793647,"38":137732269.43921232,"39":-1528226.70751797,"40":-1252870.274706704,"41":-377126.6678978698,"42":-6171240.650408039,"43":-904480.5085457094,"44":526998.4827493683,"45":-1146870440.5766203,"46":-354489108.6040345,"47":0.05946941814572634,"48":-176156188.63853785,"49":-1010188777.0789801,"50":-364069593.964278,"51":-148985967.50776136,"52":-389574995.31947726,"53":-345599.286818093,"54":136681663.28162476,"55":-9580485.355182711,"56":-1134720.8511809038,"57":-2091474.6122141113,"58":252874.78337227064,"59":-2765716.882853588,"60":-2543315.15854709,"61":-1424593.7041547233,"62":-1146870440.3684244,"63":-292952475.3310936,"64":-0.02634045925847143,"65":-289986906.48182476,"66":-927721818.0700802,"67":-142701693.41654566,"68":-35925115.418788664,"69":-222858177.36117986,"70":-600753.3611522478,"71":219148622.08634973,"72":150250781.8757986,"73":-2109572.8387246896,"74":-4748098.185257318,"75":-88630.74902198602,"76":-3343660.61751732,"77":-8646.783112215779,"78":591662.5104069375,"79":-1146870440.4068208,"80":-266404502.93315384,"81":-0.08251369874931651,"82":-67550836.7457312,"83":-924393903.3846153,"84":-334276315.2180503,"85":128285644.90856223,"86":-425688906.0375394,"87":-353620.7630433696,"88":222476537.19587854,"89":-67871812.17953326,"90":-350963.0816056565,"91":-2429886.117205616,"92":-112211.57340862257,"93":-5244312.106630302,"94":-1141911.7601940227,"95":-427662.1345577644,"96":-1148373612.4601848,"97":-349892488.02541775,"98":-25052868.822078332,"99":-169844328.00723147,"100":-1017551917.730268,"101":-165047875.2267118,"102":-89235307.05783802,"103":-167910657.0639566,"104":-368313.7099260064,"105":130821694.73449156,"106":184844612.64470118,"107":-3144577.1111914115,"108":-1327204.4186489126,"109":501185.3561010704,"110":-735362.6466345129,"111":-1293745.8852687343,"112":-3707241.757518693,"113":-1146870440.5236008,"114":-332761157.0188301,"115":0.04940306009611627,"116":-108877264.75622693,"117":-936609530.61256,"118":-346758181.00744706,"119":-306401742.75538635,"120":-74027307.90675971,"121":-257565.4988080601,"122":210260909.7579862,"123":-13997024.226505462,"124":-209039.50812721354,"125":-491716.1678772942,"126":-122194.97417461684,"127":-6283943.132048046,"128":-689782.866291886,"129":-1910269.804333181,"130":-1146870440.3984852,"131":-337642751.6386265,"132":-0.00029549147433838107,"133":-167304071.41112438,"134":-755009429.6606953,"135":-336658240.0696863,"136":184802777.8314048,"137":-459366024.5085463,"138":-378589.93402726675,"139":391861010.71105474,"140":984511.5377906701,"141":-6295865.29751023,"142":-449585.4783475087,"143":-1145329.1269855448,"144":-1565446.0685531378,"145":-1720674.2050618664,"146":1469953.460285211,"147":-1146870440.3665378,"148":-374317826.80929136,"149":0.1556294613746462,"150":-152161020.43677628,"151":-897508400.708602,"152":-241054149.09491524,"153":79878406.17536312,"154":-171558026.35928133,"155":-237751.60478252536,"156":249362039.71848392,"157":133263677.72626103,"158":-254008.05023004414,"159":-1307211.0934372558,"160":-2721943.4816017626,"161":-1530138.4712026478,"162":-1675595.715563353,"163":-2218049.6406136733,"164":-1146870440.4547691,"165":-398425599.26697594,"166":-0.1760521714934006,"167":-57647613.87191981,"168":-934944206.5157025,"169":-306909273.29617405,"170":-35623791.855863556,"171":-153108422.95468473,"172":-57690.766760327446,"173":211926233.83644864,"174":91516325.94027887,"175":-961331.2137672626,"176":-2249081.411062,"177":-2721814.697846759,"178":-1528415.3117781559,"179":-1222114.361619056,"180":-1024189.2398014191}},{"sx":1,"sy":1,"depth":181,"w":{"0":0,"1":0,"2":0,"3":0,"4":0,"5":0,"6":0,"7":0,"8":0,"9":0,"10":0,"11":0,"12":0,"13":0,"14":0,"15":0,"16":0,"17":0,"18":0,"19":0,"20":0,"21":0,"22":0,"23":0,"24":0,"25":0,"26":0,"27":0,"28":0,"29":0,"30":0,"31":0,"32":0,"33":0,"34":0,"35":0,"36":0,"37":0,"38":0,"39":0,"40":0,"41":0,"42":0,"43":0,"44":0,"45":0,"46":0,"47":0,"48":0,"49":0,"50":0,"51":0,"52":0,"53":0,"54":0,"55":0,"56":0,"57":0,"58":0,"59":0,"60":0,"61":0,"62":0,"63":0,"64":0,"65":0,"66":0,"67":0,"68":0,"69":0,"70":0,"71":0,"72":0,"73":0,"74":0,"75":0,"76":0,"77":0,"78":0,"79":0,"80":0,"81":0,"82":0,"83":0,"84":0,"85":0,"86":0,"87":0,"88":0,"89":0,"90":0,"91":0,"92":0,"93":0,"94":0,"95":0,"96":0,"97":0,"98":0,"99":0,"100":0,"101":0,"102":0,"103":0,"104":0,"105":0,"106":0,"107":0,"108":0,"109":0,"110":0,"111":0,"112":0,"113":0,"114":0,"115":0,"116":0,"117":0,"118":0,"119":0,"120":0,"121":0,"122":0,"123":0,"124":0,"125":0,"126":0,"127":0,"128":0,"129":0,"130":0,"131":0,"132":0,"133":0,"134":0,"135":0,"136":0,"137":0,"138":0,"139":0,"140":0,"141":0,"142":0,"143":0,"144":0,"145":0,"146":0,"147":0,"148":0,"149":0,"150":0,"151":0,"152":0,"153":0,"154":0,"155":0,"156":0,"157":0,"158":0,"159":0,"160":0,"161":0,"162":0,"163":0,"164":0,"165":0,"166":0,"167":0,"168":0,"169":0,"170":0,"171":0,"172":0,"173":0,"174":0,"175":0,"176":0,"177":0,"178":0,"179":0,"180":0}},{"sx":1,"sy":1,"depth":181,"w":{"0":-97616918528.58101,"1":-32716902239.75063,"2":-0.03630015714680826,"3":-13846769933.558098,"4":-89028446492.62993,"5":-12486915108.950462,"6":-11854946629.906288,"7":-14758958778.878267,"8":-26095289.337041978,"9":8588472035.970531,"10":20229987130.858368,"11":-97641044921.9662,"12":-32267754565.22168,"13":-402106556.8257937,"14":-4261040398.715975,"15":-80032874980.18459,"16":-35776574435.41471,"17":-16780664196.804424,"18":-18194340844.599716,"19":-11684022.834378958,"20":17608169941.87263,"21":-3508819870.0639668,"22":20774211.10634853,"23":-210574239.1243321,"24":20688906.545571737,"25":-168022581.11374235,"26":-562357678.1427791,"27":13807061.187666923,"28":-97723426495.90854,"29":-34098536469.49135,"30":-1775132788.7059455,"31":-16756253209.644567,"32":-67862658686.694084,"33":-22076088376.109,"34":5000793893.422415,"35":-27275540659.47521,"36":-26539903.439842872,"37":29860767809.215508,"38":12022448093.41656,"39":-545656132.6199912,"40":-15700088.014916403,"41":-36993024.0196324,"42":-185514715.8863626,"43":-121027560.55416751,"44":19207201.287524387,"45":-97616918528.53143,"46":-33522109699.996983,"47":0.04001136388252158,"48":-11690618006.383677,"49":-68343535941.788795,"50":-30902568128.648346,"51":-9037850688.3829,"52":-33983997112.4253,"53":-20879834.608724535,"54":29273382586.83967,"55":2619541571.342548,"56":-30602584.345318064,"57":-175310836.1522944,"58":-152431621.4694018,"59":-241290845.28488487,"60":-157886515.62687278,"61":-128161916.67938882,"62":-97756018698.0222,"63":-32316012418.495335,"64":-2318336158.7494583,"65":-11503903588.92172,"66":-61806531637.79618,"67":-12035080992.724943,"68":-5948588544.248544,"69":-16901152433.425276,"70":-23981036.643640023,"71":35949487060.17358,"72":20280931425.727,"73":-230902249.29688308,"74":-337443433.61652356,"75":-138728585.00938267,"76":-204943061.4175697,"77":14305696.06312758,"78":12027313.165846363,"79":-97600980155.17418,"80":-31460912274.190605,"81":-132819779.09443444,"82":-2384518429.5587606,"83":-59680541625.56236,"84":-31422075126.53073,"85":5860729827.099091,"86":-25745971114.503407,"87":-13451664.544231743,"88":37920438529.50216,"89":38837147.47827679,"90":-43301002.70544517,"91":-70633567.62084575,"92":1387782.900173849,"93":-382052823.6375568,"94":-309012719.6337338,"95":-82071988.96570393,"96":-97595554147.67891,"97":-34449057637.15706,"98":-784659143.644209,"99":-5444752800.886843,"100":-62447564339.79171,"101":-21193951500.99802,"102":-6156583411.134602,"103":-21457586447.695118,"104":-13054127.41522211,"105":35147989807.801346,"106":13255106136.104712,"107":-101442119.85042411,"108":-363338383.540316,"109":-49021012.87252341,"110":9071201.297941264,"111":-227288102.02683842,"112":-153665903.04331067,"113":-97624887715.50096,"114":-34589431655.70674,"115":-132819779.1488472,"116":-3852535170.199484,"117":-60852527437.92513,"118":-23911365737.878754,"119":-18817163618.0531,"120":-5858964851.436492,"121":-8198203.042196974,"122":36772360277.377464,"123":10678065918.059393,"124":-21058801.129272573,"125":-24695583.393648244,"126":-84643570.2705864,"127":-393007075.2502856,"128":-132212061.572435,"129":-230067228.0856732,"130":-97616918528.6695,"131":-33235740049.68455,"132":-0.002119003420150838,"133":-11061754670.407026,"134":-48183460044.38432,"135":-33829506283.96359,"136":5859889833.605625,"137":-39704054950.414566,"138":-21433073.4066754,"139":49433458484.36723,"140":-593766234.5161881,"141":-400133067.2750469,"142":-94871448.32915404,"143":-62474026.61989839,"144":-160420139.68572962,"145":-105634910.31127727,"146":-62150727.8457869,"147":-97616918528.7837,"148":-34181528292.633266,"149":-0.03991143983220604,"150":-8839733033.37512,"151":-53868296594.04273,"152":-15697048499.2873,"153":14031632742.859201,"154":-14361665265.976315,"155":-14760135.319007156,"156":43748621934.53219,"157":18484479793.2211,"158":-111700844.10631809,"159":-301000118.8575575,"160":-64401784.843218364,"161":-78538146.9817704,"162":-148864257.14544013,"163":-181179168.04144463,"164":-97616918528.63701,"165":-37283784826.97631,"166":-0.05056819947663951,"167":-2407353411.6211824,"168":-63142946225.61334,"169":-33682794417.615158,"170":4342814203.572611,"171":-12821588404.238853,"172":-1108640.6285648341,"173":34473972303.11851,"174":3600990409.1652136,"175":-60222171.794915296,"176":-93349606.72000146,"177":-151268509.0130906,"178":-36739859.50743659,"179":-251635932.22878024,"180":-292468240.54942435}},{"sx":1,"sy":1,"depth":181,"w":{"0":-282812616095.76215,"1":-94349272205.24971,"2":-0.05460926408596873,"3":-40062649446.96962,"4":-257666409946.5986,"5":-35780493713.40345,"6":-34143129427.35726,"7":-42527426980.520134,"8":-75573706.89286585,"9":25146206149.052315,"10":58568778491.92622,"11":-282883223259.2086,"12":-93137230393.72993,"13":-1176786058.0204055,"14":-11935547776.726725,"15":-231735759220.25955,"16":-103307912967.89069,"17":-48704773517.56299,"18":-52535495311.97215,"19":-33111369.39490848,"20":51147464038.90037,"21":-10170682574.318287,"22":61117327.20244082,"23":-602373504.8225936,"24":61267571.78665718,"25":-488755981.9218762,"26":-1626233431.2727158,"27":39164451.16161885,"28":-283124317282.6545,"29":-98484472679.07236,"30":-5195019783.313291,"31":-48397886880.84575,"32":-196376324451.74344,"33":-63704136201.9091,"34":14039196223.140757,"35":-78432957206.5065,"36":-76382455.36053587,"37":86747992831.02046,"38":34780336477.10063,"39":-1578579463.6832476,"40":-40434017.205583386,"41":-108366613.11936013,"42":-537285317.4277667,"43":-350996857.52686745,"44":59848700.44705416,"45":-282812616095.8818,"46":-96727151249.48682,"47":0.06662068895835314,"48":-33764441241.69968,"49":-197448481851.27255,"50":-89403077401.41687,"51":-26297413668.209606,"52":-98195926542.12611,"53":-60305721.78792343,"54":85364134244.6245,"55":7324073848.231865,"56":-91167086.61381343,"57":-508288741.76186186,"58":-435766562.10836977,"59":-698194356.3778484,"60":-456714644.82120776,"61":-365682175.9479051,"62":-283217262277.16144,"63":-93232737677.86269,"64":-6744103024.853715,"65":-33325083057.913345,"66":-178493443884.6043,"67":-34427646763.71823,"68":-17070233794.821363,"69":-48563800236.82054,"70":-69440667.3821058,"71":104723818392.69748,"72":58805090914.11435,"73":-667786997.8317652,"74":-978556020.6094582,"75":-400252044.47485876,"76":-591129669.3920187,"77":43845384.95673432,"78":38065779.22455167,"79":-282761224397.31384,"80":-90691733469.51353,"81":-428264155.50749177,"82":-6590040145.3160925,"83":-172462522332.56677,"84":-90913804820.02644,"85":17195272907.681458,"86":-74550949806.69456,"87":-38538447.532258675,"88":110298702064.68338,"89":-222071350.45180163,"90":-124231639.95469478,"91":-204069673.0243617,"92":6471996.1121309325,"93":-1104093462.1807866,"94":-892418879.7022892,"95":-237471909.24952304,"96":-282727332638.3667,"97":-99562132905.55502,"98":-2256786329.213846,"99":-15878172790.876818,"100":-180645731330.1207,"101":-60984552277.88684,"102":-17730749646.278755,"103":-61846006108.040085,"104":-37580799.832631744,"105":102081601308.38484,"106":38577580627.78696,"107":-294242057.3866544,"108":-1053138042.939316,"109":-139599656.50958115,"110":30356167.62750621,"111":-653167106.3342292,"112":-446022872.4134077,"113":-282838311945.20154,"114":-99746638961.91142,"115":-428264155.50590956,"116":-10882239920.762249,"117":-176112577036.01617,"118":-69196786016.03667,"119":-54399657153.256744,"120":-16947741083.984444,"121":-23405354.23529206,"122":106725734909.10326,"123":30549852945.715073,"124":-60349798.924338624,"125":-69329180.52617149,"126":-246569756.68812808,"127":-1137292896.1732752,"128":-379354639.09353185,"129":-662917296.6852835,"130":-282812616095.6985,"131":-95873940082.17407,"132":-0.06587219743972966,"133":-32227376859.250084,"134":-139483425249.25034,"135":-97533239704.2872,"136":16846055965.237299,"137":-114557214385.86812,"138":-62349844.03204226,"139":143329190846.4801,"140":-1659299622.2270472,"141":-1158854760.927371,"142":-273929212.15830827,"143":-181480049.83204177,"144":-461203008.3615894,"145":-302769593.52164847,"146":-177576942.8900618,"147":-282812616095.78094,"148":-98593239500.52148,"149":0.17972321739825564,"150":-25562134056.663223,"151":-155947627708.2626,"152":-45319546847.396935,"153":40749617273.25998,"154":-41428140701.501755,"155":-42741402.37245272,"156":126864988387.5987,"157":53273692653.20863,"158":-321826731.62311363,"159":-871843028.7044303,"160":-179764721.37395394,"161":-229107376.2640749,"162":-427590108.0267092,"163":-525681602.2521166,"164":-282812616095.97186,"165":-107606019378.13087,"166":-0.015971801065482967,"167":-6831097109.179398,"168":-182932545058.06296,"169":-97253012852.65845,"170":12641061721.619587,"171":-37035600279.70832,"172":-2977369.993275224,"173":99880071037.57407,"174":10353006525.535498,"175":-171127009.86829224,"176":-271096500.2047706,"177":-439785515.4235928,"178":-102145813.44838803,"179":-730940078.6967237,"180":-840718650.4362789}},{"sx":1,"sy":1,"depth":181,"w":{"0":-10.764808186052235,"1":-3.8093036560872044,"2":-0.020584223156386302,"3":-2.2197064204035932,"4":-9.676188819330793,"5":-1.194239227173515,"6":-0.34623221529895115,"7":-2.3074295261377546,"8":0.10702692064504528,"9":0.9524594739712422,"10":2.4454463238046844,"11":-10.658451029672625,"12":-2.2040075646875543,"13":0.03670643066538921,"14":-0.8497665547490589,"15":-9.590651450097353,"16":-3.6123746936784857,"17":-0.4842304429792282,"18":-3.4627167333072935,"19":-0.05428096248027715,"20":1.074603527446025,"21":-1.4058289224855816,"22":-0.03569604191671801,"23":0.048235136868367064,"24":-0.03975819875889373,"25":0.04695836700873653,"26":0.01963024871205492,"27":0.038831820739175085,"28":-10.82359685072805,"29":-3.8966894936379863,"30":-0.005051031353408095,"31":-3.2527558661450313,"32":-9.761562517091617,"33":-2.1313240194660064,"34":-1.372603520143382,"35":-0.9290508047327286,"36":-0.02212474692461076,"37":0.8604317703572052,"38":1.7009641045089634,"39":0.010359617532419577,"40":0.029914878346749194,"41":0.025096409230973383,"42":-0.06336986859213843,"43":0.016314160426485695,"44":0.018427979687442895,"45":-10.51953442754706,"46":-3.125962849358964,"47":0.01020875051690545,"48":-0.9143756182128308,"49":-8.832966249338515,"50":-3.8956711383234146,"51":-2.563126134206584,"52":-4.292573978514283,"53":0.08166211855042614,"54":1.6614381395223186,"55":-0.889511003445424,"56":0.08922970534214988,"57":-0.11570167845308706,"58":0.10252437695380025,"59":0.05100502572909058,"60":0.058801688155914106,"61":-0.038605300463482706,"62":-10.794997733870618,"63":-4.090326131419527,"64":0.062133088999876525,"65":-1.6841568947593046,"66":-7.520278212005823,"67":-1.4649531212027942,"68":0.5710984680091109,"69":-2.205479694622384,"70":-0.07148139846110921,"71":3.2360239612596553,"72":2.4339837633511836,"73":-0.14232519401468816,"74":-0.16588523535804223,"75":0.07178576812001022,"76":0.07472104206869945,"77":-0.003751261894688033,"78":-0.057128929351926684,"79":-10.64682240326845,"80":-3.4988535556742026,"81":0.0029429645740290935,"82":-0.40338168086749915,"83":-8.105929997127976,"84":-3.7457291645915087,"85":-0.8969939232073172,"86":-4.135294614605882,"87":-0.02289478076907011,"88":2.691053169242208,"89":0.0023008245225861774,"90":-0.06243632317588529,"91":-0.10393452965824745,"92":-0.09130440524271984,"93":0.024411071237369204,"94":0.003141920779304671,"95":-0.05916859501710799,"96":-10.621158571454824,"97":-3.6346390380560436,"98":0.024142386992157355,"99":-2.267405691945915,"100":-7.5981089714054635,"101":-1.8666626806808861,"102":-0.41197229081876335,"103":-0.7644954570581616,"104":-0.06738898503306437,"105":3.1603203285943597,"106":1.8200952649490072,"107":0.03243076721750788,"108":0.05822809528802614,"109":0.05443634599358053,"110":-0.183311268442952,"111":0.12301598964194856,"112":-0.10202660683033181,"113":-10.672811147170837,"114":-3.8134922494252037,"115":-0.10601224897814937,"116":-0.7250850551185231,"117":-7.135308966432802,"118":-3.288181022752032,"119":-1.18097148077016,"120":-3.0874362221640728,"121":-0.08832372297478719,"122":3.6213799400030973,"123":0.4681225534686556,"124":0.054381205636116675,"125":0.003810257588481062,"126":-0.03356309756087298,"127":0.08448256837324136,"128":-0.06865149110616023,"129":-0.12850696150525764,"130":-10.69898773416258,"131":-3.5884258991806446,"132":0.008094814514075817,"133":-1.2612084191367567,"134":-6.3508913268588865,"135":-2.3142617899497395,"136":-0.3966324840560028,"137":-3.092778661380047,"138":0.02060048637215152,"139":4.478765162187909,"140":1.2041337016705531,"141":0.0076694409086115875,"142":-0.034989742732113485,"143":0.08824798637790049,"144":0.0833572496469326,"145":-0.10767206441910052,"146":0.09223256274397088,"147":-10.792637760076593,"148":-3.8887181643853532,"149":-0.019704147483132747,"150":-0.4542478498372061,"151":-6.139722434251924,"152":-3.0781777936326016,"153":0.2270451123134685,"154":-4.136648114773342,"155":-0.08436848905938829,"156":4.489718314379886,"157":0.6366239833641164,"158":-0.0048496704602379375,"159":-0.11000142280497902,"160":0.1629823402767051,"161":-0.018509304897966674,"162":0.15040497485337168,"163":-0.09163800214317977,"164":-10.783345243835177,"165":-3.829243202697943,"166":0.003951409315817036,"167":-0.3709000892503572,"168":-6.176219244348222,"169":-2.369555620457304,"170":-2.81089826248571,"171":-2.8714877792843136,"172":-0.028978848030125976,"173":4.233176201388597,"174":1.282512547457095,"175":0.010277737651041922,"176":-0.03560641681010218,"177":0.00890234312398853,"178":0.0862199931071491,"179":0.018336608158341174,"180":-0.10602881216116092}},{"sx":1,"sy":1,"depth":181,"w":{"0":-10.396977881250713,"1":-5.351881069574895,"2":0.028777066577319193,"3":-1.5326809655821418,"4":-10.950676240804011,"5":-2.574075218401437,"6":-0.08626970044524832,"7":-3.677617405334331,"8":0.0284200398147326,"9":-0.6267163090271776,"10":2.582534947692825,"11":-10.604308912203349,"12":-4.850255052789389,"13":-0.37426205386545486,"14":-1.183123858735934,"15":-11.18604405017696,"16":-4.441941358147363,"17":1.6909398902368298,"18":-6.082767132130498,"19":0.030588498649442884,"20":-0.7202521702132146,"21":0.5932725052298572,"22":0.05889789892915085,"23":-0.040281412854378175,"24":-0.03616675526312411,"25":0.06130881477317235,"26":0.052849999526529357,"27":0.005623120861944501,"28":-10.308078048263571,"29":-5.679790640434952,"30":-0.10870954917241478,"31":-0.8733878048779872,"32":-12.200147472424202,"33":-3.303543109119715,"34":-1.8902633001346614,"35":-4.064471288572826,"36":0.0450465043178298,"37":-1.8534308901495193,"38":2.4628797025582267,"39":0.0806886760257655,"40":0.1421023176195159,"41":-0.12412330164828407,"42":-0.1388967240522704,"43":-0.019131853444536075,"44":-0.159670828025134,"45":-10.195885947590952,"46":-5.241383263811181,"47":-0.032911311722011866,"48":-1.066413344912579,"49":-10.821804097421241,"50":-4.438340665791416,"51":-1.9953494691454923,"52":-4.277551832829456,"53":0.13076583089653585,"54":-0.5836230682894259,"55":0.8046027261214881,"56":0.031268814020940755,"57":-0.07536053563653242,"58":0.0911144478927687,"59":-0.033148854604112536,"60":-0.05597873708632962,"61":0.12586126991234067,"62":-10.059948983047109,"63":-5.310862312447412,"64":0.16029998224976666,"65":-1.0852478005044128,"66":-9.365531750722383,"67":-3.4871590192569726,"68":-0.30223511096041994,"69":-3.2944348725362986,"70":-0.02349928492648664,"71":0.6793347035799967,"72":1.7467456943778192,"73":-0.04496119048965436,"74":-0.056301390909972195,"75":-0.020615079416779012,"76":0.029535462259948554,"77":-0.012822785551754094,